{
  "version": "v2",
  "type": "neural_network",
  "architecture": {
    "input_size": 24,
    "hidden_size": 24,
    "output_size": 1,
    "activation": "relu",
    "output_activation": "sigmoid_scaled"
  },
  "engineered_feature_names": [
    "cur_temp",
    "max_temp_24h",
    "min_temp_24h",
    "temp_trend_48h",
    "freeze_thaw_days_ago",
    "warmest_thaw",
    "thaw_intensity_recency",
    "snow_since_freeze_cm",
    "snowfall_24h_cm",
    "snowfall_72h_cm",
    "older_snow_accum",
    "elevation_km",
    "hours_above_0C_ft",
    "hours_above_3C_ft",
    "hours_above_6C_ft",
    "cur_hours_above_0C",
    "cur_hours_above_3C",
    "cur_hours_above_6C",
    "fresh_powder_indicator",
    "accumulated_powder_indicator",
    "warm_degradation",
    "severe_thaw_damage",
    "temp_adjusted_fresh_snow",
    "summer_flag"
  ],
  "raw_feature_columns": [
    "cur_temp",
    "max_temp_24h",
    "max_temp_48h",
    "min_temp_24h",
    "freeze_thaw_days_ago",
    "warmest_thaw",
    "snow_since_freeze_cm",
    "snowfall_24h_cm",
    "snowfall_72h_cm",
    "elevation_m",
    "total_hours_above_0C_since_ft",
    "total_hours_above_1C_since_ft",
    "total_hours_above_2C_since_ft",
    "total_hours_above_3C_since_ft",
    "total_hours_above_4C_since_ft",
    "total_hours_above_5C_since_ft",
    "total_hours_above_6C_since_ft",
    "cur_hours_above_0C",
    "cur_hours_above_1C",
    "cur_hours_above_2C",
    "cur_hours_above_3C",
    "cur_hours_above_4C",
    "cur_hours_above_5C",
    "cur_hours_above_6C"
  ],
  "weights": {
    "W1": [
      [
        -0.3165392423761802,
        0.36733501947812286,
        -0.16421524283430206,
        -0.5512518058782491,
        -0.3345497986492791,
        0.2666509031225387,
        -0.6026437707388121,
        -0.1552486856996967,
        0.35215591281764613,
        -0.27472945953958006,
        -0.42718343263580744,
        -0.07043268766098233,
        0.4187560574028583,
        -0.31624078572264364,
        0.07720441382409168,
        -0.23209992036227536,
        0.6779336335058471,
        0.8652032664513991,
        0.258534581079164,
        0.20963934829671527,
        0.16244431100773887,
        0.4269078920557234,
        -0.19483177259363674,
        0.3366985760703244
      ],
      [
        -0.30938520196018693,
        -0.20471088122058373,
        0.30044774845327626,
        -0.4305216917628674,
        0.006688421334104216,
        -0.31222356069133406,
        -0.14665390504320505,
        -0.8085739224356359,
        -0.5238159902956412,
        -0.018485128110824457,
        0.26866357566060256,
        0.07617662855727662,
        -0.04826954742436752,
        0.035292351176820606,
        -0.172063488415393,
        0.06747943464498424,
        -0.16109038499380737,
        0.02743250735883877,
        -0.026230890812892406,
        0.21143718434234954,
        0.21358914484253522,
        -0.07010952164980265,
        0.6549873334566687,
        0.17551939595017377
      ],
      [
        0.2814718101737726,
        0.7362891910313477,
        -0.3867949213848667,
        -0.16969220386312373,
        0.257103438079167,
        -0.06336266032946147,
        -0.04539949753994755,
        0.33118563843965826,
        0.21522020444051693,
        0.4867931248994219,
        0.5136922637587175,
        0.08698309429620185,
        -0.283356672314251,
        0.12434832510643215,
        -0.24843722888320804,
        -0.33450304920852447,
        0.2503920523511208,
        -0.01653672221441383,
        0.07560823458163521,
        -0.004424497203971898,
        -0.2207710681792165,
        0.29080577310442424,
        0.07928656756189809,
        -0.21814366479225042
      ],
      [
        0.36302973424185564,
        -0.04331705055585878,
        -0.4294762470510758,
        0.1810221799174637,
        -0.13704617990912743,
        0.04643059273156342,
        -0.2775317397364203,
        -0.5087829186259353,
        0.2378764943828985,
        -0.19505490112557788,
        0.7210383122481123,
        0.17288621752316943,
        0.029555871578389736,
        -0.3429811457015827,
        -0.17458879766465632,
        -0.4904159029276818,
        0.543635668279019,
        -0.11971335807057971,
        0.21903725408870753,
        -0.43481326860810443,
        -0.01302555163131738,
        0.42794526095996077,
        -0.17702931621489396,
        0.24791116724329246
      ],
      [
        -0.22025438986182536,
        -0.3568896017847317,
        0.07194624479434282,
        -0.055349817193711986,
        -0.08734821761759508,
        -0.38853626544644654,
        0.1542701847366499,
        0.6654299386121478,
        0.10920277697104123,
        -0.036975136074762834,
        -0.052464635280025186,
        -0.5135080085350332,
        0.1983935964697704,
        -0.6259309819575084,
        -0.4956245845245431,
        0.33572089480302,
        -0.20993839570506256,
        0.11518156813460763,
        0.27863697458595876,
        -0.04936267888969766,
        -0.34790541254963314,
        0.044180311758344484,
        0.6011797497529546,
        -0.34554514789793583
      ],
      [
        -0.16066551618431818,
        -0.14994750596924938,
        0.05056339394311754,
        0.15483280578463957,
        0.15568224359133345,
        -0.14821323903597097,
        0.17666779327318355,
        0.1636645617777944,
        0.04844325584983582,
        -0.27427328251310323,
        -0.013964565066587789,
        -0.17992110463211974,
        -0.07677109007404619,
        -0.08358896013776496,
        -0.02887850135326166,
        0.12908851227640566,
        -0.12024542886869666,
        0.2976019337988366,
        0.4355041077010008,
        0.01574122357791533,
        -0.28622567952544153,
        0.05466823730524681,
        0.4004157454878663,
        0.0173759652631892
      ],
      [
        -0.0016563750045608594,
        -0.19426620023689198,
        -0.153061375012812,
        0.6006603535063149,
        -0.12037118963225815,
        0.02111788368606326,
        0.04711998090192779,
        0.06762918237123985,
        -0.44609906175633196,
        -0.5277766764835234,
        -0.4810365382231229,
        0.10908606951501873,
        0.11808359968036228,
        -0.23944015605291635,
        0.38029377202616393,
        -0.019435769778748665,
        0.08667338382834817,
        0.03004993536679664,
        -0.012846799172034946,
        0.18632977461734626,
        0.10186127006592614,
        -0.6259739008491519,
        0.3268964371495907,
        -0.07653347234058949
      ],
      [
        -0.02165842999960715,
        -0.0792029922128123,
        -0.21941110209693493,
        -0.0735324061998261,
        -0.9875700315467355,
        -0.030067900667352595,
        0.25595878341832257,
        0.48962752185012404,
        0.0921034347923335,
        -0.1560581396913709,
        -0.3374400698023017,
        0.08136727898613468,
        0.08709431079130489,
        0.3805875003135302,
        0.30965739446467655,
        -0.03412494304974437,
        -0.2830000698677975,
        -0.4591399911247868,
        -0.16848849461023188,
        -0.18864838897209865,
        -0.19326407789900324,
        -0.21348415317612,
        0.01923817116388398,
        -0.1045318277357073
      ],
      [
        -0.03317567840013598,
        -0.05970710669050606,
        0.1554626087057826,
        -0.799339916617531,
        -0.1898953881404523,
        -0.019426066859260994,
        0.001192118297233598,
        -0.07064206645642175,
        0.20828068398948285,
        -0.06696014829862185,
        0.4749960458251021,
        0.31061134049675215,
        0.007040684128482665,
        0.049931086044587514,
        -0.012805711463697675,
        -0.296579195580415,
        -0.17261538454489947,
        0.19587167146241555,
        0.17657975972266546,
        0.18793972629884934,
        -0.17058349845204032,
        -0.537431388060704,
        -0.038494086295149395,
        0.4831907506575143
      ],
      [
        0.23144882094761068,
        0.09539650714083138,
        -0.1776666140019597,
        0.02805900469412399,
        -0.5418424265288458,
        -0.3420062431405126,
        -0.0426292898710958,
        -0.10067579311480108,
        0.23995075824227013,
        -0.28946108665291465,
        -0.447462648229259,
        -0.39662119240202537,
        -0.3595411098337946,
        0.15775725642780944,
        -0.3382202034134847,
        0.1805571488379771,
        -0.1149799217620325,
        0.10103109356449701,
        0.07182874919277796,
        -0.13508750638053654,
        0.1522935360326314,
        -0.23330318813006234,
        0.04747626271608211,
        -0.10292878453646977
      ],
      [
        0.12146455326626937,
        0.08492985585694056,
        0.046084781346722566,
        -0.3195371657438656,
        -0.07210741459857127,
        -0.38102355785827685,
        0.1401643737972507,
        -0.5963240533986194,
        -0.46413309941592495,
        0.1873966107998188,
        0.3294398162517773,
        0.12698196920390198,
        -0.2164013860969363,
        -0.3757443894540113,
        0.3685253186259631,
        -0.03908509147811417,
        0.21266754646837943,
        0.06279083052903232,
        -0.030938872597640346,
        0.7925695253717578,
        -0.13631610348630463,
        -0.20435563883326316,
        -0.3330710164433701,
        -0.25857875185850904
      ],
      [
        0.28724352112137624,
        -0.12511449739146668,
        0.159945911102874,
        0.12175670118821588,
        0.4748322745320507,
        0.39414547892163815,
        -0.40329357558311807,
        -0.27106686183322115,
        0.25939880598177534,
        -0.08202208625706517,
        0.05325362513803923,
        -0.8211263638016763,
        0.28558839611455006,
        -0.4650081415641111,
        0.2863080077217152,
        0.1254934806560766,
        -0.4526303725999991,
        -0.6569842656030095,
        -0.48490214061649983,
        -0.02108036187820117,
        -0.280938871626079,
        -0.17465076947614402,
        -0.3253976148584294,
        0.2244536393299971
      ],
      [
        -0.4021908124979663,
        0.08411414426351055,
        -0.45826146863650613,
        0.08459304794526232,
        0.29167889652258355,
        -0.17908082543585052,
        -0.6000792607174014,
        0.17341265258362182,
        0.5412579615319225,
        -0.04184434679704687,
        0.008904193468341995,
        0.11807058143448534,
        0.19144599013720073,
        -0.29442306198983625,
        -0.29842372729165656,
        0.18348613111518447,
        -0.006257742914092117,
        0.4393544246955936,
        -0.23722154711314739,
        0.2766944277969089,
        0.061791118621594456,
        0.3042320145433858,
        0.22850436968696838,
        0.2870663907062207
      ],
      [
        -0.30303440818270494,
        0.19201869613213468,
        0.29067263986290676,
        -0.10039723651901457,
        -0.06534345438890418,
        -0.15680116285121884,
        -0.04854672138790745,
        0.17983538004385946,
        -0.211027279252202,
        -0.5214749128928139,
        -0.13740890747189977,
        -0.4860364376799066,
        0.11396138273492652,
        -0.16926980425341215,
        -0.52903097635973,
        -0.07602087874112735,
        -0.022391349459150788,
        0.16509623826275818,
        -0.06463446816797985,
        0.581926492464322,
        -0.14205464045155744,
        0.19849470290317442,
        -0.08647530638246326,
        -0.010141911653561542
      ],
      [
        0.020344656464413982,
        0.15146441439696703,
        0.3374999881813672,
        -0.4568290197613229,
        -0.14660649507942883,
        -0.0963998872794649,
        0.22673596114453587,
        -0.11030703212784061,
        -0.5273312036859553,
        -0.032402779279937656,
        0.03536372689046767,
        -0.0826188312333007,
        -0.346959259262933,
        0.4493511023465078,
        -0.09309396140719228,
        -0.029916774126637926,
        -0.2151253145050861,
        -0.2287745855079137,
        -0.3556862205172329,
        -0.07506687433939307,
        -0.26576678912006335,
        0.6489319703494236,
        -0.564062814072672,
        -0.2706162905868091
      ],
      [
        -0.13741617160339517,
        0.2150953568532838,
        -0.13882488889605346,
        0.20270707832631762,
        -0.17350584416349712,
        0.00244041709355821,
        0.44188475989486764,
        -0.2834005545209526,
        0.1500312920379814,
        -3.244046606843856e-05,
        -0.6356838178875782,
        -0.24766722261593635,
        0.2923424177495096,
        -0.024022163928251086,
        -0.24679965096408435,
        0.22386544252109183,
        -0.11557587228797643,
        -0.016927874410152376,
        0.0974749409277048,
        -0.2810562965730703,
        0.2800740954466872,
        0.12479850371574314,
        -0.3515312774776832,
        -0.15868037529005807
      ],
      [
        -0.11353393100185821,
        -0.026362657472629527,
        -0.21736459353675477,
        0.21423619380081022,
        0.010696381081342018,
        -0.21864341049772007,
        0.20662338057519491,
        0.3196831698801105,
        -0.019038367705095878,
        -0.12174894474939478,
        -0.5130900655732388,
        -0.26916980978417165,
        -0.07840402780002109,
        0.07148829564824903,
        0.1059977438096981,
        0.09866522052449507,
        0.47147673401045104,
        -0.08277834902112771,
        -0.1567300402105592,
        -0.3639429296816689,
        -0.023718975024336623,
        0.44370860829630526,
        -0.532472788339,
        -0.16805056765175913
      ],
      [
        -0.0033405713835996977,
        0.2242571732149142,
        0.10503135809044703,
        0.10393508282697579,
        -0.047718887035861954,
        0.18028907331995242,
        0.25979364851858266,
        -0.49020277033865867,
        0.21087152071522638,
        -0.04795867716737461,
        -0.18640372731768792,
        -0.7302895219100426,
        -0.4100130695373977,
        0.5022163594168328,
        -0.20248558928002577,
        -0.2907225032548431,
        -0.11854992804509265,
        -0.23509546168063783,
        0.030067059727996778,
        0.44177186310293887,
        -0.15503097788826883,
        0.0869358980400067,
        -0.3287352110380522,
        0.4816935333879931
      ],
      [
        0.0724559959736625,
        -0.3387661835490289,
        0.5105693207073891,
        0.4380455140254425,
        0.06344275478950845,
        -0.3614643460193459,
        0.6377838379170971,
        0.07472439941658117,
        0.31920823901099926,
        -0.4397225737025721,
        -0.2799012341096199,
        0.007866172529992305,
        0.3333290046204294,
        -0.15825674991695998,
        -0.29825581461314693,
        0.0815944241752499,
        0.40434099785121047,
        0.2180203796498322,
        0.07052556701660684,
        -0.30997940190512563,
        -0.4094865996048367,
        -0.2419534661698184,
        0.05207833704973688,
        -0.0659081729294442
      ],
      [
        0.022291340915184546,
        0.3575029055457768,
        0.22597249458585525,
        0.32835916634923973,
        -0.47730437129904046,
        0.544849580540893,
        -0.4666377564788432,
        -0.1047545972980367,
        0.26098816971281086,
        -0.24318841376560615,
        0.12851220512970674,
        0.0903208931540954,
        0.3067381102835006,
        0.1361840471732399,
        0.364074556724026,
        0.48325627459891835,
        0.2613101488572529,
        0.610706820244307,
        0.005198635424567621,
        -0.12423940893170786,
        -0.26286399011304373,
        0.0863513581173876,
        -0.8087843976204037,
        -0.43769040801266196
      ],
      [
        -0.28840770889900197,
        -0.03823724584799389,
        -0.7458099963048405,
        0.394272320563924,
        0.31200857140666644,
        0.6378590013224199,
        0.2629494707408579,
        0.277609551427483,
        0.6537297782401048,
        -0.19798318804473347,
        -0.45951830346517675,
        -0.031213959356665655,
        -0.2642034768002767,
        -0.059106780393872814,
        -0.34770928096408027,
        0.17984561117799996,
        0.12903597010739648,
        -0.15157806060505494,
        0.09038303457551577,
        -0.0007768596599371009,
        0.28093791057728246,
        0.30071560745330667,
        -0.04981600987475681,
        0.36746914327797037
      ],
      [
        0.3374987032355365,
        0.4072873242140641,
        -0.314376960694732,
        -0.11999485974242773,
        -0.3514697876296567,
        0.000495101468282417,
        0.08178356986230184,
        -0.047664266638075464,
        0.5662897667119287,
        -0.17116528678847537,
        -0.366887517084928,
        0.19099409307517315,
        -0.006119072409288555,
        0.15044731204986667,
        0.054038471448302025,
        0.09009171052640479,
        -0.606054017798909,
        -0.32039760792675465,
        -0.16377219965792947,
        -0.06001703786393851,
        -0.06685541176527285,
        0.3840184559100231,
        0.19775041181707156,
        -0.2253516272195627
      ],
      [
        0.1590685205816464,
        0.10440649586208577,
        0.4284303111376054,
        -0.2834956863679681,
        -0.002483391594746196,
        0.029184371631915212,
        0.3793646491284766,
        0.4885565958626025,
        0.446212965304751,
        0.10380298358553466,
        -0.11213929334918833,
        0.2699773088677239,
        -0.3013032910148212,
        -0.46291100467386836,
        0.049916633183449015,
        0.2976774829528703,
        -0.24777739898360254,
        0.6190221970117665,
        -0.7660569225099484,
        -0.438884543902649,
        -0.19039301895967264,
        0.0981933884220227,
        0.1309268252215917,
        -0.04477081345738855
      ],
      [
        -0.04793538161781422,
        -0.5204580213861929,
        0.3234631750605779,
        -0.1830182739208531,
        0.2984863817328694,
        0.01915257435615791,
        0.2776167259587307,
        0.08281281248817318,
        -0.02857297763058499,
        0.04431693861349856,
        -0.45220502236188803,
        -0.04276553316809204,
        0.45949618202623466,
        0.4101214651888844,
        -0.28602028148104186,
        0.15346250370326475,
        0.08498517850196247,
        0.21579577236708025,
        0.017285785335147734,
        -0.05465964234473871,
        0.3775345614117352,
        0.07004275001994324,
        0.3332340381566318,
        0.32543861363323867
      ]
    ],
    "b1": [
      0.08528322976933816,
      0.1352505607442818,
      0.0141664072510506,
      -0.09873623640376092,
      -0.0716713173463207,
      -0.23737559851047613,
      0.010465221573662892,
      0.03978757832285078,
      0.07674631530645651,
      0.11972824334334685,
      0.23652658934954832,
      0.27306499722400296,
      0.0790024873243206,
      -0.34767302637217257,
      0.05611003070952024,
      -0.0897939399237838,
      -0.06398235487423636,
      0.006804357260671838,
      0.022442973026972436,
      -0.12400828965410764,
      0.016157228548674192,
      -0.043415876872989985,
      -0.023250085201779742,
      -0.2697053347631758
    ],
    "W2": [
      [
        -0.11314438609935387
      ],
      [
        -0.38002937680830445
      ],
      [
        0.7511623682862857
      ],
      [
        -0.33132137116312704
      ],
      [
        -0.9943485724701736
      ],
      [
        -0.5784322269559596
      ],
      [
        0.38754589592836985
      ],
      [
        -0.03478376196841143
      ],
      [
        -0.17695644143974826
      ],
      [
        0.5715982713531657
      ],
      [
        0.7604096555262966
      ],
      [
        -0.9766943721635942
      ],
      [
        0.2350835489157924
      ],
      [
        0.7652560905400698
      ],
      [
        0.8207148400099171
      ],
      [
        -0.417072866681427
      ],
      [
        0.3675962778835381
      ],
      [
        0.8803680489646994
      ],
      [
        -0.09090699437193119
      ],
      [
        -0.170836544338723
      ],
      [
        -0.395453938697576
      ],
      [
        -1.1178136284830922
      ],
      [
        -0.4364797442485933
      ],
      [
        -0.18299153960682857
      ]
    ],
    "b2": [
      0.642290823400629
    ]
  },
  "normalization": {
    "mean": [
      -11.697285353535344,
      -6.834469696969694,
      -13.89520202020204,
      1.862247474747476,
      9.51227904040402,
      1.199999999999999,
      1.2257211884242103,
      8.665909090909102,
      2.283459595959592,
      5.2681818181818265,
      2.9847222222222207,
      2.706172214182556,
      13.249368686868687,
      10.69949494949495,
      7.808080808080808,
      7.778409090909091,
      4.0271464646464645,
      2.7342171717171717,
      2.2608743686868684,
      11.0338345959596,
      79.68964646464643,
      125.98377525252528,
      2.125441919191913,
      0.026515151515151516
    ],
    "std": [
      10.491861875305679,
      9.732224081748448,
      10.299697931708497,
      2.5529620347504958,
      5.435440151619104,
      2.743364354182296,
      4.699591256491052,
      15.26698753903299,
      5.057786441494046,
      9.652452204642204,
      6.3931273407907705,
      0.6388088078551689,
      48.099476698736744,
      43.83332584108032,
      36.08647072025706,
      32.62245018472554,
      20.547675418150497,
      16.883122912724392,
      6.090069591249579,
      21.239898166342083,
      387.68265010286484,
      602.7983258202984,
      4.662052622310515,
      0.16066143985188136
    ]
  },
  "quality_thresholds": {
    "excellent": 5.5,
    "good": 4.5,
    "fair": 3.5,
    "poor": 2.5,
    "bad": 1.5,
    "horrible": 0.0
  },
  "training_config": {
    "historical_weight": 0.0,
    "n_samples": 1981,
    "best_epoch": 1800
  },
  "metrics": {
    "train": {
      "mae": 0.3450601194776147,
      "rmse": 0.45024568840917545,
      "r2": 0.8601674272062323,
      "accuracy": 0.7462121212121212,
      "within_1": 0.9981060606060606
    },
    "validation": {
      "mae": 0.36608752854255705,
      "rmse": 0.48786407985310043,
      "r2": 0.8506913203194895,
      "accuracy": 0.7455919395465995,
      "within_1": 1.0
    }
  }
}
