{
  "version": "v2",
  "type": "neural_network",
  "architecture": {
    "input_size": 24,
    "hidden_size": 24,
    "output_size": 1,
    "activation": "relu",
    "output_activation": "sigmoid_scaled"
  },
  "engineered_feature_names": [
    "cur_temp",
    "max_temp_24h",
    "min_temp_24h",
    "temp_trend_48h",
    "freeze_thaw_days_ago",
    "warmest_thaw",
    "thaw_intensity_recency",
    "snow_since_freeze_cm",
    "snowfall_24h_cm",
    "snowfall_72h_cm",
    "older_snow_accum",
    "elevation_km",
    "hours_above_0C_ft",
    "hours_above_3C_ft",
    "hours_above_6C_ft",
    "cur_hours_above_0C",
    "cur_hours_above_3C",
    "cur_hours_above_6C",
    "fresh_powder_indicator",
    "accumulated_powder_indicator",
    "warm_degradation",
    "severe_thaw_damage",
    "temp_adjusted_fresh_snow",
    "summer_flag"
  ],
  "raw_feature_columns": [
    "cur_temp",
    "max_temp_24h",
    "max_temp_48h",
    "min_temp_24h",
    "freeze_thaw_days_ago",
    "warmest_thaw",
    "snow_since_freeze_cm",
    "snowfall_24h_cm",
    "snowfall_72h_cm",
    "elevation_m",
    "total_hours_above_0C_since_ft",
    "total_hours_above_1C_since_ft",
    "total_hours_above_2C_since_ft",
    "total_hours_above_3C_since_ft",
    "total_hours_above_4C_since_ft",
    "total_hours_above_5C_since_ft",
    "total_hours_above_6C_since_ft",
    "cur_hours_above_0C",
    "cur_hours_above_1C",
    "cur_hours_above_2C",
    "cur_hours_above_3C",
    "cur_hours_above_4C",
    "cur_hours_above_5C",
    "cur_hours_above_6C"
  ],
  "weights": {
    "W1": [
      [
        0.13315184933531032,
        -0.0342692288543837,
        0.3315104446904082,
        0.3469743093828771,
        -0.05203140271519377,
        -0.023557004410409258,
        0.44719069179725346,
        0.06174758973734491,
        -0.13565060421818384,
        0.14421942984504157,
        -0.04350765644970672,
        -0.054353666540812556,
        0.07571086925808294,
        -0.5679162076194175,
        -0.4679773420716705,
        -0.15516362734920955,
        -0.3334173278138031,
        0.05356934260044698,
        -0.13071545755588493,
        -0.36561593397938164,
        0.5104321994719695,
        0.14424486270399337,
        0.037654709950171575,
        -0.4040824522704003
      ],
      [
        -0.1476383152302944,
        0.006150332636257477,
        -0.14096849904654968,
        0.01245808939415199,
        -0.2201631834081094,
        -0.014216989224239229,
        -0.1802841232004715,
        0.3053839654993281,
        0.0026323669727105876,
        -0.3217066393791544,
        0.39764854497420804,
        -0.28079362622953835,
        0.04821680579169116,
        -0.5480721725370994,
        -0.35269411176929827,
        0.14414682864317252,
        0.16482876193197266,
        -0.008416623353165021,
        0.08579479268713439,
        -0.05918318542475207,
        -0.3137321367016186,
        0.08008708639580756,
        -0.11743076609979385,
        0.29803021807931956
      ],
      [
        0.09342584365273007,
        -0.5656801747705137,
        0.20008021282527824,
        -0.20684342317014115,
        -0.23998705993733566,
        0.2029970656916881,
        0.2826422419067881,
        0.15058526730173497,
        -0.25740436691099,
        -0.10560926555212352,
        0.15645947743671343,
        0.31320953988531264,
        -0.14541712440658897,
        -0.040024365541104605,
        -0.2586187451102185,
        -0.27179210023515393,
        0.19798723053645542,
        0.3549009660487648,
        0.17026491756115303,
        0.3206451201134052,
        0.14673124886702232,
        0.023432325248476247,
        0.11909689830941841,
        0.46805911606157385
      ],
      [
        -0.0159694191959888,
        0.4459736457147115,
        -0.8078643464708665,
        0.23093141916341062,
        -0.08375338101075613,
        -0.12408186430953316,
        0.020993926141953435,
        -0.544495798404822,
        -0.04923658326163367,
        0.10619729821040604,
        0.21311958834421613,
        -0.069551122641656,
        -0.12306634525759808,
        -0.19774161661165676,
        0.29842792111968786,
        0.10327680827000685,
        -0.1560780531009653,
        0.11209816452684782,
        -0.0869390238819175,
        0.3058790351928124,
        -0.13270041980393324,
        -0.11007035951647963,
        -0.10242184805725298,
        -0.4211493018753104
      ],
      [
        0.10119606395378206,
        0.061150960598354356,
        0.045224257575086926,
        -0.019596326395137996,
        -0.4525299296658539,
        -0.08232703184566406,
        -0.09760171670220058,
        -0.22964917344459268,
        -0.09238088389832809,
        0.1301608456553906,
        0.5665306187270944,
        0.13427000073173526,
        0.11326034081391713,
        -0.015084954437492533,
        -0.634532556792365,
        0.049318295716010686,
        0.041833590643987874,
        0.7579152119928646,
        -0.05172499330440521,
        0.06459101024092255,
        -0.13657358627136193,
        -0.3479083858544619,
        0.3115282504908175,
        0.17885718402627293
      ],
      [
        0.19496317426569215,
        -0.28372105178640966,
        0.18973362896335633,
        -0.4091345043704272,
        0.2407423439814973,
        0.4898394984235347,
        -0.301729397558849,
        -0.015009633242153908,
        0.11318876256727321,
        -0.1553051517674979,
        -0.38978830454086294,
        -0.035687236971761384,
        -0.39266303146242576,
        0.12412817187213192,
        -0.26701739826814325,
        0.2689335857979528,
        -0.1900721262783366,
        -0.11946708543136725,
        0.45562634556325016,
        -0.39828520793091715,
        -0.03804617223880599,
        0.1442382710653898,
        -0.45337908560897083,
        0.08948012543001595
      ],
      [
        0.06443407903824049,
        0.3889278683407859,
        -0.15591752871390285,
        -0.38650000865896617,
        0.08266100238956493,
        0.14685155089069765,
        0.029392852771707355,
        -0.2377076322487334,
        -0.22256195229227954,
        0.057778976362197636,
        0.08768315010534662,
        -0.20028122248455202,
        0.5185811785171037,
        0.16855721440285298,
        -0.30108908885717134,
        0.22458529759282708,
        -0.3031200075328471,
        0.351013007990569,
        0.11244775410493078,
        -0.24204006547348,
        0.3741741527725143,
        0.23107940255232576,
        0.2652201630125657,
        0.5315114995881396
      ],
      [
        -0.09749951515766483,
        -0.1637827323013307,
        -0.40738578168675865,
        -0.19509133391720532,
        -0.06851075220837535,
        -0.022127793235332503,
        0.08211873349468177,
        0.3993039765338515,
        -0.024722562938260174,
        0.4239617473018838,
        -0.14787861402915112,
        0.826170894049469,
        0.2222944542292443,
        -0.2324125469668882,
        -0.3362709213714519,
        -0.02836968307834891,
        -0.024857951359732487,
        0.1629413544548693,
        0.16804406613781306,
        -0.06373544852926567,
        -0.42280496924168753,
        -0.6720824669442511,
        -0.12804925589546365,
        0.2572633081144212
      ],
      [
        0.044254589490024296,
        -0.31973939557558967,
        -0.10323398176200656,
        0.1380093794864715,
        -0.17709903436949306,
        0.0028590596003140057,
        0.024945026520600717,
        -0.1804682522921761,
        0.05962463656757747,
        0.17145164322078674,
        0.25492185127166667,
        0.3025597454825427,
        -0.3826981517284441,
        -0.26393694058582423,
        0.1295422866911428,
        0.010151952051349227,
        0.15910275165678292,
        1.1318259307119747,
        0.16902589429427833,
        0.3140216024083866,
        0.18304101853724175,
        0.014426102799091428,
        -0.09150932170445153,
        0.23121835394825796
      ],
      [
        -0.24365389519190023,
        0.0023289378329370085,
        -0.2326831769689146,
        0.06508366228362635,
        0.7051572017651143,
        -0.6044309166516662,
        0.2069020471837323,
        -0.3605848786468677,
        -0.1771609788161319,
        0.3253557863127088,
        -0.052117830356271565,
        -0.2484106532814408,
        -0.16584209486458956,
        0.1959130063310327,
        -0.2516104627259368,
        -0.09142348984025783,
        0.04448416387115646,
        -0.19109870930443199,
        0.623906255956869,
        0.1582291142816392,
        -0.6423397929405334,
        -0.11679819753861023,
        -0.18876219870422822,
        0.24048013846704397
      ],
      [
        -0.246394997442194,
        0.03911685668702682,
        0.11084064493195835,
        0.28943044595333417,
        -0.3397799106874765,
        -0.16177872300207152,
        -0.12917644692662858,
        -0.1360222841288679,
        0.4785763285178781,
        0.12656972395651747,
        -0.42480097724060256,
        0.3488210267667139,
        0.6572171030333742,
        0.29393060102473434,
        -0.48222171852743173,
        -0.26550709503317804,
        0.4009324741847344,
        -0.22157864702712393,
        0.13372380016840707,
        0.19794204937787033,
        -0.292287222614486,
        -0.1447897576514229,
        -0.9306796770998563,
        -0.30938479836417715
      ],
      [
        -0.09243199703279585,
        -0.3900533651825421,
        0.3576178014492672,
        -0.3749528013672388,
        -0.3570269608995219,
        -0.08625997688339315,
        0.41106432916105373,
        -0.1639702527835611,
        0.37302035516326826,
        0.0070609191370179835,
        -0.509273207013836,
        0.027744389166291072,
        0.11641784517377074,
        -0.12924044952632524,
        0.039851532012437185,
        -0.09691425427909027,
        0.09200770718883149,
        0.19029989635486835,
        0.5942070786802222,
        -0.340695457432635,
        0.5861688983408168,
        -0.6845957188918553,
        -0.03766678293094468,
        0.19273399450902934
      ],
      [
        0.08627062539730129,
        -0.21815572857173507,
        0.1161126285241405,
        -0.1940793435579908,
        -0.24033203732956962,
        0.2813111962654096,
        0.09465775458527458,
        -0.34403412507582126,
        0.21187357040329072,
        0.07040045912038487,
        0.31724250546605526,
        0.31919930345895386,
        -0.2568071573699396,
        -0.14917242400758493,
        0.22733783049088363,
        0.3153502732840358,
        -0.04168865591690157,
        -0.04367357497988861,
        0.1869553704927867,
        -0.18008049044737784,
        0.25947207820192575,
        0.007673869011046256,
        -0.06392647070519605,
        0.2708856971942325
      ],
      [
        0.23908450729647257,
        0.19432828272875702,
        0.5269163002580732,
        -0.04321551667882172,
        0.1418287635479613,
        -0.06471432354719502,
        0.08261481077307577,
        -0.15347558075369058,
        -0.018455733943140314,
        0.15317288598961504,
        -0.15127149013912977,
        0.7345696507440581,
        -0.30932955978019716,
        -0.3372661988929641,
        0.34699285107499983,
        0.3466378135322995,
        0.14915326715219757,
        0.10351809229930956,
        -0.16198921683044998,
        -0.2687391791100907,
        0.09892484716940363,
        -0.16292929152330723,
        0.2795168684127764,
        -0.07716907752510171
      ],
      [
        -0.2370643516217442,
        -0.1299696578311412,
        0.2499551706474525,
        -0.20626960653198428,
        -0.28701181674437687,
        0.09041573617326618,
        0.06146569883444298,
        -0.24740156254494525,
        -0.17913852144375622,
        0.04938990052217009,
        -0.34027037703539664,
        -0.2915156833544202,
        -0.22504931224842445,
        -0.048997195059747464,
        0.1010220707369075,
        0.5240346523408266,
        0.22160413350553637,
        -0.11622626669702545,
        -0.14607646526829782,
        -0.2987926289429659,
        0.059216136288673525,
        -0.05814370367596032,
        0.09170461308633054,
        -0.26757498132759466
      ],
      [
        0.15490157691273854,
        0.3929620450549145,
        0.13573383574240383,
        0.05321260897565592,
        0.11291627209662045,
        -0.09706174987039745,
        0.051535183011096705,
        -0.14253399742999057,
        -0.02555525479489792,
        -0.24321105125452697,
        0.09081662207120882,
        0.2868728042632155,
        0.38750246625974266,
        0.28956817066948376,
        0.638469555168245,
        -0.07556547513415783,
        0.22111824672611263,
        -0.022794279801200246,
        0.4229637691751601,
        -0.24324268266347254,
        -0.1519191890145424,
        -0.10906595324044198,
        -0.6121217364140895,
        -0.1905147628755341
      ],
      [
        -0.22010693928907307,
        0.012822021299803494,
        0.17768443112546445,
        0.5004872768370375,
        0.24176311069686657,
        -0.16580748425200162,
        -0.26452079943858653,
        0.05861268260424659,
        -0.41079139280673765,
        0.5078641538520883,
        0.3919644153207503,
        -0.06995533845803617,
        -0.5059187255729829,
        0.4009750065206946,
        -0.02867617344525205,
        0.402998001035538,
        -0.4648317541553503,
        -0.2140998549451563,
        -0.07996912380097917,
        0.006651202082251992,
        -0.10561324183319004,
        0.19859530929867775,
        -0.3077798350669106,
        -0.054624928476328834
      ],
      [
        0.03346095192640021,
        0.13402670677607303,
        0.251096600874062,
        -0.3371480853382643,
        -0.4635012585251483,
        0.36789314589415156,
        0.09322144399976634,
        -0.24385940407978524,
        0.42261434855097896,
        0.024457271369783574,
        0.3644265044956332,
        0.041594884463760584,
        0.57977961589446,
        0.5146806387135551,
        -0.06909918430770409,
        0.28893402995172585,
        0.18231053881477796,
        0.3709446523619861,
        -0.3278481552888101,
        0.19310023444419983,
        0.3212782988381224,
        -0.5035656533099148,
        -0.34100882102148056,
        -0.592398448907234
      ],
      [
        -0.08814623679989174,
        0.25239137782937604,
        0.3223703439131837,
        0.04697453921802926,
        0.5380128695084333,
        -0.4121593215464814,
        -0.4787304851765902,
        0.07431636389913111,
        0.07442818434655328,
        0.0004870826715924196,
        -0.6284936299357456,
        -0.026132672242417745,
        -0.3546603662420312,
        0.18932764613199646,
        0.07276600888130612,
        -0.3631646887209906,
        -0.13857136207310947,
        -0.2905762337590013,
        -0.07051565441815245,
        0.26228159665398515,
        -0.3208582238251412,
        0.013763414246766631,
        -0.15417532014221227,
        -0.22881778936048655
      ],
      [
        -0.046167981889461356,
        -0.23654348015071114,
        -0.24068360177081416,
        -0.3008598373363688,
        0.47056671829823865,
        -0.0801520718690769,
        -0.199001322171114,
        0.1545193133232257,
        -0.06780401349409965,
        -0.05619831512680506,
        0.089180571698881,
        0.30825275006100245,
        -0.10170529816314942,
        -0.15493764309071012,
        -0.11109712479945817,
        -0.7794534875929486,
        -0.39792048778741645,
        0.3337105162972487,
        0.3637619725604612,
        -0.10457196027475514,
        0.05675435686969697,
        -0.09887451661359935,
        0.8838587534550811,
        0.29801503711759064
      ],
      [
        -0.0356892550267485,
        -0.3062027515621788,
        -0.35044516564898537,
        0.01918609008099361,
        -0.2641884967339264,
        -0.40492851085016174,
        -0.1937937794058179,
        -0.4015631895665385,
        0.44131403306693234,
        0.23830141720930428,
        0.06015562848719236,
        0.5161786234577682,
        -0.005217334749271696,
        -0.2357144001676079,
        0.451814827272116,
        0.22967615256018173,
        -0.31753738746006555,
        -0.11217829212815465,
        -0.37498522237834575,
        -0.4069576303960412,
        0.32084312977050866,
        0.5720446546179597,
        -0.4031459131331923,
        0.14035006442142692
      ],
      [
        -0.18575399272011192,
        -0.16628148049643093,
        -0.046346078353457366,
        -0.2820882966051042,
        -0.03140909608888295,
        -0.22097655886714687,
        0.07329591370678284,
        -0.11018920739613644,
        -0.10957830834277824,
        -0.2761830581405515,
        -0.09260213567695458,
        0.3241918624429038,
        0.12516702848146963,
        -0.27007273739267423,
        0.03948536627144675,
        0.30954546403840777,
        -0.5025026303861893,
        0.0899048131665971,
        -0.30733005372034633,
        0.15531016306091516,
        -0.153894682863321,
        -0.49772638257097723,
        -0.47015095770728077,
        -0.015220324004298402
      ],
      [
        0.05740085403326246,
        -0.2213961028467229,
        0.030817492704294864,
        -0.4515484701970832,
        0.058452907896304675,
        -0.39024676520617235,
        -0.17957088690681097,
        0.16241716354749752,
        -0.29126131682392065,
        -0.10084150736089403,
        0.2328117498265741,
        -0.16714136672752072,
        0.25483461981854644,
        -0.3192066612869974,
        0.13379629598075699,
        0.27738948216446524,
        -0.7011718892424933,
        -0.2074382107730656,
        0.17080995354887474,
        -0.07155173292567568,
        0.015158233406829095,
        -0.3471710037737182,
        0.02424281553087875,
        -0.032234852223149243
      ],
      [
        0.33485236203598095,
        0.06129545033238865,
        0.14130903792885777,
        -0.12830786855629295,
        -0.16128364617175006,
        -0.12496725136074285,
        0.11131382056894244,
        -0.13861923717337693,
        0.060073591967214894,
        0.5888541689862846,
        0.27181902449653994,
        -0.07734560362628119,
        0.33400387269207366,
        -0.10890978889255283,
        -0.5860462156334678,
        -0.2865210675193752,
        -0.5397554093129087,
        -0.12139108471869903,
        -0.04278276273203764,
        0.4794774851083791,
        0.10870382450080673,
        -0.06063176737145859,
        0.23872794371632258,
        -0.641374178618925
      ]
    ],
    "b1": [
      -0.000328241696038753,
      0.032136803625694356,
      -0.15777650535250565,
      -0.022507219691741073,
      0.16039228305013303,
      0.002890180055156527,
      -0.03384319249969558,
      0.09655942791010567,
      0.15433910152155655,
      0.03665810684447128,
      -0.0895131048120665,
      0.001288827262582475,
      0.0008574962600477132,
      -0.0549146724947071,
      -0.006290405659809167,
      0.07903493122091221,
      0.006901646154206554,
      0.10672539145104246,
      0.3701315890267049,
      0.05209296703242887,
      -0.04392355519214291,
      -0.019070088606055313,
      0.0013194132608502433,
      0.034503546912074384
    ],
    "W2": [
      [
        -0.11645652391973706
      ],
      [
        0.37674013196067346
      ],
      [
        -0.41827209741265525
      ],
      [
        0.022760294429870622
      ],
      [
        0.5197336661296258
      ],
      [
        -0.13819834243862597
      ],
      [
        -0.10280520864697261
      ],
      [
        0.44541597366276875
      ],
      [
        0.20748457327312722
      ],
      [
        -0.07130696894449302
      ],
      [
        -0.4302488559661028
      ],
      [
        -0.6963231420128141
      ],
      [
        0.30227383870074065
      ],
      [
        -0.22757592485794795
      ],
      [
        -0.35892937464151886
      ],
      [
        -0.5745614626212289
      ],
      [
        0.05012939628436892
      ],
      [
        0.2988523613466527
      ],
      [
        0.4881023140550738
      ],
      [
        0.20424094400303583
      ],
      [
        -0.47764728953333596
      ],
      [
        -0.6339132716681103
      ],
      [
        -0.02280575352377852
      ],
      [
        0.16508313204237723
      ]
    ],
    "b2": [
      0.6035421363771509
    ]
  },
  "normalization": {
    "mean": [
      -13.457272727272704,
      -8.086742424242424,
      -15.429318181818193,
      1.513636363636364,
      10.365136363636354,
      0.622727272727273,
      0.5621372929453609,
      8.700303030303042,
      1.5734090909090883,
      4.415000000000002,
      2.841590909090905,
      2.780559848484848,
      11.086363636363636,
      10.115151515151515,
      8.100757575757576,
      7.340909090909091,
      3.4272727272727272,
      2.191666666666667,
      2.0067590909090907,
      12.323740151515155,
      58.68083333333332,
      114.55553030303031,
      1.5733712121212093,
      0.016666666666666666
    ],
    "std": [
      10.030248576250619,
      9.588078060975088,
      10.134438563120787,
      2.168010284809867,
      5.15883434504217,
      0.9964095322320469,
      1.9244085394008295,
      16.2103647136823,
      3.9544984606228866,
      8.999532100631823,
      6.6555403361393655,
      0.6382056814794935,
      49.382445004836356,
      46.17595216463181,
      37.726303010234716,
      32.38135208433938,
      19.527040656597585,
      16.224012047554545,
      5.502179412644803,
      23.03668393572414,
      285.93002280846014,
      571.9798033224704,
      3.9545128131635146,
      0.12801909579780896
    ]
  },
  "quality_thresholds": {
    "excellent": 5.5,
    "good": 4.5,
    "fair": 3.5,
    "poor": 2.5,
    "bad": 1.5,
    "horrible": 0.0
  },
  "metrics": {
    "train": {
      "mae": 0.38672062267506707,
      "rmse": 0.5067579611012218,
      "r2": 0.806509445502604,
      "accuracy": 0.6818181818181818,
      "within_1": 0.9946969696969697
    },
    "validation": {
      "mae": 0.39217101302159574,
      "rmse": 0.5215990498249814,
      "r2": 0.7909575868146748,
      "accuracy": 0.676737160120846,
      "within_1": 1.0
    }
  }
}
