{
  "version": "v2",
  "type": "neural_network",
  "architecture": {
    "input_size": 34,
    "hidden_size": 16,
    "output_size": 1,
    "activation": "relu",
    "output_activation": "sigmoid_scaled"
  },
  "engineered_feature_names": [
    "cur_temp",
    "max_temp_24h",
    "min_temp_24h",
    "temp_trend_48h",
    "freeze_thaw_days_ago",
    "warmest_thaw",
    "thaw_intensity_recency",
    "snow_since_freeze_cm",
    "snowfall_24h_cm",
    "snowfall_72h_cm",
    "older_snow_accum",
    "elevation_km",
    "snow_depth_m",
    "fresh_to_total_ratio",
    "hours_above_0C_ft",
    "hours_above_3C_ft",
    "hours_above_6C_ft",
    "cur_hours_above_0C",
    "cur_hours_above_3C",
    "cur_hours_above_6C",
    "avg_wind_24h",
    "max_wind_24h",
    "calm_powder_indicator",
    "fresh_powder_indicator",
    "accumulated_powder_indicator",
    "warm_degradation",
    "severe_thaw_damage",
    "temp_adjusted_fresh_snow",
    "summer_flag",
    "cloud_cover_norm",
    "is_clear",
    "wind_chill_delta",
    "sunny_calm_indicator",
    "powder_day_indicator"
  ],
  "raw_feature_columns": [
    "cur_temp",
    "max_temp_24h",
    "max_temp_48h",
    "min_temp_24h",
    "freeze_thaw_days_ago",
    "warmest_thaw",
    "snow_since_freeze_cm",
    "snowfall_24h_cm",
    "snowfall_72h_cm",
    "elevation_m",
    "total_hours_above_0C_since_ft",
    "total_hours_above_1C_since_ft",
    "total_hours_above_2C_since_ft",
    "total_hours_above_3C_since_ft",
    "total_hours_above_4C_since_ft",
    "total_hours_above_5C_since_ft",
    "total_hours_above_6C_since_ft",
    "cur_hours_above_0C",
    "cur_hours_above_1C",
    "cur_hours_above_2C",
    "cur_hours_above_3C",
    "cur_hours_above_4C",
    "cur_hours_above_5C",
    "cur_hours_above_6C",
    "cur_wind_kmh",
    "max_wind_24h",
    "avg_wind_24h",
    "snow_depth_cm",
    "cloud_cover_pct",
    "weather_code",
    "is_clear",
    "is_snowing",
    "wind_chill_c",
    "wind_chill_delta"
  ],
  "weights": {
    "W1": [
      [
        -0.2151001542030125,
        -0.0941741119663338,
        0.21023643042518497,
        0.17734489918465038,
        0.20084370279235905,
        -0.1834455860459145,
        -0.03493622984169364,
        0.5548846488598139,
        -0.32763128846274747,
        -0.02414641936588429,
        -0.1148984029165751,
        -0.11813535590685238,
        0.15001605053617031,
        0.047707611070540314,
        -0.09986170607927608,
        -0.07322891182929409
      ],
      [
        0.445903337568271,
        -0.1714734484844501,
        -0.0019438793436290216,
        0.4722897450264352,
        0.3042640721804916,
        -0.06352215550064587,
        -0.08485615534761203,
        -0.2735510532824631,
        -0.14214921872174666,
        -0.12333993375470992,
        -0.4227259117411107,
        -0.24535784287941445,
        -0.14080555890573823,
        -0.04200718444134802,
        -0.0953403483044261,
        0.1656539766288149
      ],
      [
        0.2155966774829759,
        0.1635623099568453,
        0.027622469570443817,
        0.11835840563838955,
        0.062333133145873236,
        0.6727114091436875,
        0.01680087236181315,
        -0.016287959718353565,
        -0.1389745036149421,
        -0.13497702833337277,
        0.04607535675840956,
        0.15329840795040295,
        0.13900340554636872,
        0.10945687834050859,
        0.013225233041913887,
        0.08434430404389798
      ],
      [
        -0.14657465172398923,
        -0.2592774860273989,
        -0.09046255125043111,
        0.2000164436804532,
        0.3240551130149327,
        -0.030822443480798267,
        -0.04161498076987414,
        0.05315858179337767,
        0.38512274665847535,
        -0.23093012584042427,
        -0.3116859070193505,
        -0.3621062333772224,
        0.260240203144537,
        -0.023259900541748826,
        0.0763494998841562,
        0.3006926647944509
      ],
      [
        0.5784714987262952,
        -0.40223350279802694,
        0.3086080030937996,
        -0.04800752288344758,
        -0.3380723842557867,
        -0.0890738086991581,
        -0.14756562522459327,
        -0.3246859131796509,
        -0.18852886291445983,
        -0.03619793542756807,
        -0.20359278946543644,
        0.04525564820519947,
        -0.23853592271966315,
        -0.3267002171481294,
        0.0027657412928078105,
        -0.2556659453709045
      ],
      [
        -0.02182682347948573,
        0.25414339244164114,
        0.611065362894009,
        0.2805452157060954,
        -0.1492350524222099,
        0.37237010446389635,
        -0.33053671935445045,
        -0.4407476505463898,
        -0.21767044729322446,
        0.14086996465904694,
        0.1620246153576124,
        0.0681447905042823,
        -0.21327388331924618,
        0.045520350602283086,
        0.17920156117681346,
        0.11952453899384066
      ],
      [
        -0.47943186225836393,
        0.18613922426817572,
        0.3222885991759675,
        0.2118466255116564,
        0.06608570372382731,
        -0.2317950673705875,
        -0.07544915351993402,
        0.01148978450719364,
        -0.018023448403167604,
        0.18155334215013588,
        0.19262892262939146,
        -0.2687264557358611,
        0.0681290244685253,
        0.05744800063186368,
        0.1728104930596896,
        0.005223787364931283
      ],
      [
        0.40316644654710015,
        0.41440280825293485,
        0.4238549993360653,
        -0.03752753502819482,
        0.015002252024462483,
        -0.15029906004793622,
        -0.04143429969610627,
        0.04725092509983384,
        -0.23134812534927263,
        0.15242349188148205,
        0.2870723032710875,
        0.16921837924238856,
        0.17719211350281772,
        -0.7489937815583548,
        -0.0064599965363433196,
        -0.041206014141492685
      ],
      [
        -0.3659377940508483,
        -0.08472508848348827,
        -0.24594970141329753,
        0.4919706120447685,
        -0.6317915842601325,
        -0.1924878609858152,
        0.23479475011732776,
        0.22025066273011926,
        0.0893300305873138,
        0.17414653476204536,
        0.49196145021123966,
        -0.2893836180451971,
        -0.34362749350328076,
        -0.042115123805820415,
        0.22975002718054346,
        0.26431617231869514
      ],
      [
        0.011913345016535046,
        0.4123428754477901,
        0.06985218205123664,
        -0.04159682585314875,
        -0.2352080177295892,
        -0.7001443017055408,
        0.32741999995633403,
        0.09129979969779901,
        -0.5581708916707795,
        0.23806641893279393,
        -0.255921607118644,
        0.14484961234742857,
        0.016602194423940418,
        -0.6536852247939904,
        0.36984990058425,
        -0.2627558128476467
      ],
      [
        0.040437674864271696,
        0.3020934556361856,
        0.23519304750046055,
        -0.030620110424162742,
        0.13676659354689494,
        0.03379867483315054,
        -0.19795025086713722,
        -0.007397643291428034,
        0.010662847132439873,
        0.25904458415799797,
        0.20169100350462077,
        -0.14024029802313032,
        0.2946663663214321,
        -0.013199104087289113,
        -0.022089485401147288,
        -0.059844375265948865
      ],
      [
        -0.18536951456254022,
        -0.025390502968616335,
        0.1329497938597628,
        -0.04104595817103817,
        0.0635112704909738,
        0.35149152353007246,
        0.08595957435305619,
        0.6203108826004435,
        -0.16087486145362626,
        0.4259354756026731,
        -0.07433105844084435,
        0.2123488894719953,
        0.016024076072660688,
        -0.02141034355010507,
        0.03682877969156414,
        0.4048592893071502
      ],
      [
        -0.6210541608919133,
        0.23232496917440226,
        0.1439901157218599,
        -0.09059516263111636,
        -0.17667414280206392,
        0.18326557273416694,
        -0.1897634276380991,
        -0.17911554477142022,
        0.08297582988600218,
        -0.40178718108171696,
        -0.2525861892531253,
        -0.35212548318877507,
        0.23053348262970763,
        -0.15930362421566313,
        -0.04618905552747363,
        0.13609782273561483
      ],
      [
        -0.13576235037374806,
        -0.29931473391178914,
        -0.16037468031899968,
        -0.07100288626376136,
        0.36883688129835573,
        0.36978137463170135,
        0.31883665007184664,
        0.14561438625749612,
        0.11065360975018587,
        0.48913199473148505,
        -0.060182964470540896,
        -0.2869785301112997,
        0.31382057936228447,
        0.04245129884652358,
        -0.1530348163635834,
        0.37187126497988965
      ],
      [
        -0.2334329267962661,
        -0.05662986315391386,
        0.6047189256814333,
        -0.024484266532265105,
        -0.33632871047549545,
        0.37085315833492283,
        -0.45261155350223164,
        -0.0848732929716148,
        0.06840218683032456,
        -0.0017279026593637926,
        0.16774793144828407,
        -0.4941190186430977,
        0.14753350504695759,
        -0.3698805738205556,
        0.18245252639631399,
        0.562066914790308
      ],
      [
        -0.001443047936635433,
        -0.02882990073270322,
        -0.24154821236721877,
        0.9116550774865442,
        0.3452159895723997,
        0.06272868926915633,
        -0.14501533898696042,
        0.029616883794606728,
        -0.05316857084211573,
        -0.5246456200311688,
        -0.325825360595463,
        -0.017837285812969953,
        0.05112979773293251,
        0.709943120618897,
        0.12759423043727985,
        0.139234699168361
      ],
      [
        -0.36446855502613723,
        -0.002159294991510481,
        0.2104061695684769,
        0.13419279238432164,
        -0.10232473945235089,
        0.17280364078152266,
        -0.3091808283751813,
        -0.018708091859314657,
        0.266690308642547,
        0.1229385455226741,
        -0.2758834888051018,
        0.23276350274288624,
        0.22832861900379897,
        0.3247656557075345,
        0.22652645459854354,
        0.08919794897641656
      ],
      [
        -0.15494670018023535,
        -0.23072679893566508,
        -0.08300833528616892,
        0.0733239599006191,
        -0.07271433110517772,
        0.10000190497451118,
        -0.039202037367701954,
        -0.11846333759085854,
        0.17249142246436186,
        -0.2608115098232204,
        0.3209561337957986,
        0.09456247332596125,
        -0.02861520179207654,
        0.18294183202796677,
        0.15581809102964692,
        -0.0038065225596403923
      ],
      [
        -0.5279614969744252,
        -0.30853574922034793,
        0.09498944208014849,
        -0.12393261537125318,
        0.22454768792189791,
        0.24628061193066914,
        0.21209809349251532,
        -0.3882455751398305,
        0.1246627396278202,
        0.15113132247897085,
        -0.18104248762452865,
        0.11516327769228128,
        -0.10514119014500647,
        0.4092649812894655,
        -0.43404805526922313,
        -0.1479837192433147
      ],
      [
        0.14454754300026657,
        0.05317580442189726,
        -0.06714532038793213,
        -0.16659925847914858,
        -0.25246052483186515,
        -0.1911691073841537,
        0.04366605370753695,
        0.0104752446792786,
        -0.1891011652493806,
        -0.11590983039092853,
        -0.28433169787405116,
        -0.028306308714046352,
        -0.168800321220363,
        -0.09423748568326099,
        -0.13573094466851846,
        0.189995937724096
      ],
      [
        -0.07352344697609518,
        0.15399549740278914,
        0.1039099535598521,
        0.008198747750272132,
        0.2729930496743553,
        -0.08771904917992342,
        0.033932327878853454,
        -0.08277998184483155,
        0.02427749216359693,
        -0.14740494023303236,
        0.1258687158181095,
        0.4639961808572469,
        -0.0006023247418861169,
        0.07290048710839231,
        0.13773604532089564,
        -0.021050878359197958
      ],
      [
        0.009256756556621894,
        0.07509361585363027,
        -0.1960638735588994,
        0.00029580270612302497,
        0.23324310806554271,
        0.020312323350081932,
        0.07954994829293688,
        0.2630329848492354,
        0.050864387816146515,
        0.2885254150916695,
        -0.04047684418047343,
        0.08802068564102078,
        -0.1750022301390337,
        0.02665671850671646,
        0.10272192791354832,
        0.2691574459215381
      ],
      [
        -0.14586112038744384,
        0.09039833551201851,
        0.3080892165532196,
        0.0146892210867123,
        -0.39366074632263803,
        -0.10636063091740049,
        -0.1909112642380627,
        0.1244743111731894,
        -0.05163014217562781,
        0.2290754076429096,
        0.14818371226116353,
        0.05634186274841366,
        -0.11563436290487146,
        -0.43580596265446114,
        0.20681389804454847,
        -0.014766664309499897
      ],
      [
        0.10464752606699756,
        -0.08206742779579693,
        0.3165714750710225,
        -0.0032739663420373825,
        -0.39777856840554826,
        -0.4123611899266296,
        0.4563917409659895,
        -0.11846885424275082,
        -0.361289767059398,
        -0.11647301572713491,
        0.1059582710014141,
        0.07092347712617866,
        0.14434372761291403,
        -0.47238780987599466,
        -0.12337328265442428,
        -0.025439475382163002
      ],
      [
        0.3626551715239347,
        -0.09496511639208065,
        0.13311359887089289,
        0.11697555395079348,
        0.013932382851264427,
        0.21608963709379383,
        0.20893727703822076,
        0.13556459508508834,
        -0.21176381641118697,
        -0.029048560131854147,
        0.29170413572638826,
        -0.0027974793400204496,
        -0.021215635004080677,
        0.07746328091515765,
        0.0184481060095337,
        -0.39155417375602103
      ],
      [
        0.0690117322255731,
        -0.09830160039829282,
        0.15590044642224477,
        0.29407542611506265,
        -0.6120297522126881,
        0.31316769997391425,
        -0.015531033621839614,
        -0.06876131084841368,
        -0.002986642548698364,
        0.2007434862911537,
        0.015097385819681756,
        -0.037854149094174755,
        0.03631868041649001,
        0.18600879195432818,
        0.18129479314904254,
        0.4340383019606858
      ],
      [
        0.1366400465630482,
        -0.10752825440983495,
        0.042594256324175864,
        0.033943352606000676,
        -0.14961673260531339,
        0.2924029007799817,
        -0.5469504719745422,
        0.1856114833082534,
        0.34725995564649426,
        0.41355419091001355,
        0.4616734835117046,
        -0.7019398500473201,
        0.014608971776055597,
        -0.06495742990010472,
        -0.036956590397221926,
        0.04210307986026606
      ],
      [
        -0.1053740950475961,
        -0.08811728816644239,
        -0.09968220684023074,
        -0.09873134608648362,
        -0.1239828270834787,
        -0.05286620281290371,
        0.6170010901833284,
        0.5428360157760684,
        -0.034764650941856545,
        -0.11418848133709139,
        0.04210096709249131,
        0.17598689769036763,
        -0.017356661825125057,
        -0.11261915909801246,
        0.19857458062292033,
        -0.30297045712866194
      ],
      [
        -0.13798793852973845,
        0.2814100707104683,
        -0.025982089858113233,
        -0.2955321046765649,
        -0.2014968414210272,
        -0.11968347244119598,
        -0.5570119787923618,
        -0.08331289541547458,
        -0.21873519426216287,
        0.7137723213279666,
        0.1753192962505976,
        0.3740775668098809,
        0.19749443981313983,
        0.08516465050579587,
        0.1262447611336664,
        0.3662740016522337
      ],
      [
        0.39135451394377935,
        -0.1172701000029544,
        -0.12086893774297547,
        -0.02017003194682997,
        -0.20815302024782453,
        -0.27957884743589323,
        0.05283209629789581,
        0.16514275116358437,
        -0.14582968765733342,
        -0.02981947458230284,
        0.05072818477176086,
        -0.15399557887902005,
        0.05020484821994694,
        0.06518105967681044,
        -0.14947078909329228,
        0.10493675904285263
      ],
      [
        0.007595049910892555,
        0.496500451765802,
        -0.4301071068359436,
        -0.160135474601178,
        -0.10038865730073594,
        0.0923075154140382,
        -0.015000532116741737,
        0.432333321195487,
        0.3176120941066263,
        -0.13429116115022888,
        -0.3254125980305477,
        -0.21725947559497202,
        0.12832265722536812,
        -0.004130965283799622,
        0.29350933496656945,
        0.2728785134654157
      ],
      [
        -0.2805651317278986,
        0.49230805514417686,
        0.0494622642467119,
        0.111432929560829,
        -0.0832583205244449,
        0.12680142743815184,
        0.07359470008716759,
        -0.17101612080793357,
        0.19893906839300599,
        0.06817906461484109,
        -0.034157704706375934,
        -0.3437030097983745,
        0.11808910781912152,
        0.01821065966043377,
        0.3139005750679076,
        0.05074194625310691
      ],
      [
        0.1655849329315624,
        0.3138491589077399,
        -0.21053946650762348,
        0.2332984573768528,
        -0.11814544099445412,
        0.3349537053738099,
        0.1323793160048691,
        0.07937860476799632,
        -0.4077767760255062,
        0.05841464611420625,
        -0.5140833384192577,
        -0.24223579658994523,
        0.2663521927282941,
        0.09489292018700553,
        -0.1987716333175797,
        -0.25138418787420186
      ],
      [
        -0.2366044511427169,
        0.1678127540752861,
        -0.1822926509754261,
        -0.19082484815536704,
        -0.10043763217768067,
        0.3841589713985509,
        -0.003122548925114418,
        0.3896736674867313,
        -0.08125079681904943,
        -0.22415935572199233,
        0.24696323027940334,
        -0.2985995889525124,
        -0.09926768766990868,
        -0.01429741217276651,
        -0.20943231262510703,
        0.2082486368766662
      ]
    ],
    "b1": [
      0.06045074474932182,
      -0.016662412048747365,
      -0.17634398959641306,
      -0.016363666752502788,
      -0.030090128451844715,
      -0.016727446816922967,
      0.5216905516111854,
      0.027554762626075244,
      -0.04606938439905626,
      0.10082656991428304,
      -0.033314217842692395,
      -0.04259985080691923,
      0.00839190357321336,
      0.05245903974067097,
      -0.09016397846723334,
      0.011513320373614366
    ],
    "W2": [
      [
        -0.09736338390692897
      ],
      [
        -0.015766379256951724
      ],
      [
        0.5429477640362624
      ],
      [
        -0.16644627150426172
      ],
      [
        -0.007027280783737296
      ],
      [
        -0.14693141391588346
      ],
      [
        0.6979272699435273
      ],
      [
        0.20077695111752245
      ],
      [
        -0.07974560677113418
      ],
      [
        -0.30402094218708575
      ],
      [
        -0.1790216511800498
      ],
      [
        0.07997103972877025
      ],
      [
        0.021950462651557832
      ],
      [
        -0.7750244984051166
      ],
      [
        -0.3240771701090988
      ],
      [
        -0.13434163763728552
      ]
    ],
    "b2": [
      0.4488611275182353
    ]
  },
  "ensemble": [
    {
      "n_hidden": 16,
      "seed": 745,
      "epoch": 350,
      "val_mae": 0.20800394171693085,
      "within_1": 1.0,
      "W1": [
        [
          -0.2151001542030125,
          -0.0941741119663338,
          0.21023643042518497,
          0.17734489918465038,
          0.20084370279235905,
          -0.1834455860459145,
          -0.03493622984169364,
          0.5548846488598139,
          -0.32763128846274747,
          -0.02414641936588429,
          -0.1148984029165751,
          -0.11813535590685238,
          0.15001605053617031,
          0.047707611070540314,
          -0.09986170607927608,
          -0.07322891182929409
        ],
        [
          0.445903337568271,
          -0.1714734484844501,
          -0.0019438793436290216,
          0.4722897450264352,
          0.3042640721804916,
          -0.06352215550064587,
          -0.08485615534761203,
          -0.2735510532824631,
          -0.14214921872174666,
          -0.12333993375470992,
          -0.4227259117411107,
          -0.24535784287941445,
          -0.14080555890573823,
          -0.04200718444134802,
          -0.0953403483044261,
          0.1656539766288149
        ],
        [
          0.2155966774829759,
          0.1635623099568453,
          0.027622469570443817,
          0.11835840563838955,
          0.062333133145873236,
          0.6727114091436875,
          0.01680087236181315,
          -0.016287959718353565,
          -0.1389745036149421,
          -0.13497702833337277,
          0.04607535675840956,
          0.15329840795040295,
          0.13900340554636872,
          0.10945687834050859,
          0.013225233041913887,
          0.08434430404389798
        ],
        [
          -0.14657465172398923,
          -0.2592774860273989,
          -0.09046255125043111,
          0.2000164436804532,
          0.3240551130149327,
          -0.030822443480798267,
          -0.04161498076987414,
          0.05315858179337767,
          0.38512274665847535,
          -0.23093012584042427,
          -0.3116859070193505,
          -0.3621062333772224,
          0.260240203144537,
          -0.023259900541748826,
          0.0763494998841562,
          0.3006926647944509
        ],
        [
          0.5784714987262952,
          -0.40223350279802694,
          0.3086080030937996,
          -0.04800752288344758,
          -0.3380723842557867,
          -0.0890738086991581,
          -0.14756562522459327,
          -0.3246859131796509,
          -0.18852886291445983,
          -0.03619793542756807,
          -0.20359278946543644,
          0.04525564820519947,
          -0.23853592271966315,
          -0.3267002171481294,
          0.0027657412928078105,
          -0.2556659453709045
        ],
        [
          -0.02182682347948573,
          0.25414339244164114,
          0.611065362894009,
          0.2805452157060954,
          -0.1492350524222099,
          0.37237010446389635,
          -0.33053671935445045,
          -0.4407476505463898,
          -0.21767044729322446,
          0.14086996465904694,
          0.1620246153576124,
          0.0681447905042823,
          -0.21327388331924618,
          0.045520350602283086,
          0.17920156117681346,
          0.11952453899384066
        ],
        [
          -0.47943186225836393,
          0.18613922426817572,
          0.3222885991759675,
          0.2118466255116564,
          0.06608570372382731,
          -0.2317950673705875,
          -0.07544915351993402,
          0.01148978450719364,
          -0.018023448403167604,
          0.18155334215013588,
          0.19262892262939146,
          -0.2687264557358611,
          0.0681290244685253,
          0.05744800063186368,
          0.1728104930596896,
          0.005223787364931283
        ],
        [
          0.40316644654710015,
          0.41440280825293485,
          0.4238549993360653,
          -0.03752753502819482,
          0.015002252024462483,
          -0.15029906004793622,
          -0.04143429969610627,
          0.04725092509983384,
          -0.23134812534927263,
          0.15242349188148205,
          0.2870723032710875,
          0.16921837924238856,
          0.17719211350281772,
          -0.7489937815583548,
          -0.0064599965363433196,
          -0.041206014141492685
        ],
        [
          -0.3659377940508483,
          -0.08472508848348827,
          -0.24594970141329753,
          0.4919706120447685,
          -0.6317915842601325,
          -0.1924878609858152,
          0.23479475011732776,
          0.22025066273011926,
          0.0893300305873138,
          0.17414653476204536,
          0.49196145021123966,
          -0.2893836180451971,
          -0.34362749350328076,
          -0.042115123805820415,
          0.22975002718054346,
          0.26431617231869514
        ],
        [
          0.011913345016535046,
          0.4123428754477901,
          0.06985218205123664,
          -0.04159682585314875,
          -0.2352080177295892,
          -0.7001443017055408,
          0.32741999995633403,
          0.09129979969779901,
          -0.5581708916707795,
          0.23806641893279393,
          -0.255921607118644,
          0.14484961234742857,
          0.016602194423940418,
          -0.6536852247939904,
          0.36984990058425,
          -0.2627558128476467
        ],
        [
          0.040437674864271696,
          0.3020934556361856,
          0.23519304750046055,
          -0.030620110424162742,
          0.13676659354689494,
          0.03379867483315054,
          -0.19795025086713722,
          -0.007397643291428034,
          0.010662847132439873,
          0.25904458415799797,
          0.20169100350462077,
          -0.14024029802313032,
          0.2946663663214321,
          -0.013199104087289113,
          -0.022089485401147288,
          -0.059844375265948865
        ],
        [
          -0.18536951456254022,
          -0.025390502968616335,
          0.1329497938597628,
          -0.04104595817103817,
          0.0635112704909738,
          0.35149152353007246,
          0.08595957435305619,
          0.6203108826004435,
          -0.16087486145362626,
          0.4259354756026731,
          -0.07433105844084435,
          0.2123488894719953,
          0.016024076072660688,
          -0.02141034355010507,
          0.03682877969156414,
          0.4048592893071502
        ],
        [
          -0.6210541608919133,
          0.23232496917440226,
          0.1439901157218599,
          -0.09059516263111636,
          -0.17667414280206392,
          0.18326557273416694,
          -0.1897634276380991,
          -0.17911554477142022,
          0.08297582988600218,
          -0.40178718108171696,
          -0.2525861892531253,
          -0.35212548318877507,
          0.23053348262970763,
          -0.15930362421566313,
          -0.04618905552747363,
          0.13609782273561483
        ],
        [
          -0.13576235037374806,
          -0.29931473391178914,
          -0.16037468031899968,
          -0.07100288626376136,
          0.36883688129835573,
          0.36978137463170135,
          0.31883665007184664,
          0.14561438625749612,
          0.11065360975018587,
          0.48913199473148505,
          -0.060182964470540896,
          -0.2869785301112997,
          0.31382057936228447,
          0.04245129884652358,
          -0.1530348163635834,
          0.37187126497988965
        ],
        [
          -0.2334329267962661,
          -0.05662986315391386,
          0.6047189256814333,
          -0.024484266532265105,
          -0.33632871047549545,
          0.37085315833492283,
          -0.45261155350223164,
          -0.0848732929716148,
          0.06840218683032456,
          -0.0017279026593637926,
          0.16774793144828407,
          -0.4941190186430977,
          0.14753350504695759,
          -0.3698805738205556,
          0.18245252639631399,
          0.562066914790308
        ],
        [
          -0.001443047936635433,
          -0.02882990073270322,
          -0.24154821236721877,
          0.9116550774865442,
          0.3452159895723997,
          0.06272868926915633,
          -0.14501533898696042,
          0.029616883794606728,
          -0.05316857084211573,
          -0.5246456200311688,
          -0.325825360595463,
          -0.017837285812969953,
          0.05112979773293251,
          0.709943120618897,
          0.12759423043727985,
          0.139234699168361
        ],
        [
          -0.36446855502613723,
          -0.002159294991510481,
          0.2104061695684769,
          0.13419279238432164,
          -0.10232473945235089,
          0.17280364078152266,
          -0.3091808283751813,
          -0.018708091859314657,
          0.266690308642547,
          0.1229385455226741,
          -0.2758834888051018,
          0.23276350274288624,
          0.22832861900379897,
          0.3247656557075345,
          0.22652645459854354,
          0.08919794897641656
        ],
        [
          -0.15494670018023535,
          -0.23072679893566508,
          -0.08300833528616892,
          0.0733239599006191,
          -0.07271433110517772,
          0.10000190497451118,
          -0.039202037367701954,
          -0.11846333759085854,
          0.17249142246436186,
          -0.2608115098232204,
          0.3209561337957986,
          0.09456247332596125,
          -0.02861520179207654,
          0.18294183202796677,
          0.15581809102964692,
          -0.0038065225596403923
        ],
        [
          -0.5279614969744252,
          -0.30853574922034793,
          0.09498944208014849,
          -0.12393261537125318,
          0.22454768792189791,
          0.24628061193066914,
          0.21209809349251532,
          -0.3882455751398305,
          0.1246627396278202,
          0.15113132247897085,
          -0.18104248762452865,
          0.11516327769228128,
          -0.10514119014500647,
          0.4092649812894655,
          -0.43404805526922313,
          -0.1479837192433147
        ],
        [
          0.14454754300026657,
          0.05317580442189726,
          -0.06714532038793213,
          -0.16659925847914858,
          -0.25246052483186515,
          -0.1911691073841537,
          0.04366605370753695,
          0.0104752446792786,
          -0.1891011652493806,
          -0.11590983039092853,
          -0.28433169787405116,
          -0.028306308714046352,
          -0.168800321220363,
          -0.09423748568326099,
          -0.13573094466851846,
          0.189995937724096
        ],
        [
          -0.07352344697609518,
          0.15399549740278914,
          0.1039099535598521,
          0.008198747750272132,
          0.2729930496743553,
          -0.08771904917992342,
          0.033932327878853454,
          -0.08277998184483155,
          0.02427749216359693,
          -0.14740494023303236,
          0.1258687158181095,
          0.4639961808572469,
          -0.0006023247418861169,
          0.07290048710839231,
          0.13773604532089564,
          -0.021050878359197958
        ],
        [
          0.009256756556621894,
          0.07509361585363027,
          -0.1960638735588994,
          0.00029580270612302497,
          0.23324310806554271,
          0.020312323350081932,
          0.07954994829293688,
          0.2630329848492354,
          0.050864387816146515,
          0.2885254150916695,
          -0.04047684418047343,
          0.08802068564102078,
          -0.1750022301390337,
          0.02665671850671646,
          0.10272192791354832,
          0.2691574459215381
        ],
        [
          -0.14586112038744384,
          0.09039833551201851,
          0.3080892165532196,
          0.0146892210867123,
          -0.39366074632263803,
          -0.10636063091740049,
          -0.1909112642380627,
          0.1244743111731894,
          -0.05163014217562781,
          0.2290754076429096,
          0.14818371226116353,
          0.05634186274841366,
          -0.11563436290487146,
          -0.43580596265446114,
          0.20681389804454847,
          -0.014766664309499897
        ],
        [
          0.10464752606699756,
          -0.08206742779579693,
          0.3165714750710225,
          -0.0032739663420373825,
          -0.39777856840554826,
          -0.4123611899266296,
          0.4563917409659895,
          -0.11846885424275082,
          -0.361289767059398,
          -0.11647301572713491,
          0.1059582710014141,
          0.07092347712617866,
          0.14434372761291403,
          -0.47238780987599466,
          -0.12337328265442428,
          -0.025439475382163002
        ],
        [
          0.3626551715239347,
          -0.09496511639208065,
          0.13311359887089289,
          0.11697555395079348,
          0.013932382851264427,
          0.21608963709379383,
          0.20893727703822076,
          0.13556459508508834,
          -0.21176381641118697,
          -0.029048560131854147,
          0.29170413572638826,
          -0.0027974793400204496,
          -0.021215635004080677,
          0.07746328091515765,
          0.0184481060095337,
          -0.39155417375602103
        ],
        [
          0.0690117322255731,
          -0.09830160039829282,
          0.15590044642224477,
          0.29407542611506265,
          -0.6120297522126881,
          0.31316769997391425,
          -0.015531033621839614,
          -0.06876131084841368,
          -0.002986642548698364,
          0.2007434862911537,
          0.015097385819681756,
          -0.037854149094174755,
          0.03631868041649001,
          0.18600879195432818,
          0.18129479314904254,
          0.4340383019606858
        ],
        [
          0.1366400465630482,
          -0.10752825440983495,
          0.042594256324175864,
          0.033943352606000676,
          -0.14961673260531339,
          0.2924029007799817,
          -0.5469504719745422,
          0.1856114833082534,
          0.34725995564649426,
          0.41355419091001355,
          0.4616734835117046,
          -0.7019398500473201,
          0.014608971776055597,
          -0.06495742990010472,
          -0.036956590397221926,
          0.04210307986026606
        ],
        [
          -0.1053740950475961,
          -0.08811728816644239,
          -0.09968220684023074,
          -0.09873134608648362,
          -0.1239828270834787,
          -0.05286620281290371,
          0.6170010901833284,
          0.5428360157760684,
          -0.034764650941856545,
          -0.11418848133709139,
          0.04210096709249131,
          0.17598689769036763,
          -0.017356661825125057,
          -0.11261915909801246,
          0.19857458062292033,
          -0.30297045712866194
        ],
        [
          -0.13798793852973845,
          0.2814100707104683,
          -0.025982089858113233,
          -0.2955321046765649,
          -0.2014968414210272,
          -0.11968347244119598,
          -0.5570119787923618,
          -0.08331289541547458,
          -0.21873519426216287,
          0.7137723213279666,
          0.1753192962505976,
          0.3740775668098809,
          0.19749443981313983,
          0.08516465050579587,
          0.1262447611336664,
          0.3662740016522337
        ],
        [
          0.39135451394377935,
          -0.1172701000029544,
          -0.12086893774297547,
          -0.02017003194682997,
          -0.20815302024782453,
          -0.27957884743589323,
          0.05283209629789581,
          0.16514275116358437,
          -0.14582968765733342,
          -0.02981947458230284,
          0.05072818477176086,
          -0.15399557887902005,
          0.05020484821994694,
          0.06518105967681044,
          -0.14947078909329228,
          0.10493675904285263
        ],
        [
          0.007595049910892555,
          0.496500451765802,
          -0.4301071068359436,
          -0.160135474601178,
          -0.10038865730073594,
          0.0923075154140382,
          -0.015000532116741737,
          0.432333321195487,
          0.3176120941066263,
          -0.13429116115022888,
          -0.3254125980305477,
          -0.21725947559497202,
          0.12832265722536812,
          -0.004130965283799622,
          0.29350933496656945,
          0.2728785134654157
        ],
        [
          -0.2805651317278986,
          0.49230805514417686,
          0.0494622642467119,
          0.111432929560829,
          -0.0832583205244449,
          0.12680142743815184,
          0.07359470008716759,
          -0.17101612080793357,
          0.19893906839300599,
          0.06817906461484109,
          -0.034157704706375934,
          -0.3437030097983745,
          0.11808910781912152,
          0.01821065966043377,
          0.3139005750679076,
          0.05074194625310691
        ],
        [
          0.1655849329315624,
          0.3138491589077399,
          -0.21053946650762348,
          0.2332984573768528,
          -0.11814544099445412,
          0.3349537053738099,
          0.1323793160048691,
          0.07937860476799632,
          -0.4077767760255062,
          0.05841464611420625,
          -0.5140833384192577,
          -0.24223579658994523,
          0.2663521927282941,
          0.09489292018700553,
          -0.1987716333175797,
          -0.25138418787420186
        ],
        [
          -0.2366044511427169,
          0.1678127540752861,
          -0.1822926509754261,
          -0.19082484815536704,
          -0.10043763217768067,
          0.3841589713985509,
          -0.003122548925114418,
          0.3896736674867313,
          -0.08125079681904943,
          -0.22415935572199233,
          0.24696323027940334,
          -0.2985995889525124,
          -0.09926768766990868,
          -0.01429741217276651,
          -0.20943231262510703,
          0.2082486368766662
        ]
      ],
      "b1": [
        0.06045074474932182,
        -0.016662412048747365,
        -0.17634398959641306,
        -0.016363666752502788,
        -0.030090128451844715,
        -0.016727446816922967,
        0.5216905516111854,
        0.027554762626075244,
        -0.04606938439905626,
        0.10082656991428304,
        -0.033314217842692395,
        -0.04259985080691923,
        0.00839190357321336,
        0.05245903974067097,
        -0.09016397846723334,
        0.011513320373614366
      ],
      "W2": [
        [
          -0.09736338390692897
        ],
        [
          -0.015766379256951724
        ],
        [
          0.5429477640362624
        ],
        [
          -0.16644627150426172
        ],
        [
          -0.007027280783737296
        ],
        [
          -0.14693141391588346
        ],
        [
          0.6979272699435273
        ],
        [
          0.20077695111752245
        ],
        [
          -0.07974560677113418
        ],
        [
          -0.30402094218708575
        ],
        [
          -0.1790216511800498
        ],
        [
          0.07997103972877025
        ],
        [
          0.021950462651557832
        ],
        [
          -0.7750244984051166
        ],
        [
          -0.3240771701090988
        ],
        [
          -0.13434163763728552
        ]
      ],
      "b2": [
        0.4488611275182353
      ]
    },
    {
      "n_hidden": 24,
      "seed": 1729,
      "epoch": 1400,
      "val_mae": 0.20881112800403354,
      "within_1": 1.0,
      "W1": [
        [
          -0.16967500842985844,
          -0.1126977383056599,
          0.3944831510851883,
          -0.1152779890856664,
          0.33876427755982214,
          0.46379124105298225,
          -0.2534183455558123,
          -0.15881284007619967,
          -0.025081738886474136,
          0.05523548264312069,
          0.03141591996892111,
          -0.05027931394973475,
          -0.40259700165621104,
          0.08577046493418623,
          -0.12616654589566276,
          -0.403168153740383,
          0.03453425190965347,
          0.11841221258500217,
          0.13912597587973177,
          0.07671379512684814,
          0.1746343509495347,
          -0.21421982341362464,
          -0.25666234725590165,
          -0.1934723852918859
        ],
        [
          -0.19282456425786096,
          0.011303845565968532,
          -0.1406579114919908,
          -0.2661313040315805,
          -0.5134000661666458,
          -0.2012868158447697,
          -0.22932140571979914,
          0.4605246922084294,
          -0.09134566492360374,
          -0.01843495392195141,
          0.29166340194186935,
          0.038750722861257976,
          0.47156025959917497,
          -0.20300499415010423,
          -0.07709237609381256,
          0.07662534481246498,
          -0.029981763155947506,
          -0.23790775964098784,
          -0.11732803656958307,
          0.377809148300954,
          0.08616936598418931,
          0.20761204453958088,
          0.05096957259932559,
          -0.4676791671660731
        ],
        [
          0.10086072817102065,
          0.02742076525016563,
          -0.13811729164261263,
          -0.16021081780478025,
          0.5644242429803581,
          0.010640615502617115,
          0.21448009928341455,
          -0.04481177829109723,
          0.20329052401646414,
          0.10938954539544324,
          0.11958614712273047,
          -0.013734995088309887,
          -0.2902866141475453,
          0.1294280641800776,
          0.3664498110094157,
          0.2392949414961483,
          -0.1701400828360536,
          -0.009055987239740411,
          0.5804445888897459,
          -0.11239483983035711,
          -0.10818135365352168,
          0.06591415338731986,
          0.21381588141411884,
          0.3945826445972568
        ],
        [
          -0.08068878225033037,
          0.09491859081056996,
          0.21563930086282931,
          0.21972045277950134,
          0.019585674447129758,
          0.031406550314201725,
          -0.26910219924424383,
          0.007998542468259161,
          0.03880806926051198,
          -0.4548421857262168,
          0.3574988790081876,
          -0.10777486832399734,
          -0.6508559592663032,
          -0.08174523655862503,
          0.008438117345387781,
          0.16588306466166822,
          -0.10776722253026931,
          -0.2446573340620745,
          -0.5071216789533823,
          -0.09460650025418446,
          0.08841337856834673,
          -0.378882618386379,
          0.2727391500800475,
          -0.18153130365245967
        ],
        [
          0.5231769208018194,
          -0.17043472559476128,
          -0.1434237333972934,
          -0.05510986174391873,
          0.1934001441333095,
          0.18093218946168282,
          0.46010482252884627,
          -0.3006725729906717,
          -0.09241363075928404,
          -0.21224785894892081,
          -0.23569818871719875,
          -0.4763095698909117,
          -0.13121027868005583,
          -0.2089239926966996,
          -0.09147087443071436,
          -0.40152733087724396,
          0.07830168254400544,
          0.45848691753062903,
          -0.13804967132373658,
          0.02410203969683782,
          0.10443799958834606,
          0.027658913395214313,
          -0.17524358246213687,
          -0.09693807728840571
        ],
        [
          -0.4259239276426335,
          0.7276302111806499,
          -0.056392734068727204,
          0.08452808001289466,
          -0.28974846086440953,
          0.4335849342343397,
          -0.4427525213604661,
          -0.6312451738374433,
          0.23087719345530347,
          -0.46797908458035253,
          0.1914813618875417,
          0.10504967925248987,
          0.07401672545701217,
          0.31847392678902603,
          -0.1647643604559457,
          0.32603971094447853,
          0.49012652152519937,
          0.038619219910148106,
          0.07872272470909594,
          -0.2745651620716942,
          0.22278064013973362,
          -0.013169858160538344,
          -0.2227578182645146,
          -0.33657090780526794
        ],
        [
          -0.12003463088180123,
          0.11179063640203775,
          -0.06323309547945731,
          0.3922551669633512,
          -0.20788037274905224,
          0.04927832248973727,
          -0.4214547716516833,
          -0.33899400972286736,
          0.11627091835698593,
          0.14067282652996033,
          0.004020367596352886,
          0.20581865602598426,
          0.19197194465541864,
          -0.12147619461814056,
          -0.006084080656260117,
          -0.1856625395579337,
          -0.21033240829485939,
          0.34318259952902247,
          -0.4123976926560756,
          -0.35908498642519293,
          -0.01733385240459127,
          -0.14425210263812246,
          0.06542059477756985,
          -0.16163504481083427
        ],
        [
          -0.011796941385072453,
          0.15574638731804158,
          0.25766430827254294,
          -0.20237726073535145,
          0.2026976085125106,
          0.052274476845496534,
          -0.21672229014182315,
          -0.19784279116419967,
          -0.5637299278493326,
          -0.020757021469663118,
          0.29261565086626945,
          -0.15655650675779287,
          -0.1466336410379661,
          0.15595767856654744,
          0.09084780212436672,
          -0.1996660927482695,
          0.2714596184723731,
          0.09360225331003283,
          -0.05871262938860399,
          0.0912470538722457,
          -0.18338786371946975,
          -0.020232193179608834,
          -0.38305893159706383,
          -0.03958316567025794
        ],
        [
          -0.4483022906501189,
          -0.18278833888444088,
          -0.06491120483153144,
          -0.22907607220290158,
          0.639809914760057,
          -0.10244385136507005,
          -0.07517592003475712,
          0.3029959481981299,
          -0.6903359580577968,
          -0.10750743410048291,
          -0.20192448111485162,
          0.12696312922440303,
          0.26647878846843437,
          -0.18421522723583023,
          0.16542499412391062,
          -0.4493929008157872,
          -0.0720241895464932,
          -0.02722960112767244,
          0.13015837857145307,
          0.056345392488098806,
          0.14901100937559855,
          0.20139959840206584,
          -0.37267711028300987,
          -0.1613933219942693
        ],
        [
          0.2446412627317065,
          -0.2076593148990799,
          0.10596390079449904,
          0.10671982754739474,
          0.22917904068748435,
          -0.10163933455397635,
          0.40958169227778907,
          -0.1816211351157361,
          -0.4312762251845033,
          -0.35631205395640164,
          -0.4303229321968823,
          0.3260481819591556,
          -0.3028586446544514,
          -0.3635889229211173,
          0.37035045014503515,
          -0.06738866989089198,
          0.09766719565174309,
          -0.09528549930771055,
          0.12495451066348309,
          0.10037849748682251,
          0.12624736412493878,
          -0.02716340527640385,
          0.16600688867369726,
          -0.0013006371306350027
        ],
        [
          -0.09467248894019908,
          0.06282372470264021,
          -0.2506177923429957,
          0.01266409400391372,
          -0.17598203989798422,
          0.14457404196210227,
          0.18139346554154143,
          0.025729841693898806,
          -0.015654226345499237,
          0.2608678533791683,
          -0.018660060401488033,
          0.06187692423643547,
          -0.22739274016925268,
          -0.12170267518396345,
          -0.2447961255645197,
          -0.3733366294640312,
          0.1600164750760549,
          0.18982729462136697,
          -0.3423038044415001,
          0.22998160689706804,
          -0.1911581007240473,
          -0.014446921723340483,
          0.1402980690386923,
          -0.2119783482465516
        ],
        [
          -0.11138879257748893,
          -0.08313365318793434,
          -0.2082649769452087,
          0.0926734895345624,
          0.2558571817760945,
          0.09472465520493441,
          -0.09102667543821745,
          0.24923436790260584,
          -0.054223417834107605,
          0.06221768238077147,
          0.11595132388347403,
          -0.2969656761720893,
          -0.2658292941406768,
          -0.03165775273221017,
          -0.12896758103435377,
          0.037257646668170816,
          0.12510723811723273,
          0.011563560146214907,
          -0.05220876354755137,
          -0.01757286440625783,
          0.08101061771545683,
          -0.09767201543643628,
          -0.07042685405767858,
          0.11932406455737872
        ],
        [
          0.15162018070658892,
          -0.18965416655483414,
          -0.17887549146985968,
          0.07105435615411543,
          -0.3044672740928047,
          0.05170608533947126,
          0.010880605642880832,
          -0.1628587786393474,
          -0.062289017535966044,
          -0.3695518117311095,
          -0.002153331836659574,
          0.13596876202898675,
          -0.5055319614178283,
          -0.22434536925159873,
          0.05120651590242728,
          -0.031168622666541024,
          0.0980887993245539,
          -0.05306448029749385,
          -0.16205256614078054,
          -0.1144454053457005,
          -0.6114364193851216,
          0.15865521583087713,
          -0.0694411081525412,
          -0.22363366724182424
        ],
        [
          0.11116643919132341,
          -0.02378087984300703,
          0.3183088308399814,
          -0.20357310802582138,
          0.22112277324083524,
          0.027203525706109483,
          0.3728165443960202,
          0.007913804501826542,
          -0.07674367805255387,
          0.38187469192484413,
          0.13639249786496369,
          0.06187400219226265,
          -0.02832831698748856,
          0.12647328086133433,
          0.11441127654276684,
          0.035058731681675094,
          0.28304119178784043,
          0.16104407188672926,
          0.052106033718961074,
          0.1622672776056606,
          -0.06051165061905827,
          -0.004326310884193951,
          -0.1515577929261582,
          -0.17419158601444312
        ],
        [
          0.2644183390151327,
          -0.053321559167837373,
          -0.23807546455134881,
          -0.011294225423442156,
          -0.023725967726265756,
          0.31444002062972554,
          -0.24440334010675108,
          -0.20539380205595698,
          -0.04018479454940914,
          -0.2417406477959259,
          0.015376671269285085,
          0.42659738718924783,
          0.07189626318192542,
          0.22981980610386746,
          -0.13895738733023397,
          -0.16454850952815753,
          -0.04785159588799717,
          -0.07984817814658463,
          0.13127645292706236,
          0.04335034745920344,
          -0.31787233160619394,
          -0.06849820738544958,
          0.03058724320242802,
          -0.31324445568127024
        ],
        [
          0.18075327497380853,
          0.253560180482854,
          0.4044806602709106,
          -0.3319655596789927,
          0.07365401514786259,
          0.29657126233100584,
          0.054942438098754806,
          -0.4218725962564154,
          0.43061198968875525,
          0.3601636292247062,
          0.15819295830941418,
          -0.23045781572675184,
          0.060357696112028805,
          0.13398780433202218,
          0.3222130490482783,
          0.3645768726133305,
          0.07674981304070971,
          0.23975410712371023,
          -0.03269657041802212,
          0.2846800635047684,
          0.19227415763712777,
          -0.2791524829557546,
          -0.295239107928688,
          0.03675872662173367
        ],
        [
          0.26316099425062595,
          0.10551872410263717,
          0.08881929002158626,
          -0.19036973380932704,
          -0.3623070242798315,
          -0.18126303612271472,
          0.2679714503351548,
          -0.17898534499052152,
          0.22458838092608774,
          -0.5110159196099626,
          0.6054788109516139,
          -0.007144101972568303,
          -0.06170924652385925,
          -0.04910364818271771,
          0.16482466643225802,
          0.5438631145822619,
          -0.25492877756468,
          -0.04268405933801429,
          -0.1903723805493695,
          0.537810983098336,
          0.19853530283961712,
          -0.22373492754536778,
          -0.4998736324471609,
          0.3600407947605935
        ],
        [
          -0.28351958598440774,
          -0.026286663133777727,
          -0.4341804837336399,
          -0.00024465483728422765,
          -0.1056025525755908,
          -0.03855003350439056,
          -0.2177813642891969,
          -0.26550318898058484,
          -0.5271564375529877,
          -0.5354459692026252,
          0.09881869460078029,
          -0.013974332175809292,
          0.07630019182602765,
          -0.12634519423529064,
          0.22386490529668196,
          0.20311309287051685,
          0.22358674533775139,
          0.4439938552572829,
          -0.44550341971893087,
          -0.010536995760369212,
          0.42871639586649496,
          0.13933781355415967,
          -0.12522595505574802,
          -0.5186209134270409
        ],
        [
          -0.3268734332812184,
          0.21807028130857709,
          -0.023222708357701106,
          0.0752293542905605,
          0.002974205023732104,
          -0.4406684611821784,
          0.02057110738374647,
          -0.03373420836672622,
          0.06609204406026757,
          -0.18197462724454364,
          -0.03680967056737957,
          -0.3133304241776792,
          -0.08079240713791859,
          0.0324183545842523,
          -0.07542529538145566,
          0.2646285810114469,
          0.03788618899300861,
          -0.0548220942629184,
          0.1436855317511682,
          -0.10466281211587566,
          0.11729195131278053,
          -0.23894887529758624,
          0.14789736191674208,
          -0.07908608267904017
        ],
        [
          -0.4178032967799445,
          0.014502416468622133,
          -0.43868845065693507,
          -0.32653468301469274,
          0.15689244298766677,
          0.3541395702620932,
          -0.37954292471235107,
          -0.4593820190552442,
          -0.08982851329646624,
          0.46325982593926235,
          -0.164809785233801,
          0.18917718911658474,
          -0.5771954978272819,
          -0.03437196384184739,
          0.30077814914024087,
          -0.35574405612418747,
          -0.08789731242220943,
          0.14941394487233978,
          -0.060837136622983554,
          -0.04761245115683927,
          0.2431512804884615,
          -0.5522876637834427,
          -0.06917822230815668,
          0.03575366683626116
        ],
        [
          0.1883290142124858,
          -0.1316643049744521,
          -0.04870964553144458,
          -0.2628173531401698,
          0.31062089025797546,
          0.2016082142653936,
          -0.24973791444149582,
          0.08286314188947112,
          -0.21846943567033184,
          0.021443810609075922,
          -0.03987809856398172,
          -0.02317541049094092,
          -0.28817866157790567,
          -0.05852247343161605,
          0.15433430042852528,
          0.09348817454985005,
          -0.5081513586943018,
          -0.33489569624512683,
          -0.30077966423401653,
          0.315516665076319,
          0.01735823226914297,
          0.16267222290558012,
          -0.014430484361709177,
          -0.0762294287954917
        ],
        [
          0.03877439625145927,
          -0.09001961824996292,
          0.09173977974967416,
          0.006918969666486578,
          0.19804267447743987,
          -0.2929134845523233,
          0.4332208322658112,
          0.13214341460428147,
          0.23005491645669696,
          0.08929158635082729,
          -0.07164221489684945,
          -0.14973539941422617,
          -0.2864798075638272,
          0.03747139525755659,
          0.01978319690940679,
          -0.017554697894426898,
          0.12235478264108895,
          -0.03677366710355384,
          -0.2817438829485922,
          0.2727398777084528,
          -0.09022348700098078,
          0.0962617209493776,
          0.01872262013302245,
          0.23516847101370703
        ],
        [
          -0.6139412429651548,
          0.2813747823034576,
          0.14870540870473228,
          0.108736606775483,
          -0.009636216995173228,
          -0.08219522471686815,
          0.2150466389802859,
          -0.07315774697000696,
          -0.25763776413642203,
          0.34512051096668234,
          0.2908661110600116,
          0.02754003634540268,
          0.19794471389738444,
          -0.09461465265045774,
          -0.014350610637299204,
          0.1283648519647858,
          -0.3547488231127712,
          -0.15507514495806984,
          0.06782260245856915,
          0.03546634913807968,
          0.5269133900746977,
          0.38493250718265515,
          0.04170272395032717,
          0.006592423962581592
        ],
        [
          0.06166297744760061,
          0.12653540422021076,
          -0.21032851032869712,
          0.15537445587592616,
          -0.4546549638103053,
          0.07379290781644163,
          0.04270165962669715,
          0.2380141222026144,
          -0.08486459311943592,
          -0.3637040481348214,
          -0.0900660224973499,
          0.16735381123278958,
          -0.21677529511764448,
          0.007085859950607717,
          -0.597280949055617,
          -0.4296822053460375,
          -0.21855292204365903,
          -0.1774294057689607,
          -0.013923714952700887,
          -0.5190481687068369,
          0.46314596925505724,
          0.42357843126123146,
          -0.6031463619330163,
          0.12463211369325992
        ],
        [
          -0.0215901665896836,
          0.0024587869455093237,
          -0.30102523188104024,
          0.002567215335102962,
          -0.08695206919715313,
          0.32940303649341984,
          0.02451256457103951,
          0.22984435765217048,
          -0.1847160034187141,
          -0.37757995315441323,
          0.02535678184976688,
          -0.18704041900972923,
          0.1761584156437975,
          0.0032792653250444084,
          -0.3079443759120583,
          -0.19340610365104566,
          0.3843062701839762,
          0.4701438975404231,
          -0.397387038304381,
          -0.055134346407663196,
          -0.045789148383598384,
          0.19449735795612583,
          -0.12836406571554498,
          -0.32712628759282136
        ],
        [
          0.020604348077287116,
          -0.18501466912697276,
          0.2527599220511089,
          -0.086847927924842,
          -0.17621936987889938,
          0.42817322520462936,
          -0.16002811806377365,
          -0.07154928540399629,
          0.10559863310774836,
          0.2262828880004077,
          0.42651050374766625,
          0.048225357102103274,
          0.12655834938880772,
          0.40052358392619325,
          0.1517450220859346,
          0.15471646862993158,
          -0.38706872284312155,
          -0.09592962476066648,
          0.36597416983842684,
          0.11768677140113215,
          -0.16441499524984876,
          -0.5121752155628977,
          -0.11244800681556899,
          -0.15226729097335742
        ],
        [
          -0.09092180160024999,
          -0.07593673262963863,
          -0.1518827083037502,
          -0.10280384232222957,
          -0.11974799171961936,
          -0.3158927690096032,
          -0.02083758784991616,
          0.24131002008884964,
          0.14664340962217767,
          0.16060132626408077,
          0.24141514569184705,
          -0.022886303252062482,
          0.08080510572240236,
          -0.15770902403252393,
          0.21300891606235128,
          0.057202706879345616,
          -0.08934292624713028,
          -0.24522504895103334,
          0.05935521948952919,
          -0.6419038261941966,
          0.08664975836033384,
          0.32164575414497526,
          0.15102421595576845,
          -0.10448089526294659
        ],
        [
          -0.101120491271861,
          0.36294525473156497,
          0.04547362841866421,
          0.24338740316154747,
          0.3169014218712925,
          0.4250340298191892,
          -0.39414188410323675,
          0.09127107990244696,
          -0.09834110027739065,
          -0.22788901987634408,
          0.006839166926371322,
          0.060228877160926064,
          0.07789539308711524,
          0.2061221124013842,
          -0.09572834278750131,
          -0.018338572653135772,
          -0.20103465230571968,
          -0.3438573094246347,
          0.3204776403059112,
          -0.1596729410012591,
          -0.13958424264337882,
          -0.06947489408039248,
          -0.2661467279090065,
          0.14740077962604148
        ],
        [
          -0.10713808050602308,
          0.11866487901658167,
          -0.13716335321852596,
          0.011064944802649865,
          0.013083414666409771,
          0.11117479918789816,
          0.18536507565151172,
          -0.14241707064442596,
          0.06823492104289519,
          0.06870213124300875,
          0.022865610184851056,
          -0.30248593762518083,
          -0.2436803827234851,
          0.2375339754132706,
          0.3047294550235203,
          0.07350256936725383,
          -0.058598761900640624,
          -0.046949523708100634,
          -0.3331320617469193,
          0.09704280902790406,
          0.10328390482571259,
          -0.24043911336983226,
          -0.4118802608265373,
          0.07322242772309197
        ],
        [
          0.2881323911988565,
          0.20929859177173857,
          0.09539209543405527,
          0.24057056853320202,
          0.4476802896089472,
          0.03703871148555911,
          -0.31720610420873546,
          -0.1491863731000134,
          -0.15623276489316432,
          0.31112805965539597,
          -0.07986635840263623,
          -0.2619826252437617,
          -0.08665719134420782,
          0.4346379317189953,
          -0.051254774020379715,
          0.0901278026604321,
          0.11428396179960626,
          -0.4649902359896033,
          -0.1758964759701324,
          -0.07695524218446062,
          -0.2631372970475864,
          0.2600588330004426,
          -0.3937435728319105,
          -0.18530864813826908
        ],
        [
          0.21088781656324693,
          -0.43524128862312444,
          0.4260966390744736,
          0.05709290895134394,
          0.022351746721468543,
          0.02528879542575818,
          -0.11923437222853321,
          0.2087907838148959,
          0.14705460945907717,
          0.09163905337720529,
          0.08299910666017968,
          0.1353079647912331,
          0.21908309314005436,
          0.03140830734295048,
          0.2232281260479198,
          -0.18849097982895358,
          0.24590011453792746,
          0.1026445143887769,
          0.10262773730994096,
          -0.1585670930251834,
          0.03515573546359536,
          0.0795408579973178,
          0.11347458239159565,
          -0.13282646222610503
        ],
        [
          0.0856675063309416,
          0.20090622905839683,
          -0.2366838651501176,
          0.09812826955615403,
          -0.31773663187375406,
          -0.15310502055477967,
          0.4023745330294906,
          0.24368781502889755,
          0.0790593817440499,
          0.009031506632941907,
          -0.01446344772335299,
          0.13605568265941206,
          0.08669460652930105,
          0.46314742125349645,
          0.20281103398237163,
          -0.027962638309393224,
          0.21841161636171957,
          -0.3023231315701784,
          0.030810098008075056,
          -0.30960866068774684,
          0.1103644946295568,
          -0.4428836452432368,
          -0.07525579118624844,
          -0.317162790796615
        ],
        [
          -0.1918767522925583,
          -0.13088125881775628,
          0.1894525627366198,
          0.2790529626000982,
          -0.06090579379384923,
          -0.06990976873436598,
          -0.2092800081254395,
          -0.09727380031079956,
          0.09006761743158748,
          -0.220427604141175,
          -0.4098143739909048,
          0.2802106828363492,
          0.02606338225927955,
          -0.06419768815398749,
          -0.21237427734234132,
          0.1801212154947831,
          0.2962909966032557,
          -0.09487291536164727,
          0.07365695971732658,
          0.05789617682703978,
          0.10576783431177308,
          -0.13682334607977567,
          -0.02279953596885011,
          0.26476002406548776
        ],
        [
          -0.21603653873055723,
          0.08000864641912132,
          -0.11633418888549744,
          0.03978600675313452,
          0.25652204057961037,
          -0.05870203033636955,
          -0.02331912174707289,
          0.15629855624646619,
          -0.17138350414850692,
          -0.10479327692776551,
          0.25620670836644693,
          -0.10364186593603533,
          -0.017972431421734738,
          -0.5029637118651576,
          0.36162290509004813,
          -0.06904672115193747,
          0.23408366514133874,
          -0.08187387624145569,
          -0.00718336385535606,
          0.104735030219988,
          -0.4833415417440407,
          -0.14788902506178292,
          -0.23621992908926054,
          -0.5300814012009553
        ]
      ],
      "b1": [
        -0.13887504572491058,
        0.03446578551794301,
        -0.08538972730902238,
        -0.026152295381559044,
        0.18746353358784007,
        0.08369330868237486,
        0.16343917757095203,
        -0.08276644335893445,
        0.04424128326597215,
        0.04484756026744082,
        -0.022326230785435677,
        0.018309945856662346,
        -0.016596418937290292,
        0.1362738083431048,
        -0.1426475961864941,
        -0.20936561182744062,
        0.00937119868602337,
        -0.0047693898814073375,
        0.014129820210003375,
        -0.06291530270337133,
        -0.08379320420162627,
        0.05413511269518918,
        -0.01891561056005853,
        0.038872428999377116
      ],
      "W2": [
        [
          -0.3067377632821492
        ],
        [
          0.14727688470452868
        ],
        [
          0.3082496731386801
        ],
        [
          0.15302600877458566
        ],
        [
          0.20482872692305404
        ],
        [
          0.6197771759801607
        ],
        [
          0.267531025008261
        ],
        [
          0.4598565373900183
        ],
        [
          -0.7329752679434814
        ],
        [
          -0.35870379418741793
        ],
        [
          -0.05567473992323571
        ],
        [
          -0.06874684283074375
        ],
        [
          0.00835239501773505
        ],
        [
          0.16088061858249061
        ],
        [
          -0.7365472520584071
        ],
        [
          -0.7410722585075995
        ],
        [
          0.03239081693738038
        ],
        [
          -0.1367813821339869
        ],
        [
          0.0690678313895892
        ],
        [
          -0.27595438439234665
        ],
        [
          -0.36428046184546065
        ],
        [
          0.2244594778177239
        ],
        [
          0.0898247273406075
        ],
        [
          0.20928534246309463
        ]
      ],
      "b2": [
        0.5318662277517545
      ]
    },
    {
      "n_hidden": 32,
      "seed": 745,
      "epoch": 1600,
      "val_mae": 0.21038979287829102,
      "within_1": 1.0,
      "W1": [
        [
          -0.028671258078232755,
          -0.052391475832325236,
          -0.051602835809123004,
          0.20233542222568704,
          0.22432800258437893,
          -0.16937484196581462,
          -0.23697615318329524,
          0.3914260446954288,
          -0.3473071436154311,
          -0.19549751704815752,
          -0.04477202988210293,
          -0.22956975857564033,
          0.17731762906244983,
          0.15159254240767836,
          -0.05512522740707297,
          0.11797363106900349,
          0.4218562443242998,
          -0.34974830051477324,
          -0.09732816958121954,
          0.39647554910737326,
          0.3117270094151149,
          -0.07076387745006117,
          -0.3748614140197792,
          -0.15609902694479877,
          -0.0536922494191385,
          -0.1040153878873306,
          -0.3464112993873277,
          -0.24471862100464295,
          -0.015852629370191097,
          -0.18074210311849725,
          0.04012632928217124,
          0.22863711499041944
        ],
        [
          0.3261784724955378,
          0.020053032884760427,
          0.08396838901970909,
          -0.007000417377506044,
          0.11406702846402278,
          0.5700366819418992,
          -0.10883703778200142,
          -0.025089310604602004,
          -0.056604911684689965,
          -0.20134716068825256,
          0.05002768359645168,
          0.18963482955266422,
          0.21930373139803302,
          -0.0460535604239472,
          0.10581109119508915,
          -0.06726396710870769,
          -0.1604466254579535,
          -0.45851600431205203,
          -0.03420409133672859,
          0.15012967087974333,
          0.368771254306446,
          -0.1345424758526596,
          0.015374574877946773,
          -0.046406862025430325,
          0.4697679296704735,
          -0.008734714607677739,
          -0.037543225902760706,
          -0.47728707284137417,
          0.21448492552578144,
          0.048362696350395154,
          -0.005827315107959988,
          0.2757019516884161
        ],
        [
          0.5312505118088038,
          -0.3563063830268987,
          0.1504409964625216,
          0.15957720855354057,
          -0.19331744771672726,
          0.07430458156452123,
          -0.25448693606944567,
          -0.2220631306470587,
          0.15496427097946164,
          -0.054208087939397374,
          -0.3460955553312257,
          -0.09124831358129758,
          -0.15763011943216493,
          -0.10327981823090056,
          0.10430470030025105,
          -0.0017699505427500213,
          0.05261470708676521,
          0.17896713221464722,
          0.19420196151448907,
          0.40443023426127267,
          -0.1974621638196433,
          0.26131910267295805,
          -0.0321867992869501,
          -0.3662212819535376,
          -0.4725892113715625,
          0.021623461502785213,
          0.29899242720345537,
          0.024492723561179947,
          -0.06916659437020459,
          -0.017546508908570548,
          0.30299237343889823,
          0.053346504334873084
        ],
        [
          -0.11352604058220295,
          0.11343330978177138,
          0.10648018529267,
          0.13180012178065073,
          0.08394031731606624,
          -0.12398240670444036,
          0.12508600608950562,
          -0.15765680492133954,
          0.19618721830688793,
          0.052382158922450434,
          0.3049836759052095,
          -0.059463490399480456,
          0.0159882413364792,
          0.13196036901989963,
          0.040181194459325845,
          0.033644335756577555,
          0.4832083048594748,
          0.32150119789689624,
          0.4878611896282033,
          -0.09469725975524217,
          -0.03068620147227868,
          -0.07913633810492664,
          0.2886207128780277,
          0.12152589873421146,
          -0.07900724349786534,
          0.031399533992370006,
          0.06312894069196616,
          0.08788363454006332,
          0.17265128476750316,
          -0.396426261571802,
          -0.09554290836540799,
          0.1521980874208398
        ],
        [
          -0.41690223549874567,
          0.057124851493124615,
          -0.16735358932968936,
          0.4670206544082672,
          -0.5043697528022358,
          -0.17068675972141376,
          0.26711604422471336,
          0.325903192630545,
          0.08503328891936027,
          -0.057383906419172244,
          0.3748424104135687,
          -0.3460078404282267,
          -0.5008221981365684,
          0.004837389739220339,
          0.11060419144690581,
          0.31837783056141067,
          0.13277696079453472,
          0.4018894779537688,
          -0.015580718250365737,
          0.09790709231029063,
          -0.10189030049315241,
          -0.4744693020589376,
          0.23777683865588878,
          0.22481687594708477,
          -0.3798116126460903,
          0.2066231028147782,
          -0.30214924387873954,
          0.15685183527786362,
          -0.02583408443996652,
          -0.5757909688639797,
          0.5096381387475044,
          -0.039767677677699204
        ],
        [
          0.011363157495405419,
          0.22264621649183614,
          0.14358521047048733,
          0.08062076652254109,
          0.2820745609906483,
          0.15232013061171648,
          -0.3231526757313113,
          0.3215858933995327,
          -0.09339461203480302,
          0.14261015480392708,
          0.19513679234129772,
          -0.14217809662549244,
          0.17929117549643514,
          0.16181114560387141,
          0.13145168071046376,
          0.23821501835749886,
          -0.3534779452534815,
          -0.031304673162909954,
          0.32510362868135134,
          -0.22063999559593228,
          0.014204294551193278,
          0.44130910300252185,
          0.05830078566699237,
          0.41464101301920997,
          -0.07866640050557562,
          0.3707491741684299,
          -0.1298758989999489,
          0.2403092026386928,
          -0.0902734091401857,
          -0.5815032927693444,
          -0.15046274824052105,
          0.5372352910878929
        ],
        [
          -0.5662322099686647,
          0.23496965263332112,
          0.10573580941740068,
          -0.07634261613390136,
          0.09547019004259961,
          0.37338871387863937,
          -0.37447063206998177,
          -0.06282346998874865,
          0.008556738303698764,
          -0.3984230175872229,
          -0.28963334596459384,
          -0.34290540612738624,
          0.10378325228002443,
          -0.17300550831026706,
          0.1305636141728546,
          0.32475078481142355,
          -0.17429441441523746,
          -0.2420635486466641,
          -0.16798329949263646,
          0.033349590667156113,
          0.38252316671614717,
          0.3097319614858433,
          0.14920863427174527,
          0.02169681903778327,
          0.15824806759420565,
          0.4400043675115788,
          -0.159008122082458,
          -0.31615130704917777,
          0.3342458012893279,
          -0.09985142016299452,
          -0.1989110236522986,
          0.4884412741886451
        ],
        [
          -0.1617808972827362,
          0.09139195329134166,
          0.5613764260525921,
          -0.11201966839056128,
          -0.29155767552033773,
          0.3178165052944031,
          -0.13617034986917548,
          -0.0031276893431138987,
          0.12043524717614137,
          -0.11829447917245384,
          0.15183310245725898,
          -0.36925493191921566,
          0.16317038886633328,
          -0.46384611171294676,
          -0.04979735283652951,
          0.45169597011749,
          0.05936529770877145,
          -0.03171535077959398,
          -0.14867762895363945,
          0.7137136107556716,
          0.3382744893189626,
          -0.3331494579399182,
          0.19697913392337668,
          -0.06912305524644724,
          -0.261175374373627,
          -0.5081492479977777,
          -0.4745365235286986,
          -0.14702969170526448,
          0.12170612954141734,
          0.3100356818564578,
          0.20975969909923822,
          -0.03424112932729257
        ],
        [
          -0.44458962157920817,
          0.03879984895324767,
          0.47454643496573784,
          0.060472130997606136,
          -0.1396609186077831,
          0.0226233317993192,
          -0.18703257389654024,
          0.08771178512790584,
          0.29369431118602113,
          0.216541495741232,
          -0.29778348437643953,
          0.2666149617927879,
          0.2574568961555935,
          -0.2575060307291588,
          0.025271569601656413,
          -0.1528179381737984,
          -0.026880595245616815,
          -0.1668825465349403,
          -0.1931833298156716,
          0.12292405136085734,
          -0.09072216867142897,
          -0.03755281876577638,
          0.18008242443562597,
          -0.07826164479427442,
          0.03966367001905856,
          -0.2869710761170097,
          0.24238242840826907,
          -0.02780767141036239,
          0.09165355170349566,
          0.17075027653196595,
          -0.007279301402773828,
          -0.11451033544004506
        ],
        [
          -0.5388183724216203,
          -0.2395173426123201,
          0.22653317345586935,
          -0.10819713075940375,
          0.14043074079878168,
          0.20609918029319532,
          0.34039248790544774,
          -0.17696840927581825,
          0.04788280902985305,
          0.1683535992673195,
          -0.20891261482403783,
          0.09142824235548394,
          -0.06324335769065392,
          0.09993694977079245,
          -0.53014442036568,
          -0.11411153818698484,
          0.1738070754966362,
          0.10309015933907371,
          0.05896153361536529,
          -0.24246220796318607,
          -0.24102174997369613,
          -0.4413913133087606,
          0.1712311115792935,
          -0.0854888842449079,
          -0.27818171298913225,
          -0.06755787910684996,
          -0.29637044388865014,
          -0.17875711126951244,
          -0.08256617643815647,
          -0.3439867148883969,
          -0.16800732959920234,
          0.055653153117472924
        ],
        [
          -0.0890029443070375,
          0.21165232768300862,
          0.12542259494208757,
          0.00098593325087883,
          0.1552294409300395,
          -0.0482322679414568,
          0.1264838946457884,
          0.06793903304654435,
          -0.10722284156206163,
          -0.10987318929853505,
          0.04431653540768947,
          0.46766736194936404,
          0.05340849948790071,
          -0.24931527394713499,
          0.012343684505512827,
          0.1852915383587107,
          -0.1049679876409702,
          0.10867648092675777,
          -0.18298263621625668,
          -0.131681902983547,
          0.30307904934502267,
          -0.08997731554464837,
          -0.18992335180530062,
          0.03287020687550761,
          0.13798966031020735,
          0.5059261598922771,
          -0.00937074220738233,
          -0.025378172857623636,
          -0.14404070731221927,
          -0.0437121055547072,
          0.14227304149290007,
          0.25366515291249087
        ],
        [
          -0.15600148495400643,
          0.10506749584871564,
          0.24979388467834335,
          0.013897165976555203,
          -0.38488452423814995,
          -0.0638313559180844,
          0.027358710690749924,
          0.2999368832230767,
          0.03304739954224743,
          0.09939077173568375,
          0.09352199843316049,
          0.12233915303858128,
          -0.1529084504037306,
          -0.1406916061334011,
          0.29962795488671917,
          0.09041876108684985,
          -0.12518091404712425,
          -0.04156097223510757,
          0.13911129496768143,
          0.14868355767406313,
          -0.4100115798771616,
          -0.08032430067865926,
          0.2973075448548057,
          -0.07188036267133832,
          -0.206873185482558,
          -0.08294008204543872,
          0.10979257154410908,
          -0.03303807488230793,
          0.1360102388465539,
          0.07257385308255074,
          0.13922083107682065,
          -0.02753817912919185
        ],
        [
          0.2762261922847178,
          -0.0020345986551677775,
          0.08672799948309763,
          0.2202840671675297,
          0.2807155434230587,
          0.3464747084967744,
          0.2981247902258891,
          0.26558579096762325,
          -0.19048894393206217,
          0.020577719017920847,
          0.2625420894353346,
          0.010838410337931646,
          0.030263391335595115,
          0.23266929769178127,
          -0.013425079780348332,
          -0.17230116754038208,
          0.0007339229998064125,
          -0.1325703990539389,
          0.1730461593235481,
          0.1979931495506112,
          -0.5650765704382782,
          0.13482670123667018,
          0.13097212172076345,
          -0.2087024304077454,
          -0.1658549958728225,
          0.10797301068218282,
          -0.25501602616403535,
          -0.05592967108843979,
          0.056133592234097744,
          -0.06985085468978756,
          0.073343058121465,
          0.26160357911179666
        ],
        [
          0.14206059160653126,
          -0.09852004074001744,
          0.04512413590581228,
          -0.10734597600875342,
          -0.2702687265957275,
          0.08515104708283333,
          -0.44213390174682127,
          0.3212990511721014,
          0.20513035967671206,
          0.3030286467289591,
          0.4132255541136671,
          -0.8780928950825867,
          0.08006265509110744,
          -0.019358572416085483,
          -0.06584386511195772,
          0.1705155215129356,
          -0.050692059120954674,
          -0.0018709061278823296,
          -0.2561537033038376,
          0.056330878766361225,
          -0.05846517493637895,
          -0.09217092150788551,
          0.33035513092009183,
          0.3274470668921296,
          -0.019894745015389795,
          -0.028939511850982706,
          -0.017267304757857156,
          0.12917014691406836,
          -0.1097717070885408,
          0.12257322233111848,
          0.26630887878421805,
          -0.20652993833405536
        ],
        [
          0.013911033057977576,
          0.23593593755903608,
          -0.035970548372644226,
          -0.3325845771950007,
          -0.11646205370096456,
          -0.2136781105914294,
          -0.4947722365850837,
          -0.1158453235465174,
          -0.4309710094048958,
          0.6901786213583708,
          0.1685529713707517,
          0.39796708978275713,
          0.20321702816616813,
          -0.008344074753637392,
          0.19165583760773172,
          0.5294619083208046,
          0.3775167855561228,
          -0.23250856267258016,
          -0.0891758262299258,
          -0.20296024824012113,
          -0.3175477254774333,
          -0.33875643512729764,
          -0.12353718956717254,
          0.26713823312326856,
          -0.12681194901749232,
          -0.0772685352038332,
          0.09720247763591876,
          -0.15557342084937978,
          0.05976202655168069,
          -0.03608418410056954,
          -0.0398841393466767,
          0.12105118205353228
        ],
        [
          0.18575495343233683,
          0.45630563648732736,
          -0.20870365938850496,
          -0.1657680145677986,
          -0.20701238674353525,
          0.07715954159770315,
          -0.15032528842445514,
          0.2567161441256677,
          0.19905476141502673,
          -0.20501192520410053,
          -0.3528066141843544,
          -0.2478513720393377,
          0.2748790871544575,
          -0.21220532873852735,
          0.4427270082764343,
          0.1737021841484728,
          -0.26330415362695875,
          0.38057961521165623,
          0.16370903836698486,
          -0.034781612705165034,
          0.005956948601030924,
          0.44807161594286965,
          0.3071876478927281,
          -0.040906401142154894,
          0.3363459240268207,
          0.18224435221805765,
          0.14640716520832195,
          -0.2525981140053251,
          0.1207990397846696,
          0.16893266768558102,
          0.2741160820918445,
          -0.04014679693163167
        ],
        [
          0.3059964341015409,
          0.2848442730269674,
          -0.10584206449209486,
          0.2690284732246755,
          -0.213630599025933,
          0.321461459563762,
          -0.05401041307863389,
          -0.06402125377604198,
          -0.43151345825978,
          0.005252635887420468,
          -0.531455790058128,
          -0.2324005574697581,
          0.3946402974930811,
          -0.06325026063203439,
          -0.061892897592319064,
          -0.4346446820879336,
          -0.19186635712979036,
          0.09269113166136035,
          -0.46175845051675807,
          -0.25501028707024315,
          -0.10275128280387395,
          0.6580109261301096,
          0.12096554570392924,
          0.521980300478708,
          0.006727278458443142,
          -0.0847020606233476,
          0.3632210705366431,
          -0.27458086397841225,
          -0.10981423627104936,
          -0.24808412729616325,
          0.026004845335947147,
          0.12718177599057479
        ],
        [
          -0.0022872664334364664,
          -0.18666223241432436,
          0.09380237146921246,
          -0.0629613103154157,
          0.25247098327987555,
          -0.20192467920446588,
          0.296813418872861,
          0.0888246739539648,
          -0.23582593030796337,
          -0.025116204615194447,
          -0.006083497222260532,
          0.13718731260619343,
          0.030529153641735515,
          -0.2761899302582309,
          -0.3879788795997938,
          0.18497820348122207,
          -0.07923307228093578,
          -0.1888237802027291,
          0.1734504908807293,
          0.022045333082949307,
          0.1393719295259539,
          0.6086224395479304,
          -0.030286640718383682,
          0.11619571502701177,
          0.19080591527167312,
          -0.004611170371951249,
          -0.10705749808316663,
          0.28210757252376506,
          -0.1827329404418192,
          -0.26072626684295014,
          0.09701724004247388,
          0.4092954857944723
        ],
        [
          -0.17284432990386192,
          -0.2557270747176064,
          -0.6440376332386749,
          0.008798649691774985,
          -0.081025485237791,
          0.022262227626696322,
          0.14881287236838253,
          -0.17854676316314613,
          -0.4024160005065873,
          0.27469612062239,
          -0.1125479507214506,
          -0.01292839811859223,
          0.28915926496754535,
          0.0793713886227333,
          -0.22925036127647536,
          0.012488245384548366,
          0.345516508303657,
          0.3787819708567555,
          -0.4661740361127761,
          -0.4019621397769405,
          -0.05849453010806554,
          0.24130229903249759,
          -0.38418036395159766,
          -0.1008368603771188,
          -0.005381023254513565,
          -0.1123854939555388,
          -0.06602865690792087,
          -0.08032252263307019,
          -0.10028510221453593,
          -0.298787063543563,
          -0.09846120817741467,
          0.1647014814409878
        ],
        [
          0.09073783285174115,
          0.14534425119297112,
          0.09325303822642436,
          -0.21426959249656471,
          -0.27439090015270223,
          0.312769633287005,
          -0.26770258336698866,
          0.09619732771724937,
          -0.008252746080739184,
          0.3240662234234029,
          0.3210586864462682,
          -0.587978157774655,
          -0.30333000851636227,
          -0.20755281141139376,
          -0.6256396112139329,
          -0.02762241069594131,
          -0.252241995350607,
          -0.3092495867167575,
          0.03544283781650739,
          -0.2896574397269173,
          -0.10065243917128759,
          -0.05455661923353641,
          -0.2404068418565177,
          0.19393329292609385,
          -0.03684712655133853,
          0.01671747148228,
          -0.024935815158067066,
          -0.0685846778541867,
          -0.13039165431795993,
          0.2487608073421642,
          -0.001943690189935018,
          -0.27173611537403286
        ],
        [
          0.11740066431119428,
          0.12117398582156225,
          -0.037453227075452365,
          -0.24401187353871784,
          0.08447542820244532,
          0.18812370595431424,
          0.13331978942969513,
          0.057687992222338016,
          0.06879332840977648,
          -0.06320965329182161,
          0.18796583325567998,
          0.6327268840679091,
          0.0016573627051580894,
          -0.10770755075306873,
          -0.08417415278349068,
          0.005847369514956144,
          -0.10780711195481701,
          -0.09209705961654625,
          0.12469576982107154,
          -0.1366673926453587,
          0.18875439856737916,
          -0.08744429866578757,
          0.203695125896548,
          0.10179878695580011,
          -0.3003453425245444,
          0.3169959054984356,
          0.2539285765213748,
          0.4209221183333576,
          0.15636908601408506,
          -0.11323237545888543,
          -0.11702361427018569,
          -0.30901031482402946
        ],
        [
          -0.2937622370708594,
          0.2999453529101058,
          0.20071724787334633,
          0.3001988698548596,
          -0.03641985037066489,
          0.18433589844239062,
          -0.38171693999679185,
          -0.16999581776327516,
          -0.1438014711160018,
          -0.1584566331775738,
          0.30350772948887755,
          -0.14747326233447516,
          0.028644292132408492,
          -0.1045491727858076,
          0.012765223144077437,
          0.03246815705744818,
          0.06365194042398722,
          -0.04630211073342959,
          0.04437747316685735,
          -0.12729494751095757,
          -0.15099424626939056,
          0.1060729105936748,
          0.2109239079330453,
          0.28935344324465156,
          0.1264005293741741,
          0.08495207547988763,
          -0.14517428142884004,
          0.12857259696183634,
          0.044437795217233136,
          0.2814420505399045,
          -0.2944958652403676,
          0.08479048864226302
        ],
        [
          0.17425326877764374,
          0.23033651100124175,
          -0.07672205960484405,
          0.2219104100343588,
          0.25375103885046985,
          0.4143060303813662,
          -0.1503048920034804,
          0.1311458217233032,
          0.01183412799515069,
          0.1913111112473934,
          0.1214644634187723,
          -0.06320198054093014,
          0.2507014261249655,
          0.07195462305154925,
          -0.11453217555031338,
          -0.0789020128181302,
          0.20225352133449642,
          0.16683340446805106,
          -0.17965785313216434,
          -0.0032223137395214034,
          -0.130578865880439,
          -0.23796982436569686,
          -0.296422965672025,
          0.03792862181178141,
          -0.19080609197256818,
          -0.2507598399830114,
          -0.030831609572275837,
          -0.15223535087048518,
          -0.1381765913875345,
          0.05957778294033139,
          -0.3153230784332353,
          0.2872648863220556
        ],
        [
          0.20029622976765007,
          0.15004405899297302,
          -0.5167393056027918,
          0.1311244542288476,
          0.0993574828928807,
          0.23399141747541108,
          -0.06270340742145414,
          0.00893854092120008,
          0.14048304842803003,
          0.26810594141431016,
          -0.20415241136527942,
          -0.17129296914587583,
          0.0037372737040471467,
          0.4536985164187805,
          -0.4315875445514677,
          0.2061672640570376,
          0.04752989936465196,
          -0.5560786760643907,
          0.5795643387686072,
          0.15262655197271544,
          -0.2620726014763505,
          -0.1433866130071199,
          0.22582175975388877,
          -0.0767094751119916,
          -0.2730038483561958,
          -0.21330201554137476,
          -0.33491719945763315,
          -0.37706994202530253,
          0.04471391925057586,
          0.295426947806311,
          -0.18901788435655445,
          0.6322398959896288
        ],
        [
          -0.002964041104619656,
          -0.21361920256252598,
          -0.03948487269127846,
          -0.004076036016528029,
          -0.018746089259500495,
          0.19421740065752513,
          0.1721690534721649,
          -0.2654550001460752,
          -0.13818100397720315,
          -0.1881586840545182,
          0.20260691994360994,
          0.031045296018427485,
          0.13736770350334204,
          0.2857730985169138,
          0.10903220307513237,
          0.13524478481587238,
          -0.33531899893889794,
          -0.13294562033417895,
          0.1719612113588159,
          -0.20175243304653767,
          0.29454503339660726,
          -0.39561082474959053,
          -0.309558266250804,
          0.20494690927367554,
          -0.14133416106065586,
          -0.4838521655801206,
          -0.029060502973409005,
          0.14238117794269778,
          0.4789362983865602,
          0.4331450361664308,
          0.02906726570402995,
          0.09559388146567928
        ],
        [
          0.3602089501497263,
          -0.02536390809265021,
          0.44918347695846095,
          0.2703328503586618,
          0.34689092927011,
          -0.3833382944235059,
          0.17467247898559285,
          -0.08296512304749477,
          -0.15868007610056156,
          0.1929157811951181,
          0.050738069639772516,
          -0.40304477051110027,
          0.1411413150274348,
          -0.11072243029744888,
          0.026408988516227683,
          -0.6355351313786999,
          0.05679064390034512,
          0.26653377087119756,
          -0.17869214414728898,
          -0.22848560981882046,
          -0.22114842908726437,
          -0.038812077256026326,
          -0.22646516528524754,
          0.2645477534375763,
          -0.051995550782454505,
          0.07754023165445753,
          -0.21526719840211864,
          -0.048565898010678135,
          0.1846099847093971,
          -0.21633823807487862,
          0.3199047578428506,
          -0.3284034997792842
        ],
        [
          0.45677518420665786,
          -0.33733589831360217,
          0.495646051389671,
          0.136769534936123,
          0.2094714725259859,
          -0.21428235165869522,
          -0.2793886882416833,
          -0.4333903262956968,
          -0.22593091420067468,
          -0.3184216392193092,
          0.009682750852174123,
          -0.2971762324790489,
          -0.07156215535419051,
          -0.22352245166745421,
          0.419125383814246,
          -0.04822876026631488,
          -0.032499633221538794,
          0.17400526359464583,
          -0.11787945424756109,
          0.40572160558178566,
          0.31005349074565486,
          0.9092220896841909,
          -0.36620897692505544,
          0.3446114032601391,
          0.248076275250513,
          -0.07333981059276702,
          0.24052575391782408,
          0.003488795942019891,
          -0.41797588715984574,
          -0.17770910534672446,
          -0.008836073653959935,
          -0.26384514927724206
        ],
        [
          -0.1412259623413353,
          0.2742738493496092,
          -0.19265603674509102,
          0.17873859055216668,
          0.2866705412000566,
          -0.25479999610091625,
          0.22288001529830906,
          -0.10122970732057622,
          0.3938041006784828,
          0.3676669524982095,
          -0.03484905509158518,
          -0.27606453487438903,
          0.030336786078400395,
          -0.08098934285682312,
          0.06121342315606673,
          -0.23202609926730347,
          0.23123296575672198,
          0.05796790634037827,
          0.04113708879093492,
          0.08821631194007586,
          0.14892773247248342,
          -0.3185202634934606,
          0.20318125603509596,
          -0.2854118324336817,
          -0.2253308174987871,
          -0.3380690464583967,
          -0.3936243249161775,
          -0.039580898666101025,
          0.4624122959878569,
          0.1581645873773698,
          -0.4965820032161964,
          0.2528275136995337
        ],
        [
          -0.008875240584050316,
          -0.0005056188278552053,
          0.4072040173501351,
          -0.13510959214668997,
          0.31985813479649416,
          -0.054040582971383935,
          0.492556547413562,
          -0.004530108646718978,
          -0.30032882859870363,
          -0.1936689265219288,
          0.007260672415552313,
          -0.06598426821130562,
          0.13250567685109224,
          0.33938552431613395,
          -0.11308877236089873,
          0.004693344211429417,
          0.0008099177947208541,
          -0.21164100893504317,
          0.35592898658436584,
          0.010345609233501845,
          0.24962421301865861,
          -0.03425027459858988,
          0.13865342522958438,
          0.210739405009748,
          0.09375534547030735,
          -0.015084319318372136,
          -0.10500120278578588,
          -0.18839879432319492,
          -0.575493359196174,
          0.35705913089911345,
          -0.06706091121464262,
          -0.14038629577382694
        ],
        [
          0.2919081480226629,
          -0.0016647815156592592,
          -0.17050272327747026,
          0.22478703215844112,
          0.18004416618076716,
          0.27243941820687784,
          -0.0347161971784519,
          -0.3996773582329395,
          0.05660662430119558,
          0.0044631980768234545,
          0.2820033673081247,
          0.16505014968024434,
          -0.015399923413369057,
          0.17399690538711013,
          -0.1989898090373777,
          -0.17956272500928855,
          -0.3185950783265687,
          0.19695953983595377,
          0.14779970137492626,
          0.1842669719788631,
          -0.12566009586364849,
          0.10138153679570701,
          0.03045479611070106,
          -0.19316217434606928,
          -0.18061897976436564,
          -0.03962177637047961,
          0.08579886722271482,
          0.29047310064553905,
          0.5218871049371574,
          0.04209842492244343,
          0.02325954975900822,
          -0.24525898963107776
        ],
        [
          0.12201708477228197,
          -0.25147040284056116,
          0.1802010984658296,
          -0.33636696945660366,
          -0.38427560921276244,
          -0.10739658672586785,
          -0.13710947223934777,
          -0.5934202018776417,
          0.13031263869448176,
          -0.09878197389644688,
          -0.3236393663257426,
          -0.07772387834305437,
          0.0039811665556154655,
          0.41077156944350834,
          -0.26247854865455805,
          -0.3361319474401782,
          -0.05962366314839708,
          0.31454324515376525,
          -0.319309479073527,
          -0.22268025841562206,
          -0.031339551835814695,
          -0.09171196317670394,
          0.020249794137623338,
          -0.10020543690241324,
          0.10612487904109821,
          -0.2466199122058075,
          0.0006016383920697979,
          -0.07037824188369023,
          0.22213675445487852,
          0.18043694351513304,
          -0.08007529784652637,
          0.2737711436287855
        ],
        [
          0.36854759515990454,
          -0.3596832832259183,
          0.2828940832690207,
          0.18645208936028182,
          0.06533602200732869,
          0.4116164600117887,
          0.335942993950024,
          -0.08832183341526796,
          0.023796144449183272,
          -0.18350862287395509,
          0.10461987626219464,
          -0.12549815797931557,
          0.028830697035839226,
          0.004165149420360147,
          -0.025900517638553014,
          0.45942538701614744,
          0.15108774666607946,
          0.005166943992550847,
          -0.06989488175431484,
          -0.0064207931386298205,
          -0.009175941104970928,
          -0.018792629023629773,
          -0.06996868031770768,
          0.33703881545328435,
          -0.2721343299258533,
