{
  "version": "v2",
  "type": "neural_network",
  "architecture": {
    "input_size": 34,
    "hidden_size": 16,
    "output_size": 1,
    "activation": "relu",
    "output_activation": "sigmoid_scaled"
  },
  "engineered_feature_names": [
    "cur_temp",
    "max_temp_24h",
    "min_temp_24h",
    "temp_trend_48h",
    "freeze_thaw_days_ago",
    "warmest_thaw",
    "thaw_intensity_recency",
    "snow_since_freeze_cm",
    "snowfall_24h_cm",
    "snowfall_72h_cm",
    "older_snow_accum",
    "elevation_km",
    "snow_depth_m",
    "fresh_to_total_ratio",
    "hours_above_0C_ft",
    "hours_above_3C_ft",
    "hours_above_6C_ft",
    "cur_hours_above_0C",
    "cur_hours_above_3C",
    "cur_hours_above_6C",
    "avg_wind_24h",
    "max_wind_24h",
    "calm_powder_indicator",
    "fresh_powder_indicator",
    "accumulated_powder_indicator",
    "warm_degradation",
    "severe_thaw_damage",
    "temp_adjusted_fresh_snow",
    "summer_flag",
    "cloud_cover_norm",
    "is_clear",
    "wind_chill_delta",
    "sunny_calm_indicator",
    "powder_day_indicator"
  ],
  "raw_feature_columns": [
    "cur_temp",
    "max_temp_24h",
    "max_temp_48h",
    "min_temp_24h",
    "freeze_thaw_days_ago",
    "warmest_thaw",
    "snow_since_freeze_cm",
    "snowfall_24h_cm",
    "snowfall_72h_cm",
    "elevation_m",
    "total_hours_above_0C_since_ft",
    "total_hours_above_1C_since_ft",
    "total_hours_above_2C_since_ft",
    "total_hours_above_3C_since_ft",
    "total_hours_above_4C_since_ft",
    "total_hours_above_5C_since_ft",
    "total_hours_above_6C_since_ft",
    "cur_hours_above_0C",
    "cur_hours_above_1C",
    "cur_hours_above_2C",
    "cur_hours_above_3C",
    "cur_hours_above_4C",
    "cur_hours_above_5C",
    "cur_hours_above_6C",
    "cur_wind_kmh",
    "max_wind_24h",
    "avg_wind_24h",
    "snow_depth_cm",
    "cloud_cover_pct",
    "weather_code",
    "is_clear",
    "is_snowing",
    "wind_chill_c",
    "wind_chill_delta"
  ],
  "weights": {
    "W1": [
      [
        -0.06344919377194344,
        -0.17082437972559433,
        0.48780017299294076,
        -0.18938168556880702,
        0.015498148957485781,
        0.21146430491997592,
        -0.25821416757188137,
        -0.1853737189805904,
        0.03962742841590075,
        0.1261269105518252,
        0.02232878213485013,
        -0.23310899583256958,
        -0.31946287114585364,
        -0.013920115513457726,
        0.1760358366001797,
        -0.45911380474072344
      ],
      [
        0.10771569059971475,
        0.07786547631308709,
        0.04122596803463785,
        0.0750477429671785,
        0.07574285429812132,
        -0.18942450906455308,
        -0.23543707780825282,
        -0.038605430686394195,
        -0.26797738460645676,
        -0.11389345616116921,
        -0.007813310112573864,
        -0.4281622143507122,
        -0.41893920674326174,
        -0.20329598767986065,
        0.09430355702094786,
        0.3859960759502172
      ],
      [
        0.043126223714366335,
        0.059350227216578434,
        0.13250368480688857,
        -0.005422267133216292,
        0.2357282270960685,
        -0.014801871542247508,
        -0.18257640563490166,
        0.10207970818018235,
        -0.0007494375614627986,
        -0.17219504395089238,
        -0.18708113689858338,
        0.4168713668634582,
        0.154852268321199,
        0.0973739822691802,
        0.09108210174863798,
        -0.33301957361095363
      ],
      [
        -0.06607151782482161,
        0.01819487424726885,
        -0.11918938732056021,
        -0.3006226265157852,
        0.2399112801586156,
        -0.02669001247359529,
        0.2501431980037216,
        -0.3078963759475071,
        0.1461375054452834,
        0.11380434464775979,
        -0.039697420956259624,
        -0.033075864425322,
        -0.013877969418002564,
        0.045932337136484154,
        0.18861416223094862,
        -0.26054476758174727
      ],
      [
        -0.026124516298358175,
        -0.2053477847261608,
        0.4355486348147794,
        -0.11288071806329629,
        0.03116354489260496,
        -0.21121523615324944,
        0.20484281372866078,
        0.21080357181112572,
        -0.10264357550638796,
        -0.005153859181909607,
        0.25737844039317864,
        0.16326515276573064,
        -0.2462605572279617,
        0.09080045606154813,
        -0.250858486117669,
        0.010084902720566792
      ],
      [
        -0.17166814741079847,
        -0.3565664747129885,
        0.581055131377413,
        -0.24178958053813293,
        -0.3518911321339638,
        -0.5227507895689368,
        -0.020531447630581956,
        0.31289438796131996,
        -0.16494483048163114,
        -0.041220550943061464,
        -0.5428136061142197,
        -0.11255022476191008,
        0.12334404041001565,
        -0.43872813387746507,
        0.11218895838060233,
        -0.011101046050806236
      ],
      [
        0.08088897673257585,
        -0.17237694196044182,
        0.018318844278360127,
        0.08458477267945427,
        0.44665482958038905,
        -0.055469962291818,
        0.5616636095742148,
        0.06024162147346428,
        -0.19455597701025615,
        -0.10716606871279094,
        -0.23266691605224837,
        -0.565757261792654,
        -0.15741137840729877,
        -0.24379863879563704,
        0.016153563806259274,
        -0.47303685751098173
      ],
      [
        0.22046170703947626,
        0.35707308836776475,
        0.07135200491018344,
        0.026832534092110765,
        -0.20086850786219487,
        -0.012237110609668447,
        -0.15841437397537073,
        -0.061444660012925256,
        -0.31363347881723624,
        0.4767642366473257,
        0.34958376436818567,
        0.11961626006287158,
        -0.25270454289135846,
        0.11082669413739549,
        -0.6149482313734238,
        -0.07331316149334975
      ],
      [
        -0.18570037374404974,
        -0.4873447961028965,
        0.14394325035294803,
        0.2501155053411663,
        -0.012425309853801803,
        0.2835197354116842,
        -0.02703621036347145,
        0.2711350479856267,
        0.49503903615899814,
        0.03355155975627249,
        0.13411549393716873,
        -0.1836856280049503,
        -0.12092964575909151,
        -0.08527943065039681,
        -0.42678606724049517,
        -0.12223303701588166
      ],
      [
        -0.29523731443295315,
        0.020788684501335277,
        0.03569631386235566,
        0.4540811919095904,
        -0.16580098727978237,
        -0.1317501765512976,
        -0.35690247537367564,
        -0.10007013780853881,
        0.3256306144158208,
        0.2782508786207012,
        0.01569702025734017,
        0.23114308140904447,
        0.008106389802177406,
        -0.30277787108714516,
        -0.26176087500201256,
        0.07422135013648747
      ],
      [
        -0.2835248611948323,
        0.28117212677955217,
        -0.3419037309684036,
        -0.34946451820632085,
        0.1272107789768569,
        -0.05589860165304344,
        0.08518255142476704,
        0.07057742784108458,
        0.04409960575269918,
        0.2761619677729593,
        0.17717779640474776,
        -0.3548526597118615,
        0.07435235576595114,
        0.14480363592662215,
        -0.46723730808047154,
        0.0681274397390542
      ],
      [
        0.12346026047591963,
        -0.041214486360543756,
        0.17517439499794832,
        -0.018285023098413844,
        -0.19156800127644544,
        0.062205946235756635,
        0.26420706911304453,
        -0.01988681791686488,
        0.12610400478462128,
        0.15643698166276804,
        -0.004673808789611506,
        -0.014509036198481526,
        -0.06094545852536089,
        -0.01903697110081321,
        -0.1286916209090439,
        -0.0015372393504784238
      ],
      [
        -0.1448952185141929,
        -0.13292055669363342,
        -0.003184001577082862,
        -0.23812501824194596,
        0.47914811621764136,
        -0.1463363491191838,
        -0.04685058230415075,
        -0.023118065762829806,
        -0.47223485285139477,
        0.10530734056679984,
        -0.10536695708076611,
        -0.045605759110922364,
        0.16013393534223266,
        -0.15320072359812312,
        0.07063265604182292,
        -0.02096749805858298
      ],
      [
        -0.1338355683386563,
        -0.008451939969110174,
        0.1589460123486788,
        -0.15143551296161484,
        0.20442281153255382,
        0.03200289347632986,
        -0.3605665511334146,
        -0.1446273453391836,
        0.40646992752587274,
        -0.13861538308231286,
        0.0660032783106844,
        0.181323879148809,
        0.10213893254640369,
        -0.1774005269075404,
        0.3072933082213835,
        -0.25835691993471654
      ],
      [
        -0.3316085559089868,
        -0.3899926584305939,
        -0.3719535257753518,
        0.14621370228392994,
        -0.29941182049006143,
        -0.6417859456198539,
        0.37684842787055234,
        0.20537835076830888,
        0.005868666560665258,
        -0.15169137445371406,
        0.11560551214535926,
        0.0871183683249442,
        -0.07381958158100976,
        -0.07388480960853272,
        0.13405422876486772,
        -0.02413839620132353
      ],
      [
        0.19201311625810344,
        0.0727845369989794,
        -0.32563308958223186,
        -0.03051948701508919,
        -0.20683815356164154,
        0.02574755224633153,
        0.0831939499540681,
        0.14821951479419854,
        0.0061723980504974066,
        0.19863563831295783,
        -0.08054688560900045,
        -0.07173111319909409,
        -0.04375908248848607,
        -0.14152205508701238,
        0.0767412290949715,
        -0.414457516365266
      ],
      [
        0.4089261065224227,
        0.15656308836854646,
        -0.38233085851683285,
        0.24705283868006153,
        -0.4377272519967333,
        -0.026444068620979932,
        0.12085969114190141,
        0.09527217492878927,
        -0.14215733899066701,
        -0.2429802847036631,
        -0.2395575098129778,
        -0.01374116717565231,
        0.04019153371622467,
        -0.0026685684688905506,
        0.024297972509196082,
        -0.15818882692211936
      ],
      [
        -0.1350421505468573,
        -0.04121036058529333,
        0.12283608562748101,
        -0.33220957947634033,
        -0.32195561940282347,
        -0.26587844316049847,
        -0.252934353364968,
        0.5072580072821126,
        0.0598336326053872,
        -0.02353065136198671,
        -0.1061478140545562,
        -0.2030455379472391,
        -0.1671045485519179,
        -0.3102174533857103,
        -0.015864506908747383,
        -0.15810020155907706
      ],
      [
        0.36529080205135034,
        -0.06333752618473801,
        -0.1669436623104378,
        -0.02877541040541101,
        -0.23510423260204488,
        -0.02464266911838594,
        -0.08148702491132295,
        0.13012015475608418,
        0.03371975064594974,
        -0.4402152727910874,
        0.02695900589383504,
        0.11868968296856576,
        -0.5091798642588848,
        -0.17211368650487344,
        -0.0008651140070942646,
        -0.18060458403329113
      ],
      [
        0.15377610367555905,
        -0.16159181559600921,
        -0.11612036929120532,
        0.004551253527587691,
        -0.6777090363927155,
        0.20722278245797252,
        -0.0806421306474977,
        -0.040768439348345245,
        0.01722377177364636,
        -0.024147988820354422,
        0.3371293210686576,
        -0.15506264357894867,
        0.21251789613076008,
        0.04628077068354786,
        0.38752880726326683,
        -0.06362760013069733
      ],
      [
        0.04244121480136762,
        0.3411363356553483,
        0.18892224089567894,
        0.043093940972361806,
        -0.1989638403376759,
        0.019144195193180703,
        0.2857009436159784,
        0.0544069136020925,
        0.21368434524043092,
        0.27190325677329963,
        0.028650241454742122,
        -0.055821033166751396,
        -0.0008101826017975466,
        -0.15814690548118313,
        -0.14008635459273727,
        -0.10757252948523065
      ],
      [
        0.23460264324972063,
        0.028711554219423403,
        -0.32056434944954987,
        -0.07653809357426433,
        -0.0957227684663866,
        -0.05241553649465205,
        -0.16423770879852942,
        -0.14112324428015788,
        0.01362667060618599,
        -0.3589875457308673,
        0.06507857916549811,
        0.32846573249268585,
        0.19529937055854152,
        0.2597253359393867,
        0.07714261543152122,
        0.19022819390144424
      ],
      [
        -0.2685112469305127,
        0.08931184533191,
        0.004491405439718634,
        -0.0368554543840365,
        -0.4099603947281171,
        0.053920413893217146,
        0.05049110796763166,
        -0.3147828154686735,
        0.168041834793029,
        0.37730095227424887,
        0.4631597039904302,
        -0.18456063656215427,
        -0.16952342531159562,
        0.26421374194724223,
        -0.09935020871362292,
        -0.16231360217151078
      ],
      [
        -0.09218724454144786,
        0.2589395516455971,
        0.11041062947995937,
        -0.24610543432673732,
        0.12013599433555706,
        0.2897861195660979,
        0.18304518048493904,
        0.08661508852993531,
        0.1652179636050614,
        0.2712897660423079,
        0.09713007744118811,
        0.2070075359301012,
        -0.06816792677592894,
        -0.27111449163351314,
        -0.48197983639714786,
        -0.1629346866269812
      ],
      [
        0.03674864856736841,
        0.1649846105713849,
        0.41725858023131535,
        -0.2539742940650904,
        -0.3154650345099444,
        0.1444562255882165,
        0.3558862365450927,
        -0.094465255780916,
        0.027239330974705083,
        -0.4692874484940207,
        0.5216295843430493,
        0.12253768511367175,
        -0.014738407036119472,
        0.13381700620361994,
        -0.15603706441805612,
        0.31530910326664646
      ],
      [
        -0.19558141864788767,
        -0.05583154638773553,
        -0.19840634273528301,
        0.43824204427314034,
        0.06901203774986003,
        -0.2645588926407191,
        -0.5215197739718219,
        0.5451949797631171,
        -0.39408924939325657,
        -0.15745755673373332,
        -0.4213452667292345,
        -0.056888416855917674,
        -0.06924221037552138,
        -0.18694472233960152,
        -0.021726214821494973,
        -0.35634753754555765
      ],
      [
        -0.2669600794441195,
        -0.5418947311566534,
        0.08503105466310627,
        -0.01598923611932063,
        0.025236184746276216,
        -0.2116095140917142,
        0.20978666824121114,
        0.5470970868155853,
        0.18187596185273733,
        0.39321342626743083,
        -0.48987397598338817,
        -0.14972150729988565,
        0.40245385121937827,
        0.132741393999521,
        -0.021474627039136326,
        -0.6119586578228845
      ],
      [
        -0.5918489195963781,
        0.36334711354938165,
        0.14087578126656083,
        -0.09351045843522217,
        0.11557692276992906,
        0.002547706777350719,
        0.104894759056403,
        -0.11342987544566413,
        0.30108631022559285,
        0.17479422934904248,
        -0.08928503325511371,
        -0.0807570747951798,
        -0.3349839326137441,
        0.018511886062368726,
        -0.392384595103224,
        0.6124104674273584
      ],
      [
        0.16109591623694902,
        -0.07406193883519809,
        0.04905220056989715,
        -0.19395471765218986,
        0.014582970136928696,
        -0.26637005103811356,
        0.13939697164021442,
        0.11834700881292103,
        -0.46142968948865304,
        0.009148954081980132,
        -0.47354946714287427,
        -0.33601887740538966,
        0.18855891793093674,
        0.38842924378339255,
        -0.19609924577913315,
        -0.5354143942273769
      ],
      [
        -0.17105997655624644,
        0.4335583524332343,
        -0.379665730191466,
        0.06029072539602792,
        -0.6428781363172976,
        0.2254613650536431,
        0.1597712795677448,
        -0.2021696486383317,
        0.09840548113288282,
        0.23608818657922875,
        -0.042173794630897654,
        -0.14959359973209718,
        0.10225961359591618,
        -0.5608618484826858,
        -0.019732248252735365,
        -0.08307720625932506
      ],
      [
        0.09877543140373655,
        -0.25933941800281785,
        0.05272320749326573,
        -0.3997684369558388,
        0.19043218390028718,
        0.19312223962150288,
        -0.21106690241003837,
        0.6078083234943068,
        -0.5384963888175582,
        -0.3119190949855876,
        0.09835486268902434,
        -0.09825163639935398,
        -0.283081766662231,
        -0.137374782603463,
        0.20913482710419656,
        0.21270332330494607
      ],
      [
        -0.0480277547015377,
        -0.31638652359906144,
        -0.20651667240395893,
        -0.024790506212387802,
        0.13106489853788997,
        -0.08068844244708231,
        -0.07396753563939314,
        0.035792928389217354,
        -0.08149395482164816,
        0.06734279801436606,
        0.20810311575497803,
        0.08731106507857705,
        0.12469095419357701,
        -0.1115800969758228,
        0.09783529385861048,
        0.4097210443264876
      ],
      [
        0.23608226584096006,
        -0.18887180544030047,
        -0.0446769566316135,
        -0.17890881034338676,
        -0.2904112445246547,
        0.12768182453250382,
        0.1570056743732145,
        0.24888859121021034,
        0.08812542138605552,
        -0.1397552759113147,
        -0.23039674732748439,
        0.0630817751299821,
        0.006764922214595699,
        0.08326877796989787,
        0.046991520148050914,
        0.17982537295997103
      ],
      [
        -0.4208562340582874,
        0.3375519525940911,
        0.14916505447187695,
        0.13644009602138668,
        -0.013325057804226235,
        0.07830714740122183,
        0.23008721718951078,
        -0.07312969729976433,
        0.002648525852984386,
        0.459623988190163,
        0.15942916721342326,
        -0.17912120545874952,
        0.43132645263135894,
        -0.05356896011100213,
        -0.046876595246526584,
        0.07395117189319864
      ]
    ],
    "b1": [
      0.30875577900484924,
      0.09709881055597207,
      0.03321055853907254,
      0.0881560135751303,
      0.1637647101675367,
      0.2319569002069395,
      0.012865709889241333,
      -0.06426936233491574,
      0.11754248056311414,
      0.09509011838620761,
      0.13004919871361306,
      0.029154794892003195,
      -0.06924199965206601,
      0.08425831535244717,
      -0.24959423515828408,
      0.3705640806447985
    ],
    "W2": [
      [
        -0.4354890499054022
      ],
      [
        0.23266412290653074
      ],
      [
        0.3843481762281227
      ],
      [
        -0.4723801319263047
      ],
      [
        0.15766558470435568
      ],
      [
        0.6966578813958579
      ],
      [
        -0.013064294645213666
      ],
      [
        -0.7107366938395354
      ],
      [
        0.04944620551255625
      ],
      [
        0.29358606950710725
      ],
      [
        -0.43797410176687707
      ],
      [
        0.3739578407727706
      ],
      [
        -0.5061843662365733
      ],
      [
        0.13698053547684474
      ],
      [
        -0.49323520908654744
      ],
      [
        0.6094966920517283
      ]
    ],
    "b2": [
      0.011073069004416824
    ]
  },
  "ensemble": [
    {
      "n_hidden": 16,
      "seed": 1729,
      "epoch": 850,
      "val_mae": 0.209924362646216,
      "within_1": 1.0,
      "W1": [
        [
          -0.06344919377194344,
          -0.17082437972559433,
          0.48780017299294076,
          -0.18938168556880702,
          0.015498148957485781,
          0.21146430491997592,
          -0.25821416757188137,
          -0.1853737189805904,
          0.03962742841590075,
          0.1261269105518252,
          0.02232878213485013,
          -0.23310899583256958,
          -0.31946287114585364,
          -0.013920115513457726,
          0.1760358366001797,
          -0.45911380474072344
        ],
        [
          0.10771569059971475,
          0.07786547631308709,
          0.04122596803463785,
          0.0750477429671785,
          0.07574285429812132,
          -0.18942450906455308,
          -0.23543707780825282,
          -0.038605430686394195,
          -0.26797738460645676,
          -0.11389345616116921,
          -0.007813310112573864,
          -0.4281622143507122,
          -0.41893920674326174,
          -0.20329598767986065,
          0.09430355702094786,
          0.3859960759502172
        ],
        [
          0.043126223714366335,
          0.059350227216578434,
          0.13250368480688857,
          -0.005422267133216292,
          0.2357282270960685,
          -0.014801871542247508,
          -0.18257640563490166,
          0.10207970818018235,
          -0.0007494375614627986,
          -0.17219504395089238,
          -0.18708113689858338,
          0.4168713668634582,
          0.154852268321199,
          0.0973739822691802,
          0.09108210174863798,
          -0.33301957361095363
        ],
        [
          -0.06607151782482161,
          0.01819487424726885,
          -0.11918938732056021,
          -0.3006226265157852,
          0.2399112801586156,
          -0.02669001247359529,
          0.2501431980037216,
          -0.3078963759475071,
          0.1461375054452834,
          0.11380434464775979,
          -0.039697420956259624,
          -0.033075864425322,
          -0.013877969418002564,
          0.045932337136484154,
          0.18861416223094862,
          -0.26054476758174727
        ],
        [
          -0.026124516298358175,
          -0.2053477847261608,
          0.4355486348147794,
          -0.11288071806329629,
          0.03116354489260496,
          -0.21121523615324944,
          0.20484281372866078,
          0.21080357181112572,
          -0.10264357550638796,
          -0.005153859181909607,
          0.25737844039317864,
          0.16326515276573064,
          -0.2462605572279617,
          0.09080045606154813,
          -0.250858486117669,
          0.010084902720566792
        ],
        [
          -0.17166814741079847,
          -0.3565664747129885,
          0.581055131377413,
          -0.24178958053813293,
          -0.3518911321339638,
          -0.5227507895689368,
          -0.020531447630581956,
          0.31289438796131996,
          -0.16494483048163114,
          -0.041220550943061464,
          -0.5428136061142197,
          -0.11255022476191008,
          0.12334404041001565,
          -0.43872813387746507,
          0.11218895838060233,
          -0.011101046050806236
        ],
        [
          0.08088897673257585,
          -0.17237694196044182,
          0.018318844278360127,
          0.08458477267945427,
          0.44665482958038905,
          -0.055469962291818,
          0.5616636095742148,
          0.06024162147346428,
          -0.19455597701025615,
          -0.10716606871279094,
          -0.23266691605224837,
          -0.565757261792654,
          -0.15741137840729877,
          -0.24379863879563704,
          0.016153563806259274,
          -0.47303685751098173
        ],
        [
          0.22046170703947626,
          0.35707308836776475,
          0.07135200491018344,
          0.026832534092110765,
          -0.20086850786219487,
          -0.012237110609668447,
          -0.15841437397537073,
          -0.061444660012925256,
          -0.31363347881723624,
          0.4767642366473257,
          0.34958376436818567,
          0.11961626006287158,
          -0.25270454289135846,
          0.11082669413739549,
          -0.6149482313734238,
          -0.07331316149334975
        ],
        [
          -0.18570037374404974,
          -0.4873447961028965,
          0.14394325035294803,
          0.2501155053411663,
          -0.012425309853801803,
          0.2835197354116842,
          -0.02703621036347145,
          0.2711350479856267,
          0.49503903615899814,
          0.03355155975627249,
          0.13411549393716873,
          -0.1836856280049503,
          -0.12092964575909151,
          -0.08527943065039681,
          -0.42678606724049517,
          -0.12223303701588166
        ],
        [
          -0.29523731443295315,
          0.020788684501335277,
          0.03569631386235566,
          0.4540811919095904,
          -0.16580098727978237,
          -0.1317501765512976,
          -0.35690247537367564,
          -0.10007013780853881,
          0.3256306144158208,
          0.2782508786207012,
          0.01569702025734017,
          0.23114308140904447,
          0.008106389802177406,
          -0.30277787108714516,
          -0.26176087500201256,
          0.07422135013648747
        ],
        [
          -0.2835248611948323,
          0.28117212677955217,
          -0.3419037309684036,
          -0.34946451820632085,
          0.1272107789768569,
          -0.05589860165304344,
          0.08518255142476704,
          0.07057742784108458,
          0.04409960575269918,
          0.2761619677729593,
          0.17717779640474776,
          -0.3548526597118615,
          0.07435235576595114,
          0.14480363592662215,
          -0.46723730808047154,
          0.0681274397390542
        ],
        [
          0.12346026047591963,
          -0.041214486360543756,
          0.17517439499794832,
          -0.018285023098413844,
          -0.19156800127644544,
          0.062205946235756635,
          0.26420706911304453,
          -0.01988681791686488,
          0.12610400478462128,
          0.15643698166276804,
          -0.004673808789611506,
          -0.014509036198481526,
          -0.06094545852536089,
          -0.01903697110081321,
          -0.1286916209090439,
          -0.0015372393504784238
        ],
        [
          -0.1448952185141929,
          -0.13292055669363342,
          -0.003184001577082862,
          -0.23812501824194596,
          0.47914811621764136,
          -0.1463363491191838,
          -0.04685058230415075,
          -0.023118065762829806,
          -0.47223485285139477,
          0.10530734056679984,
          -0.10536695708076611,
          -0.045605759110922364,
          0.16013393534223266,
          -0.15320072359812312,
          0.07063265604182292,
          -0.02096749805858298
        ],
        [
          -0.1338355683386563,
          -0.008451939969110174,
          0.1589460123486788,
          -0.15143551296161484,
          0.20442281153255382,
          0.03200289347632986,
          -0.3605665511334146,
          -0.1446273453391836,
          0.40646992752587274,
          -0.13861538308231286,
          0.0660032783106844,
          0.181323879148809,
          0.10213893254640369,
          -0.1774005269075404,
          0.3072933082213835,
          -0.25835691993471654
        ],
        [
          -0.3316085559089868,
          -0.3899926584305939,
          -0.3719535257753518,
          0.14621370228392994,
          -0.29941182049006143,
          -0.6417859456198539,
          0.37684842787055234,
          0.20537835076830888,
          0.005868666560665258,
          -0.15169137445371406,
          0.11560551214535926,
          0.0871183683249442,
          -0.07381958158100976,
          -0.07388480960853272,
          0.13405422876486772,
          -0.02413839620132353
        ],
        [
          0.19201311625810344,
          0.0727845369989794,
          -0.32563308958223186,
          -0.03051948701508919,
          -0.20683815356164154,
          0.02574755224633153,
          0.0831939499540681,
          0.14821951479419854,
          0.0061723980504974066,
          0.19863563831295783,
          -0.08054688560900045,
          -0.07173111319909409,
          -0.04375908248848607,
          -0.14152205508701238,
          0.0767412290949715,
          -0.414457516365266
        ],
        [
          0.4089261065224227,
          0.15656308836854646,
          -0.38233085851683285,
          0.24705283868006153,
          -0.4377272519967333,
          -0.026444068620979932,
          0.12085969114190141,
          0.09527217492878927,
          -0.14215733899066701,
          -0.2429802847036631,
          -0.2395575098129778,
          -0.01374116717565231,
          0.04019153371622467,
          -0.0026685684688905506,
          0.024297972509196082,
          -0.15818882692211936
        ],
        [
          -0.1350421505468573,
          -0.04121036058529333,
          0.12283608562748101,
          -0.33220957947634033,
          -0.32195561940282347,
          -0.26587844316049847,
          -0.252934353364968,
          0.5072580072821126,
          0.0598336326053872,
          -0.02353065136198671,
          -0.1061478140545562,
          -0.2030455379472391,
          -0.1671045485519179,
          -0.3102174533857103,
          -0.015864506908747383,
          -0.15810020155907706
        ],
        [
          0.36529080205135034,
          -0.06333752618473801,
          -0.1669436623104378,
          -0.02877541040541101,
          -0.23510423260204488,
          -0.02464266911838594,
          -0.08148702491132295,
          0.13012015475608418,
          0.03371975064594974,
          -0.4402152727910874,
          0.02695900589383504,
          0.11868968296856576,
          -0.5091798642588848,
          -0.17211368650487344,
          -0.0008651140070942646,
          -0.18060458403329113
        ],
        [
          0.15377610367555905,
          -0.16159181559600921,
          -0.11612036929120532,
          0.004551253527587691,
          -0.6777090363927155,
          0.20722278245797252,
          -0.0806421306474977,
          -0.040768439348345245,
          0.01722377177364636,
          -0.024147988820354422,
          0.3371293210686576,
          -0.15506264357894867,
          0.21251789613076008,
          0.04628077068354786,
          0.38752880726326683,
          -0.06362760013069733
        ],
        [
          0.04244121480136762,
          0.3411363356553483,
          0.18892224089567894,
          0.043093940972361806,
          -0.1989638403376759,
          0.019144195193180703,
          0.2857009436159784,
          0.0544069136020925,
          0.21368434524043092,
          0.27190325677329963,
          0.028650241454742122,
          -0.055821033166751396,
          -0.0008101826017975466,
          -0.15814690548118313,
          -0.14008635459273727,
          -0.10757252948523065
        ],
        [
          0.23460264324972063,
          0.028711554219423403,
          -0.32056434944954987,
          -0.07653809357426433,
          -0.0957227684663866,
          -0.05241553649465205,
          -0.16423770879852942,
          -0.14112324428015788,
          0.01362667060618599,
          -0.3589875457308673,
          0.06507857916549811,
          0.32846573249268585,
          0.19529937055854152,
          0.2597253359393867,
          0.07714261543152122,
          0.19022819390144424
        ],
        [
          -0.2685112469305127,
          0.08931184533191,
          0.004491405439718634,
          -0.0368554543840365,
          -0.4099603947281171,
          0.053920413893217146,
          0.05049110796763166,
          -0.3147828154686735,
          0.168041834793029,
          0.37730095227424887,
          0.4631597039904302,
          -0.18456063656215427,
          -0.16952342531159562,
          0.26421374194724223,
          -0.09935020871362292,
          -0.16231360217151078
        ],
        [
          -0.09218724454144786,
          0.2589395516455971,
          0.11041062947995937,
          -0.24610543432673732,
          0.12013599433555706,
          0.2897861195660979,
          0.18304518048493904,
          0.08661508852993531,
          0.1652179636050614,
          0.2712897660423079,
          0.09713007744118811,
          0.2070075359301012,
          -0.06816792677592894,
          -0.27111449163351314,
          -0.48197983639714786,
          -0.1629346866269812
        ],
        [
          0.03674864856736841,
          0.1649846105713849,
          0.41725858023131535,
          -0.2539742940650904,
          -0.3154650345099444,
          0.1444562255882165,
          0.3558862365450927,
          -0.094465255780916,
          0.027239330974705083,
          -0.4692874484940207,
          0.5216295843430493,
          0.12253768511367175,
          -0.014738407036119472,
          0.13381700620361994,
          -0.15603706441805612,
          0.31530910326664646
        ],
        [
          -0.19558141864788767,
          -0.05583154638773553,
          -0.19840634273528301,
          0.43824204427314034,
          0.06901203774986003,
          -0.2645588926407191,
          -0.5215197739718219,
          0.5451949797631171,
          -0.39408924939325657,
          -0.15745755673373332,
          -0.4213452667292345,
          -0.056888416855917674,
          -0.06924221037552138,
          -0.18694472233960152,
          -0.021726214821494973,
          -0.35634753754555765
        ],
        [
          -0.2669600794441195,
          -0.5418947311566534,
          0.08503105466310627,
          -0.01598923611932063,
          0.025236184746276216,
          -0.2116095140917142,
          0.20978666824121114,
          0.5470970868155853,
          0.18187596185273733,
          0.39321342626743083,
          -0.48987397598338817,
          -0.14972150729988565,
          0.40245385121937827,
          0.132741393999521,
          -0.021474627039136326,
          -0.6119586578228845
        ],
        [
          -0.5918489195963781,
          0.36334711354938165,
          0.14087578126656083,
          -0.09351045843522217,
          0.11557692276992906,
          0.002547706777350719,
          0.104894759056403,
          -0.11342987544566413,
          0.30108631022559285,
          0.17479422934904248,
          -0.08928503325511371,
          -0.0807570747951798,
          -0.3349839326137441,
          0.018511886062368726,
          -0.392384595103224,
          0.6124104674273584
        ],
        [
          0.16109591623694902,
          -0.07406193883519809,
          0.04905220056989715,
          -0.19395471765218986,
          0.014582970136928696,
          -0.26637005103811356,
          0.13939697164021442,
          0.11834700881292103,
          -0.46142968948865304,
          0.009148954081980132,
          -0.47354946714287427,
          -0.33601887740538966,
          0.18855891793093674,
          0.38842924378339255,
          -0.19609924577913315,
          -0.5354143942273769
        ],
        [
          -0.17105997655624644,
          0.4335583524332343,
          -0.379665730191466,
          0.06029072539602792,
          -0.6428781363172976,
          0.2254613650536431,
          0.1597712795677448,
          -0.2021696486383317,
          0.09840548113288282,
          0.23608818657922875,
          -0.042173794630897654,
          -0.14959359973209718,
          0.10225961359591618,
          -0.5608618484826858,
          -0.019732248252735365,
          -0.08307720625932506
        ],
        [
          0.09877543140373655,
          -0.25933941800281785,
          0.05272320749326573,
          -0.3997684369558388,
          0.19043218390028718,
          0.19312223962150288,
          -0.21106690241003837,
          0.6078083234943068,
          -0.5384963888175582,
          -0.3119190949855876,
          0.09835486268902434,
          -0.09825163639935398,
          -0.283081766662231,
          -0.137374782603463,
          0.20913482710419656,
          0.21270332330494607
        ],
        [
          -0.0480277547015377,
          -0.31638652359906144,
          -0.20651667240395893,
          -0.024790506212387802,
          0.13106489853788997,
          -0.08068844244708231,
          -0.07396753563939314,
          0.035792928389217354,
          -0.08149395482164816,
          0.06734279801436606,
          0.20810311575497803,
          0.08731106507857705,
          0.12469095419357701,
          -0.1115800969758228,
          0.09783529385861048,
          0.4097210443264876
        ],
        [
          0.23608226584096006,
          -0.18887180544030047,
          -0.0446769566316135,
          -0.17890881034338676,
          -0.2904112445246547,
          0.12768182453250382,
          0.1570056743732145,
          0.24888859121021034,
          0.08812542138605552,
          -0.1397552759113147,
          -0.23039674732748439,
          0.0630817751299821,
          0.006764922214595699,
          0.08326877796989787,
          0.046991520148050914,
          0.17982537295997103
        ],
        [
          -0.4208562340582874,
          0.3375519525940911,
          0.14916505447187695,
          0.13644009602138668,
          -0.013325057804226235,
          0.07830714740122183,
          0.23008721718951078,
          -0.07312969729976433,
          0.002648525852984386,
          0.459623988190163,
          0.15942916721342326,
          -0.17912120545874952,
          0.43132645263135894,
          -0.05356896011100213,
          -0.046876595246526584,
          0.07395117189319864
        ]
      ],
      "b1": [
        0.30875577900484924,
        0.09709881055597207,
        0.03321055853907254,
        0.0881560135751303,
        0.1637647101675367,
        0.2319569002069395,
        0.012865709889241333,
        -0.06426936233491574,
        0.11754248056311414,
        0.09509011838620761,
        0.13004919871361306,
        0.029154794892003195,
        -0.06924199965206601,
        0.08425831535244717,
        -0.24959423515828408,
        0.3705640806447985
      ],
      "W2": [
        [
          -0.4354890499054022
        ],
        [
          0.23266412290653074
        ],
        [
          0.3843481762281227
        ],
        [
          -0.4723801319263047
        ],
        [
          0.15766558470435568
        ],
        [
          0.6966578813958579
        ],
        [
          -0.013064294645213666
        ],
        [
          -0.7107366938395354
        ],
        [
          0.04944620551255625
        ],
        [
          0.29358606950710725
        ],
        [
          -0.43797410176687707
        ],
        [
          0.3739578407727706
        ],
        [
          -0.5061843662365733
        ],
        [
          0.13698053547684474
        ],
        [
          -0.49323520908654744
        ],
        [
          0.6094966920517283
        ]
      ],
      "b2": [
        0.011073069004416824
      ]
    },
    {
      "n_hidden": 16,
      "seed": 499,
      "epoch": 2500,
      "val_mae": 0.21092505876739892,
      "within_1": 1.0,
      "W1": [
        [
          -0.06923929368431456,
          0.0027446920386746875,
          0.22364936022570414,
          0.05860502846685819,
          -0.05669626025202479,
          0.2512461402325023,
          0.4401637706168058,
          -0.2209679526901336,
          -0.1813972271549765,
          -0.3046363664823693,
          -0.3524828755242902,
          0.07869256265480239,
          -0.2057960815196319,
          -0.3820222315786931,
          0.3254433632770965,
          -0.03615603936203681
        ],
        [
          0.05763944449749228,
          0.07461532675695592,
          -0.171167768242646,
          0.0174176028080461,
          -0.009941156501471246,
          0.3390496544319041,
          -0.17710620606169558,
          -0.011078790961959116,
          0.14417508233042256,
          0.030467241922533722,
          0.09376062577515776,
          0.043639703088471704,
          -0.2342267474074369,
          -0.13016338711737344,
          0.07370383068429809,
          0.201527386017567
        ],
        [
          -0.13204768135750342,
          -0.13597207747254947,
          -0.19290119181714147,
          0.22745797443425836,
          0.15984130787370993,
          0.27824528840846147,
          0.010967901578288907,
          0.23032013987330952,
          0.2965321459736152,
          -0.15369804309466745,
          0.05253678278415978,
          0.03584373312733173,
          0.05401517760268119,
          -0.30274930920730303,
          0.2366946090101285,
          0.10295434618523644
        ],
        [
          -0.05229556463189648,
          -0.18190597591575558,
          -0.08950607416831013,
          -0.014675245649901277,
          0.03401917765951307,
          0.2959659992929187,
          -0.09484749748151095,
          -0.0018978781743667936,
          0.24434161524938405,
          -0.043739193773863524,
          -0.14004552425787936,
          0.2897616733671501,
          0.21473312704724756,
          -0.06143903195976047,
          0.06035427861107865,
          -0.03433244617689169
        ],
        [
          -0.046469820056478046,
          -0.011454638678928264,
          -0.38465884732463995,
          0.4409158902816333,
          0.11717852110982338,
          0.08448024432035575,
          -0.10702347613055399,
          -0.33929111197890194,
          0.008094730752320693,
          -0.19069139373247632,
          -0.5630377093027966,
          -0.009105937634449602,
          -0.37130545383236857,
          -0.08471774381048067,
          0.0914102652285206,
          0.12799894130642586
        ],
        [
          -0.27530756072747625,
          0.18638426269785985,
          0.10503441637599742,
          0.6006318393366444,
          0.2667066278615662,
          0.11352298138239103,
          0.09033021362891383,
          0.05669584017003803,
          -0.04121230436920693,
          -0.29727846269553726,
          -0.5598015407630987,
          -0.08481664853532331,
          0.26422721220341217,
          -0.25816335894346093,
          -0.07033954017156914,
          0.02527308878012043
        ],
        [
          -0.5772832873742755,
          0.1572825114112654,
          0.0036710177312787176,
          0.013582550116315083,
          -0.36149543174966314,
          0.3024607960431591,
          -0.3574035945255593,
          0.07633872485319049,
          0.3624052093112658,
          -0.4580961251145023,
          -0.013906435897292806,
          0.5551901662415759,
          -0.09210248132716563,
          -0.03293549158294019,
          0.34271052668701385,
          -0.04424933655432443
        ],
        [
          0.10777893525970386,
          -0.09388684020778715,
          0.3963765656858296,
          -0.14903330965272574,
          -0.19929758830850022,
          0.33746557253370363,
          0.0027540496645141388,
          -0.29927842440941005,
          0.003879163181214411,
          -0.09146836835629234,
          -0.009105057570656,
          0.19846669962603136,
          -0.028361966328284787,
          -0.23822745945488602,
          0.09448343548124223,
          -0.09456068091372953
        ],
        [
          0.14468613401996555,
          -0.18817601196115483,
          -0.5974180972937108,
          0.03189389033810628,
          -0.253801981681788,
          0.27374036014554776,
          -0.03738062271629316,
          0.4700052569739978,
          0.6148931602466168,
          0.010690104554211112,
          0.521779322517734,
          -0.07567726832409434,
          0.007405150341468275,
          0.14076082249957977,
          -0.24988295082516268,
          -0.17378146830409455
        ],
        [
          -0.0019224988590638892,
          -0.08623667576496512,
          0.10620620841016386,
          -0.17339366275022114,
          -0.19791178782308375,
          -0.3939991351956264,
          0.04338154092735454,
          -0.06322540543400255,
          0.31574575345630124,
          -0.08786101432149587,
          0.10761287040238561,
          0.07165565627038994,
          -0.128636018688999,
          0.452918888006302,
          -0.3850739306614851,
          -0.34095997745004053
        ],
        [
          -0.09126648713655612,
          0.02924991953530814,
          0.050766501969837015,
          0.20005116348555463,
          -0.2262608586631252,
          0.06734601927606289,
          -0.2029200772435033,
          -0.074469295124399,
          -0.1836077364591059,
          0.24113482629535685,
          0.10742345200514603,
          -0.050378616647378395,
          -0.17617907757179394,
          0.25369745213050043,
          0.1413795226952937,
          0.035492491753629625
        ],
        [
          0.057238069898835904,
          0.1325678381922842,
          -0.226710736211101,
          -0.024683246080438703,
          -0.035766252343846124,
          0.3793729558743573,
          0.0939840320410781,
          0.060256302401024336,
          -0.2231820365976272,
          -0.030225652383567524,
          0.2520423385647727,
          -0.41475574732214465,
          -0.05974756089950302,
          -0.08552761531006797,
          0.15525045655817932,
          -0.30690258404617277
        ],
        [
          -0.1639135051602594,
          -0.15605883577527374,
          0.11925310421951603,
          0.15701126649487296,
          0.06900749096774662,
          -0.3450451832996776,
          -0.04225371413429063,
          -0.11857784940385896,
          0.1270455951231173,
          0.129668018996293,
          -0.0010527495097056117,
          0.11974880473410666,
          0.1445230644840488,
          -0.026628143416946658,
          0.11247490598355031,
          -0.19840706464496213
        ],
        [
          -0.4840810817705148,
          -0.31950054628958013,
          -0.3117978900247596,
          0.48465675557187365,
          0.19794383648436656,
          -0.0725181381723276,
          -0.3695847170007146,
          -0.09620356960156828,
          0.2216937771842433,
          -0.005189045040292698,
          -0.27451819157780927,
          -0.07563347792066741,
          -0.10272228443403601,
          -0.19854624041891145,
          0.17705338950099822,
          0.2847232170640762
        ],
        [
          0.0001672183878160893,
          0.03572798338424383,
          -0.3821710452381484,
          0.38204942694740573,
          0.47528751658023105,
          -0.20516256054812715,
          -0.4524802790331221,
          -0.026574438714388884,
          -0.10720298784444676,
          -0.4379958646017538,
          -0.1675946769621684,
          0.3572523699534185,
          0.07844437433950666,
          0.13879541575256765,
          0.021415963066649047,
          0.06295076731381412
        ],
        [
          -0.378024017243277,
          0.19321315867774913,
          -0.0026039472159950024,
          -0.19862392085247862,
          0.20850561415631114,
          -0.22000566678539607,
          0.14194761837680286,
          0.21608730394845388,
          0.3517733545323972,
          -0.21353445870676344,
          -0.07337328660884189,
          0.15233890994397634,
          0.4013190987663779,
          0.10574455712932047,
          0.021946573928742073,
          0.2580608731077651
        ],
        [
          -0.39642619479244273,
          0.09051462729423707,
          -0.22914706096177928,
          -0.6781303174810156,
          0.19274578321107008,
          -0.10926623265947256,
          0.011816511607041499,
          0.5727599786717208,
          -0.0794192269754286,
          -0.1903527479221687,
          0.24856563780072888,
          0.5850260565106559,
          0.1069341514615255,
          -0.029963261692897262,
          -0.3154261047137598,
          0.33501826028346826
        ],
        [
          -0.17189947587545243,
          0.6686659523740014,
          -0.04539512665872649,
          0.12003720037801385,
          -0.06101176737282511,
          -0.045093622784406144,
          0.037789274674115574,
          -0.18047962419869262,
          -0.237324920188551,
          0.12959136344237185,
          -0.18429615231982405,
          -0.2516508126691495,
          0.5956206650838135,
          -0.03233129759871793,
          -0.3806920004510584,
          0.13328525322125737
        ],
        [
          -0.07517994587910919,
          0.023143329175410725,
          0.617202736458431,
          0.6017221142512785,
          -0.033412062989274204,
          -0.10717521325282732,
          -0.32110035296178724,
          -0.098965676770009,
          0.1726721291382734,
          0.34881626021662937,
          -0.1810696019387551,
          0.1495797100648856,
          0.0021568441342737278,
          0.3242803625817067,
          -0.2538824243908356,
          -0.062131155044271795
        ],
        [
          -0.06455100022358236,
          0.30783579202519523,
          -0.39504085538787637,
          0.019659648126293672,
          0.13365176494606743,
          0.2833843993508443,
          -0.5200092139438041,
          0.4742204061511364,
          0.35064541005962546,
          -0.2600961406656912,
          -0.3475763699830085,
          -0.0022661498042634435,
          0.009488873481790084,
          -0.18699149537765464,
          0.008404606484057546,
          0.3040019918852132
        ],
        [
          -0.3117091858476311,
          0.05185588273212845,
          0.06932773957134533,
          -0.12449355347460944,
          -0.09102689706833461,
          -0.13267214043769038,
          0.07936020243348144,
          -0.08922512871439563,
          0.08384309889051017,
          0.28091614657666847,
          -0.01932015559741742,
          0.1180293865311727,
          -0.15609691774427886,
          -0.18350856378914557,
          -0.09739804172189641,
          0.3868901197431891
        ],
        [
          0.188394099734523,
          -0.1649206771666279,
          0.4024760933364917,
          0.07492996876162861,
          0.03465385413673801,
          -0.10043549214473324,
          0.24315909321517198,
          0.10124354241554609,
          -0.0742861074163318,
          0.09857376490351034,
          -0.07183521734232003,
          -0.2696126127544199,
          0.07312460221821179,
          -0.031254262320998434,
          -0.0980400971285909,
          0.2323285334931046
        ],
        [
          -0.2162618770090531,
          -0.030176044391450295,
          -0.12162022212522598,
          -0.21527666394424846,
          -1.2234728047413863,
          0.0006713807118265468,
          0.2557078386052682,
          0.05454889502534548,
          0.21059992491739776,
          0.016178917444874465,
          -0.029694495340205903,
          0.20233326460586304,
          0.2445780014334742,
          -0.3077445253007051,
          -0.013458825318329325,
          0.10665771053696327
        ],
        [
          0.21315661551568008,
          0.1995296007089874,
          0.03597518930646069,
          0.19286087876564756,
          -0.5583786714890538,
          0.23870683808518134,
          -0.09926278216823288,
          -0.49756819004192265,
          -0.28102674946563144,
          0.318322211344091,
          0.3934289517010353,
          -0.02730681853599164,
          0.1871245866676058,
          -0.4008002489022723,
          -0.3277842451403165,
          -0.31799629565474724
        ],
        [
          -0.043370920985384774,
          0.05684626756140607,
          0.018285758805042296,
          0.1816963596411502,
          -0.3428699942887937,
          0.15232340300796202,
          0.7313095515930454,
          -0.4119460296468253,
          -0.36650712777369504,
          -0.15213331046495163,
          0.04633230042131638,
          0.1322805984352526,
          0.4270864040497677,
          -0.039163147919765474,
          -0.1634521613097846,
          0.14281035002741735
        ],
        [
          -0.4896674188146664,
          0.2647650304122737,
          -0.4015871482357004,
          0.01521854184198874,
          -0.005627062068534173,
          0.2058480012825164,
          0.11876994268959698,
          0.17160508590732249,
          -0.008530916446000836,
          -0.14423813297691634,
          0.13269954995973718,
          -0.08462043309060945,
          0.1880512466011397,
          -0.3487433748658628,
          0.17669243890366013,
          -0.44790662903608663
        ],
        [
          0.1354743711230695,
          0.25655051294876846,
          0.08782083949869146,
          -0.18792609387829326,
          -0.03581079071295373,
          -0.37102311531589227,
          0.025468871863946446,
          0.35265284191614776,
          0.06264828950120165,
          -0.4044869631841722,
          -0.17855451158928295,
          0.013271019287948523,
          0.3641263791592097,
          -0.2983732109889005,
          -0.03921312915609301,
          -0.12844132047374263
        ],
        [
          -0.05848522352132926,
          -0.3892900934512635,
          -0.2538562529326684,
          0.1241416553974602,
          -0.04225681775373372,
          -0.08382151015436186,
          0.4283397944301202,
          -0.5510090813330539,
          -0.09426146063296456,
          -0.23599708801516198,
          0.5286588946551891,
          0.05697942488349785,
          -0.18136578932025285,
          -0.1907025651591528,
          0.08594221505424925,
          -0.4311116404069738
        ],
        [
          -0.23798952693743866,
          -0.13072403547935912,
          -0.46307193087541804,
          0.020453455816352693,
          -0.052517203539209384,
          -0.014490895536315258,
          0.021445626920092817,
          0.534197553833285,
          -0.1672102205822702,
          -0.11903981649547371,
          0.014350610107207831,
          0.39481527067182903,
          0.04646191211696646,
          0.07090968142794798,
          0.3760683278178809,
          0.3012669517380148
        ],
        [
          -0.31095076856777465,
          0.12205300577315402,
          -0.06701075335365801,
          -0.25265714853926163,
          -0.14719404872821873,
          -0.6549659812350448,
          0.2323320613588413,
          -0.06065809784708887,
          -0.15044862607356257,
          0.21724223268025625,
          0.06639758524508636,
          0.16340738227969703,
          -0.050444983169539985,
          -0.05358111577428012,
          -0.12603102480237377,
          0.22391089393881516
        ],
        [
          0.46995633558405947,
          0.3148982966098367,
          -0.08288252027149999,
          -0.29843777782683767,
          -0.21243240113656256,
          0.18395368584873414,
          -0.17929940582659257,
          -0.12952108068442555,
          0.0786039409438966,
          -0.19499337175984624,
          0.18937036229370907,
          -0.056283900335343306,
          0.024918431724369507,
          -0.4506205069232814,
          -0.16827361267108662,
          -0.03172486370907091
        ],
        [
          0.03702796660701706,
          -0.30053359866402757,
          -0.32100394359452117,
          0.3354784877445447,
          0.17138745133543612,
          -0.5818597787017922,
          -0.543353005956458,
          -0.012432570502242207,
          0.34571068671875854,
          0.060955314819160326,
          0.005686773580241495,
          -0.08594946369859861,
          -0.0700963539237821,
          0.45151513765361734,
          -0.47820706277871783,
          0.034109952478045075
        ],
        [
          0.25849528044804243,
          0.11140441390885454,
          -0.0570932186059481,
          -0.1097629334918261,
          0.15282604716614537,
          -0.6674569841625209,
          -0.12127958834480111,
          0.0651478500583518,
          0.5076664044417234,
          -0.03697629361274836,
          0.2988546987898516,
          0.025260973980912996,
          -0.09770453841840432,
          -0.28830206861086594,
          -0.04927150542572259,
          -0.4395514666255702
        ],
        [
          0.04892501206061663,
          -0.20648433717705364,
          0.5190148481195506,
          0.11637331806941097,
          -0.017982588380094505,
          0.1262857647961479,
          0.2535973865877147,
          -0.04870007928329992,
          -0.004560291179006686,
          -0.07276992164327295,
          -0.12955215265357137,
          -0.00921998786245124,
          -0.07969051151126327,
          0.24540822401626428,
          -0.18767751518295217,
          0.1275825879669024
        ]
      ],
      "b1": [
        0.12105480960073642,
        0.06185888810263324,
        -0.07552869882257802,
        -0.06244777304166967,
        -0.036551127184132975,
        0.08448026959292379,
        0.15467181761235582,
        -0.17677132875033572,
        -0.1097223802851005,
        0.06849137983210445,
        0.15484296472559392,
        -0.042466076363591676,
        -0.06981168106553191,
        -0.02193900784244717,
        0.03474269356812262,
        0.07497769326976554
      ],
      "W2": [
        [
          0.27705303730018005
        ],
        [
          -0.6966372213552574
        ],
        [
          -0.3016222041391705
        ],
        [
          0.5280309208592983
        ],
        [
          -0.539190117564707
        ],
        [
          0.11194934496036259
        ],
        [
          0.40766915456930986
        ],
        [
          -1.030027945024006
        ],
        [
          -0.2802311451375653
        ],
        [
          0.14507169371773343
        ],
        [
          0.33344706167506893
        ],
        [
          0.3435662157820306
        ],
        [
          -0.32139435355984347
        ],
        [
          0.004089787509193991
        ],
        [
          -0.13501762136390227
        ],
        [
          -0.16151881862187692
        ]
      ],
      "b2": [
        0.5267068046765732
      ]
    },
    {
      "n_hidden": 16,
      "seed": 1852,
      "epoch": 550,
      "val_mae": 0.21119860905991664,
      "within_1": 1.0,
      "W1": [
        [
          -0.3086150941333452,
          -0.3125556817098737,
          -0.1168907915994957,
          -0.10055503372724953,
          -0.003607762660732741,
          -0.28713042796378174,
          -0.11066641705811486,
          -0.17795257612568924,
          0.3014534847321382,
          0.10982226842393623,
          -0.08022025835785908,
          -0.47403469793982034,
          -0.2415238553690909,
          -0.09384183533655334,
          0.047921647187528525,
          -0.19432906317003426
        ],
        [
          -0.2828654267261949,
          -0.11741218934286318,
          0.26775491853345984,
          -0.051352931712159225,
          0.026185662837698843,
          -0.02277843317969754,
          0.16778764336544233,
          -0.10821459352952789,
          0.131429361679246,
          0.0670996805102923,
          -0.20429182122236136,
          -0.00017372680574756705,
          -0.28291855366700464,
          -0.12440556332546368,
          0.040088501752993784,
          -0.20270347652891368
        ],
        [
          -0.28142123827959287,
          0.02240334100861291,
          -0.042384799084005685,
          -0.17885589492469725,
          0.07990666888752149,
          0.058631757199554005,
          -0.052492807560746514,
          0.26201160156280767,
          -0.15926959696865867,
          -0.09406370092025854,
          0.5772613993229765,
          -0.08869473010094422,
          0.6084964343240711,
          0.005839039855085059,
          -0.13406413637274564,
          -0.3365914726117535
        ],
        [
          -0.23187574234390956,
          -0.08326852616413359,
          0.07596799459673334,
          0.026627175820248303,
          0.0960929319596963,
          -0.17710430222485624,
          -0.12095770915644138,
          -0.28661845519231777,
          -0.013298152891180874,
          0.020751894929047363,
          -0.04913654235053663,
          -0.24601506557390446,
          0.3401948486464301,
          -0.029914173877192397,
          0.030852698402273122,
          0.46161444772346444
        ],
        [
          0.5314878150093789,
          0.2321288764166957,
          -0.3776732659613783,
          0.18880663263512718,
          0.0307591190783994,
          -0.005185876204536914,
          0.1113815796246291,
          0.11373396955550734,
          0.1389953171148773,
          -0.2320286737998485,
          0.2515164726305207,
          0.3222950103890802,
          -0.29609055822926583,
          0.4661692462648542,
          -0.15900490379089502,
          0.034842395133817476
        ],
        [
          -0.34738918707905964,
          0.06239718860192317,
          0.17055085142613988,
          -0.39048106987749276,
          0.02758137502576914,
          -0.058773908455808946,
          0.008852809678229934,
          0.04741098233228931,
          -0.21395170788541357,
          -0.3497178668617993,
          -0.4972444713624245,
          -0.13936969737689878,
          0.0011462433958462676,
          -0.2350919223850672,
          -0.30689046594920144,
          0.21446579918903133
        ],
        [
          -0.07331276548976763,
          0.032121190490575886,
          0.12122404114942882,
          -0.05432681608920338,
          0.3342705432974128,
          0.05079564798931898,
          -0.17089920554644356,
          0.14447576881776653,
          0.15045544086387938,
          -0.018325248403835447,
          0.10855851814022302,
          -0.5182776265132963,
          -0.30938731227008914,
          -0.12875964205382717,
          -0.3027676176499559,
          -0.031677726382295705
        ],
        [
          -0.3501446852631655,
          -0.46360084921706546,
          -0.4961585929370834,
          -0.005591053007173768,
          -0.21481376037179847,
          0.0008581499252058641,
          0.22035275734955115,
          0.08028138857660788,
          0.13747199055497303,
          -0.30541061938910025,
          0.2014184458830469,
          0.2459598823946875,
          0.2528223679670153,
          0.12528177570104593,
          0.10896660638784927,
          -0.24352587111171295
        ],
        [
          -0.1594829521541443,
          0.2832966724062472,
          -0.17706120523908864,
          0.05510623147556661,
          -0.27431351385996083,
          -0.46060169915869525,
          -0.12614075420201903,
          -0.2889718585636903,
          0.3421582018623737,
          -0.04608464312027331,
          0.09695716351863033,
          0.2347879609267154,
          -0.21821869746993708,
          -0.07680327309139294,
          -0.06431999499448948,
          -0.20618333543508957
        ],
        [
          -0.226627186770405,
          -0.26005284625766356,
          -0.13827389587651778,
          -0.029168941435115687,
          0.025077097868261667,
          0.16220523009106458,
          0.0017464851680092295,
          -0.15430996322622756,
          0.33947334143098096,
          -0.4398339192637583,
          -0.22304144419298938,
          0.14764903427427659,
          0.08712646349391859,
          -0.00803248804087229,
          -0.35077591879879466,
          -0.017857742602163836
        ],
        [
          -0.23672184022177045,
          -0.4947450647289264,
          -0.30320339991627604,
          0.13158771363701527,
          0.11699921186091321,
          0.034007482813448446,
          0.011381371241418253,
          -0.1836346123317016,
          -0.2996004640438047,
          0.16789636495528026,
          -0.41471018988803837,
          0.06268509981462922,
          -0.5205035872792592,
          -0.19321075809873098,
          0.13838083985792266,
          -0.09970204280779761
        ],
        [
          0.07045680456318132,
          -0.044423841444747404,
          -0.029828541167597904,
          -0.11110312909982928,
          0.17812963987772176,
          0.026282200497839716,
          -0.08897335498515062,
          0.13880426713469354,
          -0.08529583337235318,
          0.13506793847973111,
          0.13158651384068815,
          -0.21337044252624435,
          0.049731577923491685,
          -0.23452262180933972,
          0.11670139048386137,
          0.5528014274154681
        ],
        [
          0.4330764319519635,
          0.667357121711427,
          -0.17996582630367536,
          0.14069680814532032,
          -0.04923090552285978,
          -0.1253861876754163,
          0.24781619964880872,
          -0.1937511613048118,
          -0.24410595255164802,
          -0.1433453157537721,
          -0.3409081596153398,
          0.6182360696427333,
          0.012207202922772845,
          -0.20179312556743012,
          -0.20091721077742983,
          0.014232548766048016
        ],
        [
          -0.1126472130483708,
          0.3240393039004528,
          -0.12303555882111387,
          0.3369689344394249,
          -0.10905249251858591,
          0.2421415966056273,
          0.010447784897220412,
          0.3153787372804131,
          -0.2148724104382319,
          -0.04100896188020168,
          0.19147235137411575,
          0.43723888629743696,
          -0.05994024821585715,
          -0.027136590302509887,
          -0.018571627029284984,
          0.008594435609263571
        ],
        [
          -0.08407465390872357,
          -0.3607671791614327,
          0.07413444012008309,
          -0.08134137157926079,
          -0.3527798339282959,
          -0.11695322441106291,
          0.32670714290364944,
          -0.18873313116920626,
          0.0801872155551339,
          -0.5726301412032802,
          -0.24594512587556397,
          0.16808014880048572,
          0.531208978232562,
          0.09651153293445705,
          -0.5222477762682818,
          0.3335437886213574
        ],
        [
          -0.26000282259204255,
          -0.3167720739034346,
          0.6750829268637275,
          -0.3343964757785328,
          0.1436688041756832,
          -0.29141633881424256,
          0.029458433573733442,
          -0.17416727568894577,
          -0.10703450667560722,
          0.03334085957029759,
          0.15022805954416832,
          -0.5988644887732829,
          0.10284974852122004,
          0.1587796047216347,
          -0.06375499016684666,
          0.1064796793608497
        ],
        [
          -0.3206600719501626,
          0.09689703830500096,
          0.04522321223178387,
          -0.07630690990707813,
          -0.12047907422589461,
          0.3239346478761158,
          0.23585890042312124,
          0.23642622778795636,
          0.2671030642760174,
          -0.02015297196276009,
          -0.2326793122359963,
          -0.41471039672978655,
          -0.05461526990215677,
          -0.04451448618164838,
          -0.08700492616099804,
          -0.1786547284117673
        ],
        [
          -0.1775441645895169,
          0.3068577220079649,
          -0.18667717993343672,
          -0.17310020993551287,
          -0.605174207588721,
          -0.0330496951581729,
          -0.2201655117960323,
          -0.24248279693529992,
          0.6439434144663647,
          -0.2856793094276087,
          -0.06629235477658647,
          0.007880043961073937,
          -0.4326820700318202,
          0.18736077347811103,
          -0.2907856905554794,
          0.009543020292890985
        ],
        [
          0.2515791165776577,
          0.07577054671043683,
          -0.053317411810539596,
          -0.16711856602395442,
          -0.13460610492763606,
          0.15053371521115247,
          0.130835334643141,
          0.23559647874347522,
          0.2738459664848393,
          -0.153829275326161,
          -0.21327414828506996,
          -0.3647388937013852,
          -0.20217759154257234,
          0.12757933992300485,
          0.10357118475867672,
          0.29613936979090694
        ],
        [
          0.13095831781583228,
          -0.35047420038082766,
          0.24583944406162286,
          -0.18605558804180816,
          -0.2810041331947093,
          0.15557065047304636,
          -0.3579012255923671,
          -0.011470312310313816,
          0.26518796602063044,
          -0.18435574639883726,
          0.029178132633476905,
          0.3417481402002162,
          -0.021945452661255298,
          0.039058492050148046,
          -0.1752111190907995,
          -0.13298358166129984
        ],
        [
          -0.15615772595740016,
          -0.5722669985218647,
          -0.062061124545908904,
          0.05706912182478819,
          -0.0038937691801701688,
          -0.09755275205424806,
          0.18364348642589778,
          0.4074875407612968,
          0.03941881376461658,
          -0.04080923669379591,
          0.3967519242764596,
          0.03757291575979184,
          0.005785750963763687,
          0.15258477775227336,
          0.07837037902615757,
          0.2917190011835139
        ],
        [
          0.26185393530776907,
          -0.014475836689124421,
          0.12389263888606822,
          -0.11039286340750744,
          -0.2257111649924758,
          -0.08836256830234313,
          0.05776024316329358,
          0.11400265100820048,
          0.004252473730663938,
          0.027939729615282523,
          0.06853599299155357,
          -0.057977438391898097,
          0.08091526297188133,
          -0.12402116650052906,
          0.11363559121235674,
          -0.24254468703578508
        ],
        [
          -0.12133715099716318,
          -0.13496963203555182,
          -0.2601411815803851,
          -0.07712391528452664,
          -0.0953731453969026,
          -0.061505601601822474,
          -0.6247635518474283,
          -0.32655326767024834,
          -0.02129598874925568,
          -0.5022079568011574,
          -0.41819941297993024,
          0.15029581461337788,
          -0.4530148060864768,
          -0.1683003349811669,
          -0.06165597415094257,
          -0.02845481640310118
        ],
        [
          0.07988964272924128,
          0.2129190498636324,
          -0.22930881909294323,
          0.16450999290709659,
          -0.062243116323629756,
          0.08528494223346121,
          -0.0016706978909048996,
          -0.047109563139877526,
          -0.12239914481279801,
          -0.08125672288610841,
          0.5072395961478382,
          -0.18885634547016436,
          0.043001846583486505,
          0.3482412768590247,
          0.08021668801425251,
          -0.363700907450985
        ],
        [
          -0.024357893614519798,
          0.1765360623971435,
          0.08061713317831584,
          0.23451967576180632,
          -0.19055111328744098,
          0.2279284576783859,
          0.06685197741904955,
          -0.004950651372528203,
          0.12199774109532403,
          -0.4206199302625704,
          0.43347720597045575,
          0.1973834831627239,
          -0.12875660254385313,
          0.11514303732363404,
          -0.05934987987002994,
          0.43558237615795115
        ],
        [
          -0.20492726201371253,
          -0.02539835867281972,
          -0.4159150718786407,
          0.4719356890569245,
          -0.16168439657935338,
          0.10472926134864095,
          0.23840894869907864,
          0.11570347253686658,
          0.7069730731935566,
          -0.11056950689412806,
          0.02521037471633759,
          -0.1314187235235,
          -0.14925264445195718,
          0.26529901589782423,
          -0.16973632303741337,
          0.24961804908897253
        ],
        [
          0.04045113884666918,
          -0.18213667878789638,
          0.3446896076097389,
          -0.09203941340369491,
          0.2715713271713009,
          0.5951213425946918,
          0.24469429338962576,
          0.07239283734055763,
          -0.22660627523738852,
          0.36607358377756966,
          -0.21424410194541355,
          0.048021980155439,
          0.21347510818473334,
          -0.07343877658768933,
          -0.260340221819678,
          -0.06264239088644863
        ],
        [
          -0.11437674342515522,
          0.08156959493632866,
          -0.13366169438674133,
          0.13699583486569358,
          0.07322149411697745,
          0.02144573450535662,
          -0.2626610487972986,
          -0.15453297681614567,
          0.14121336980610852,
          -0.05419285046836538,
          0.030699778729072057,
          0.34988311300249975,
          -0.11074423777565287,
          -0.24348672405277422,
          0.6718310851801923,
          -0.2626665648817029
        ],
        [
          -0.07813067520011505,
          0.1958336149870794,
          -0.31344202236633123,
          0.2197536879508364,
          0.0019116000457315922,
          0.10626882265641484,
          -0.3884556217927499,
          -0.2603893782410458,
          0.3582321705841581,
          -0.16264200849939145,
          -0.2540684440478448,
          -0.2963666127464145,
          -0.1808082346471749,
          -0.021849709245666975,
          0.01041770043586713,
          -0.3149298760870706
        ],
        [
          -0.42263541385388975,
          0.13477244772742303,
          0.06086532142412772,
          -0.04365759638120067,
          -0.24165611733267744,
          0.2694155612819926,
          -0.08865229523516405,
          0.08786786011809744,
          0.07657319977861218,
          -0.10507275173877167,
          -0.12438706878795057,
          -0.1088954770813896,
          -0.00024944973784177434,
          0.4114653333371546,
          0.11257273929462153,
          -0.20402018543380104
        ],
        [
          -0.21473845505610872,
          -0.18162802953659926,
          -0.0708488024109271,
          -0.03664364255794458,
          -0.5759872492331068,
          0.09626184284156082,
          0.12423611819139138,
          0.26576891786499734,
          0.31200514441340976,
          0.006405512028310438,
          -0.27417052646440687,
          -0.18516835839997553,
          -0.020529202918563545,
          -0.37613370895299186,
          0.35684931440845813,
          0.04389074011108426
        ],
        [
          0.06540842462174068,
          -0.3944702103786966,
          0.08534157544096395,
          0.19333096662081636,
          0.1049107492109095,
          -0.07658471082436903,
          0.37458389959885596,
          -0.2356596038895086,
          -0.1758476986086449,
          0.030088310720613683,
          -0.21180710282380022,
          0.4843570901434121,
          -0.09569076149632234,
          0.11421369937979788,
          -0.10058775394949414,
          -0.012661457227914527
        ],
        [
          -0.10347340045164743,
          0.11506637991699341,
          -0.008914993208316492,
          -0.089891107439772,
          0.2554018553877422,
          -0.17454759710049073,
          0.368849607899434,
          -0.15726620715829925,
          0.09000561757843462,
          0.037438260101316546,
          0.2079101438684073,
          -0.0863924122706765,
          0.3423757651620764,
          -0.25682887837880636,
          0.0010060192374504134,
          0.271501706470401
        ],
        [
          0.2019595332479708,
          0.1899247670027713,
          0.08222243452757792,
          0.04068725436705486,
          0.0845593225301247,
          -0.06982497658016915,
          -0.1599189824906156,
          0.026693572362247536,
          -0.33807856336474795,
          -0.024293167984565014,
          -0.04951246158439585,
          -0.17049846665048293,
          0.003968904197114021,
          0.26484583018218166,
          0.12289311627552295,
          -0.0008476133140832973
        ]
      ],
      "b1": [
        0.032239405288974336,
        0.0422190875273715,
        -0.24089191399446602,
        -0.0029056087772603655,
        -0.004525123023178955,
        -0.08604041387689397,
        0.12157779199442811,
        0.104051400952128,
        0.09869649897885437,
        -0.2534962537100731,
        0.04834877865629312,
        0.1713856018280594,
        -0.08047853628620287,
        0.010358829760656543,
        0.2826862362361913,
        0.033815564639135834
      ],
      "W2": [
        [
          -0.01236900449512269
        ],
        [
          -0.07126681019283813
        ],
        [
          -0.49048973722005923
        ],
        [
          -0.1346094333833894
        ],
        [
          0.22000079957487179
        ],
        [
          0.10188168903562124
        ],
        [
          -0.2524213885229718
        ],
        [
          -0.5731018178420989
        ],
        [
          -0.7120200576477673
        ],
        [
          -0.5169867553272379
        ],
        [
          0.396142306605118
        ],
        [
          0.36078947606225154
        ],
        [
          -0.378690001213689
        ],
        [
          -0.2086187651498878
        ],
        [
          1.1029734550697532
        ],
        [
          -0.025254443773969026
        ]
      ],
      "b2": [
        0.2967923206946747
      ]
    },
    {
      "n_hidden": 64,
      "seed": 1237,
      "epoch": 250,
      "val_mae": 0.2125963163810004,
      "within_1": 1.0,
      "W1": [
        [
          0.22905276270744823,
          0.23599919241332126,
          -0.1525459397688407,
          -0.16837334966669232,
          -0.10560745047128685,
          -0.17739584278302387,
          0.1389910829320288,
          0.02600816231723133,
          -0.102199800915187,
          -0.01817500207858826,
          -0.019457531746089378,
          0.11801957458526736,
          -0.024283904242484663,
          -0.1264521759408313,
          -0.051562724064937976,
          0.08555441815966723,
          0.13312775905678775,
          -0.2677978189372507,
          -0.048529874480610934,
          -0.23958933603339475,
          0.13039560075964804,
          0.233291602835358,
          0.14618941282136746,
          0.05876081546773844,
          -0.05378060817992841,
          -0.2391086325199031,
          0.04360471132227862,
          0.019743957005089942,
          0.034467212462065605,
          -0.0035078320375618102,
          -0.13437180300174179,
          -0.3791301816099822,
          -0.28133587912277647,
          -0.21635171859438418,
          0.14301086839354452,
          0.12928810012701025,
          -0.2127414750229139,
          -0.1033570053987518,
          0.11380205287726715,
          -0.030676900318561996,
          -0.05389093567360806,
          -0.3630426072299323,
          -0.21746513193680736,
          0.0029646296319539864,
          0.004799127343476515,
          0.3508758850705919,
          -0.08523357039542552,
          -0.2376095732029928,
          -0.03528638090777384,
          -0.3537021223842682,
          0.26034073408912184,
          0.1580998839626422,
          -0.37544464485757023,
          -0.3539758643715752,
          0.2507759428104273,
          -0.3744599136814883,
          0.13768365359171228,
          -0.062283533883586824,
          0.24401285439647663,
          -0.04836220575481351,
          -0.4214758017042007,
          0.06300065769409197,
          -0.1411642765549387,
          0.24883715406633372
        ],
        [
          -0.07800563971450418,
          -0.12224001351255163,
          0.24000681053469086,
          0.4025977409227058,
          0.1668470151714122,
          -0.04684878608473273,
          -0.046708725727072076,
          -0.167843429068769,
          0.08808452645221122,
          0.0796864738172053,
          -0.2776503908191932,
          0.12489908074576092,
          0.09958656061844585,
          0.10880394859210334,
          -0.1844732005307737,
          0.11947888452928306,
          -0.08638228413813316,
          -0.09267264476629339,
          0.41576068646774694,
          0.10491523122870085,
          -0.3830335027993676,
          0.25365767335737327,
          -0.2199329216401241,
          0.008420960708652676,
          -0.005996936757939466,
          0.26695844004627556,
          -0.06889191075774047,
          0.25766217500287186,
          -0.17153498933144223,
          0.16641025262232315,
          0.4126371360621325,
          0.1760170912501893,
          0.2961919780749372,
          -0.31323478891061973,
          0.006494892076266939,
          -0.002427938318038691,
          -0.08322357128449827,
          -0.21331061234445395,
          -0.10216333931503045,
          0.07388565479145148,
          0.0608326908216374,
          -0.17407377909138966,
          0.08136215319750949,
          0.38879873772008966,
          -0.4245832909618269,
          0.01809152693931671,
          0.5233983232838647,
          -0.012257897666712463,
          -0.003081420821309555,
          -0.23870853939679285,
          -0.04765716184461695,
          -0.21239881166869215,
          0.017258190933909946,
          0.022813976773279652,
          -0.06499199733722658,
          -0.2857695511430213,
          0.3953246731725489,
          0.2090665589335243,
          0.09659006541118752,
          -0.16094217900887403,
          -0.08906067950019798,
          0.2481167879915015,
          0.42599571141185655,
          -0.04118640562766982
        ],
        [
          -0.2900992333783083,
          -0.22648072829435495,
          -0.008236356145597852,
          0.4293735599945302,
          0.051889880821563726,
          0.020323357853321476,
          -0.35434238541564994,
          -0.04358194853826523,
          0.344786738157329,
          0.32433101501021566,
          0.3580009674994471,
          0.2542601043478102,
          0.15295529189525656,
          0.04276641692240368,
          0.028510796847677697,
          -0.2885157123406213,
          0.10266053265252706,
          -0.12119398079144773,
          0.25393824467126463,
          0.13425611176579183,
          -0.044838377367830584,
          -0.25747521289808656,
          -0.07136738224485834,
          0.10998021021314648,
          -0.18795851983814904,
          -0.15570140242024774,
          0.38344320835242723,
          0.12215872209047185,
          0.015342909751683838,
          -0.07425654408298787,
          -0.39434104839727097,
          -0.07519103942482376,
          0.2559742343555165,
          0.21300797420388362,
          0.10050605817301311,
          -0.0829440140332979,
          -0.33490595856196426,
          0.24422955281374834,
          0.11541463151413389,
          -0.15029190081509378,
          0.04803055917478179,
          0.00974096596685149,
          0.16141943084031662,
          0.0427357257234211,
          0.07400112578856859,
          0.18576147738752213,
          0.10733604109344795,
          0.16355418849065012,
          -0.02996554350583428,
          -0.06902676625704207,
          -0.12949944184900242,
          0.1822436236471522,
          0.32119186199193406,
          0.25928826618058354,
          -0.015225560460350712,
          -0.08851132347113816,
          -0.3149575775193314,
          -0.031673528421038794,
          -0.129150322761652,
          0.09921487366163985,
          0.10614738616676955,
          -0.07428116601607797,
          -0.032067105580129596,
          -0.3346252477232243
        ],
        [
          -0.03845427697845959,
          -0.26204283853925897,
          -0.004053532578713652,
          0.3972398962028459,
          -0.20313001391336052,
          0.001748897536714381,
          -0.08145485861391434,
          -0.5403974145409252,
          -0.11797085362608994,
          0.2919025283514068,
          0.04703415973062166,
          -0.08970342864528448,
          -0.1195995737755763,
          0.07319857689186145,
          -0.5110271903487054,
          -0.2834986899412553,
          0.033718510600468064,
          0.3779567877847039,
          0.23163414320767522,
          -0.04921695517550383,
          -0.05210950426643221,
          0.005596417099420213,
          -0.06390266379817768,
          0.046735055548887364,
          0.6793377896900844,
          0.2013273233147847,
          -0.340190726355258,
          0.1519363520610322,
          0.1656125550231853,
          -0.3565533437028823,
          0.16563792283250753,
          -0.1668862360510639,
          0.2263132613809169,
          0.145095336224204,
          -0.13757726950947632,
          0.32400392350340823,
          -0.04749108310646532,
          0.5092233293163513,
          -0.176215067405947,
          -0.045248398778588876,
          -0.09039249289689365,
          0.2983269113828825,
          0.10534695114403692,
          -0.07841062613118943,
          -0.17045707475134064,
          -0.33351581199917907,
          -0.09410038754025032,
          -0.03302536014070895,
          -0.2260322835696379,
          0.2429836171141515,
          0.10663271581475518,
          0.20597105323184264,
          0.03174761903833228,
          -0.10057338622283019,
          -0.260499768767587,
          -0.0960158847242894,
          -0.09011914892526132,
          -0.07861087695659374,
          -0.4115495069185343,
          0.0029430401204786176,
          -0.3237941556447891,
          -0.20095927324007104,
          0.2678354964309756,
          -0.06498216383342859
        ],
        [
          0.2880116946619572,
          0.2158481387614737,
          -0.1825266526040501,
          -0.1808294999925497,
          0.15530877222517786,
          0.14224357740852808,
          -0.1730365145515016,
          0.26583473758131737,
          0.003220554141461119,
          -0.34561500608767787,
          -0.00971581488198682,
          0.10008271559905757,
          0.18089738543540257,
          -0.08187861885869208,
          0.318732530807173,
          0.26798079495845606,
          -0.03972283167649854,
          0.05217735168918762,
          -0.3406927902918712,
          0.1497296474538985,
          0.4538442469186205,
          0.11410457422433991,
          0.49605910543709403,
          0.10418364353013271,
          0.24973584820429603,
          -0.10044609712289272,
          0.48532414762935605,
          -0.018063482530197704,
          0.3139473006329232,
          0.17182871836636698,
          -0.09509167272122086,
          0.24652012731308123,
          -0.08393950474250532,
          0.3865622502960266,
          0.11387023887245805,
          -0.19107063952872652,
          0.34204391894869934,
          -0.03614679921439696,
          0.03772958390767541,
          -0.2697506363134668,
          0.497187205890683,
          -0.029523850560860373,
          0.15249477332065778,
          0.049112964107345926,
          -0.3554137847911623,
          -0.44528985829599416,
          -0.07185700670686318,
          -0.10989392524076023,
          -0.23023488767194927,
          0.48467822820756895,
          0.20423643863516558,
          -0.08117886654301819,
          -0.22727092490724962,
          0.16917141447606193,
          -0.24760685722097628,
          -0.24849538888351846,
          -0.14933305843636932,
          0.26350765212426974,
          0.45032321213726245,
          0.040766857649913724,
          0.15883361539298238,
          0.023193691079678204,
          0.03276022745552209,
          -0.331753230603835
        ],
        [
          0.4082671940747231,
          0.1343835647435026,
          0.1790590422693887,
          -0.4276908265806621,
          -0.04816185497411181,
          -0.15684040930846263,
          -0.23778374128192736,
          -0.5681169117687331,
          0.3292714503946004,
          -0.231111641404131,
          -0.00010107607100489399,
          -0.06578088936348486,
          0.2475151076887149,
          -0.35906424124059655,
          -0.03229701793487173,
          0.23584828143717823,
          -0.4229414796147904,
          0.24788911495011845,
          0.5044806194366867,
          -0.2089587457173943,
          0.1869106082396221,
          0.031400586647476275,
          -0.3277435794087774,
          -0.23323887821076578,
          -0.319413442771739,
          0.05957314760279227,
          0.03946815086273494,
          6.359594825896853e-05,
          -0.379914389670793,
          -0.0352151007972126,
          -0.3224622149583891,
          -0.14280580453603858,
          -0.5001099664531321,
          0.21720123739677283,
          -0.2841531736920264,
          0.24152834992520267,
          -0.26474235642370697,
          -0.32620534039546994,
          -0.128970339062852,
          -0.5996108469215022,
          -0.2073213537072186,
          0.21844783326152087,
          0.0020260520566721604,
          0.09803013137067247,
          0.24706895605122128,
          -0.13985932060095144,
          -0.055685294968472986,
          -0.3519238762901987,
          0.007533571592061125,
          -0.22549843126286018,
          0.11014889920313374,
          -0.07964299379138386,
          -0.015626650503913042,
          0.15149144916831978,
          0.27393411251248406,
          0.24195618023545043,
          -0.06349569750517484,
          0.15417640938145152,
          0.6521825127541732,
          0.18035863334995564,
          0.2424842994109834,
          0.21999539581331062,
          0.0853935496379645,
          -0.08817262999835371
        ],
        [
          0.15298613049825777,
          0.03743224500293702,
          -0.025786027368341277,
          0.23545886913605413,
          0.09617268517347159,
          -0.3880770881842465,
          -0.28892193017585294,
          -0.20585011752694762,
          0.1598183972985159,
          0.2691239932507955,
          0.42923661146694114,
          -0.16394134466519467,
          -0.15822258053765373,
          0.029396940976229892,
          -0.216838235853851,
          0.16541873840507967,
          -0.3487308646483719,
          -0.10476753986727257,
          0.09090828898257099,
          0.1623604827319801,
          -0.18091108179430607,
          0.09655950465351616,
          -0.22057902241073624,
          0.30208872150729515,
          -0.595973177240329,
          0.3153324416281801,
          -0.2316310012777339,
          -0.01667126424622129,
          0.07550875180114817,
          -0.028838416410417993,
          -0.16009895783463796,
          0.21051987896842558,
          -0.02910930152130423,
          -0.36159049078271227,
          -0.22073595348221217,
          -0.024044955207531207,
          -0.3103661843633929,
          0.17866100769074447,
          -0.13624228577503547,
          -0.048523851033785516,
          0.16355153083018983,
          0.17713484128843712,
          0.06608017858398285,
          0.244800680601336,
          0.059266080941575885,
          -0.10560446381747003,
          -0.12412488529103198,
          -0.0450183806707037,
          -0.0878480388701477,
          0.05780348483141115,
          0.034468272955704114,
          -0.07494810795848647,
          0.004651971364640816,
          -0.2446028081349072,
          0.2284109096351438,
          0.09801434701195165,
          0.19061539805540573,
          -0.3407679357228184,
          -0.08529588091802295,
          0.024128090039540074,
          -0.03020880978723033,
          0.4612731355943893,
          -0.1961980422171332,
          -0.5154400477579019
        ],
        [
          -0.2897238638216504,
          -0.2121672103909963,
          0.033616590596510294,
          0.19825478051672787,
          0.1054781976692165,
          0.19328708466823483,
          0.4898230672903393,
          -0.3947234814142504,
          -0.19298790783663541,
          -0.29001706088935403,
          -0.21360072111683065,
          -0.19890797289219778,
          0.08449195876588166,
          0.2074271982288953,
          0.008139979926255177,
          0.025180441669244293,
          -0.36879805963129697,
          0.0950442885049126,
          -0.023634282192096547,
          0.18195275252369078,
          -0.03661517719231047,
          0.08009935829667994,
          -0.02279913519522236,
          -0.2122492383524724,
          -0.48356724897298564,
          0.07580087384155211,
          0.10197343009166446,
          -0.44906935993526514,
          -0.17748469009274379,
          0.355615946610973,
          0.023385815892579674,
          0.38953949227564716,
          -0.3142992371710197,
          0.18020236172759277,
          0.14559741902643195,
          0.014700176882977862,
          0.3137769728257432,
          -0.1970819388659363,
          -0.1897647440082803,
          -0.18040245772545194,
          -0.19739082790851897,
          -0.03273876917370891,
          -0.19319834650408663,
          -0.15912382191850064,
          -0.595157232952681,
          -0.29463890160088246,
          -0.1953965252423676,
          -0.024869334310546127,
          -0.2580491983116501,
          0.27170112544832586,
          -0.049985192676692713,
          -0.3571501770215827,
          -0.2386919850085564,
          -0.45760719154292945,
          0.40879828524156253,
          -0.21128947950108126,
          -0.3522694402117244,
          0.0734218957347983,
          0.2441579236153113,
          -0.1253204204006648,
          0.09847976853533215,
          0.00549314799328259,
          0.29731356907650275,
          0.09029942191478216
        ],
        [
          0.20960325407344496,
          -0.22150238114376722,
          0.32010701211354775,
          -0.22373533347997926,
          -0.01776338295955906,
          -0.268315768983019,
          -0.16172652229358422,
          0.12629931413288273,
          0.5016208513340271,
          -0.18177519377615128,
          -0.04588109039089525,
          -0.13112848710801345,
          0.15078890791160726,
          0.13822817512331326,
          0.27511842603737646,
          0.02542224067315041,
          0.5567682432282867,
          -0.13717993409500484,
          -0.2346814433625504,
          0.21016123025139516,
          0.2254744015816428,
          -0.33995366122945586,
          0.4595547250973575,
          -0.004762626728267674,
          0.08698375200659719,
          -0.08462172765530095,
          -0.0196557030689896,
          0.28124561919019764,
          -0.48758533800672893,
          -0.04779305982384116,
          0.3654759589148133,
          0.2454677974541183,
          0.6051691644469951,
          -0.008920309689085894,
          -0.0689078919099303,
          0.424318615697971,
          0.07344328213434483,
          0.21738360035543028,
          0.06815442512462185,
          -0.026195638899748196,
          -0.2878355827022869,
          0.02896600374811907,
          0.03636642349613444,
          0.09420239635377085,
          -0.22782146339541332,
          -0.06510475644884697,
          -0.31520143063596257,
          -0.3195691778070955,
          -0.3926585933272187,
          0.29293077621161123,
          -0.16609419090044747,
          -0.4520076153329395,
          -0.243066659007982,
          -0.48065917316602835,
          0.07375530604616087,
          0.019135566902168787,
          0.04780809421938642,
          -0.19249612116234735,
          0.12770618053067034,
          0.29523893417520297,
          -0.026223604693295467,
          0.07891191661522688,
          0.2382634228834715,
          -0.3658039466322723
        ],
        [
          -0.10763530273143576,
          0.42091704129417096,
          -0.10561667747638713,
          -0.24322607971795945,
          0.20072839528287245,
          -0.09190805756427325,
          -0.056007984956241104,
          -0.012963973350118372,
          0.16205717122100102,
          -0.1778623611226977,
          -0.1403427635081998,
          -0.0937279715262663,
          0.2870296325356279,
          0.23931324321707348,
          0.08527726946288602,
          0.4458037195992401,
          0.15203380532309027,
          -0.04705821883070359,
          -0.1319837757817088,
          0.16678183444990433,
          0.0842459252701584,
          0.1217746999524716,
          -0.4918735480387354,
          -0.41832361013073727,
          0.250055889902007,
          -0.17275333321869848,
          -0.13153809895801397,
          0.0048914409670401835,
          -0.2996746579966012,
          0.13756636236412292,
          -0.06562090064211834,
          0.3134440674122372,
          -0.12129129183679703,
          0.10033097800303323,
          -0.29423323051650363,
          0.017920762443787038,
          -0.25940747533349773,
          -0.0769892443813556,
          0.20705541694440116,
          -0.27817972547431236,
          0.12289844506453348,
          0.20351238080731976,
          -0.19989030489590567,
          0.3819414894019919,
          -0.4567716435892788,
          0.17681704292985728,
          -0.05217106965659351,
          0.021711848642076047,
          0.4463146920338623,
          -0.29425442589352907,
          0.1778190626532395,
          0.3235328277866093,
          0.14023305871820346,
          0.10818711899907144,
          -0.2926620021076054,
          -0.09100528034760146,
          0.021687346748573533,
          -0.036159807100463716,
          0.15556417636780162,
          0.08085764854927541,
          -0.5709384385522567,
          0.04704350683479015,
          0.2945777776845488,
          0.1631625283812699
        ],
        [
          -0.1729862684559232,
          0.282757201660232,
          -0.1864923682716969,
          -0.08967284308230028,
          0.2692239853827847,
          0.3112446975200108,
          -0.04930479879291125,
          0.32933323053773494,
          0.0743434616372358,
          -0.16599841818635017,
          -0.15924634695952639,
          -0.20882872641390607,
          0.30520966958228796,
          -0.023385328029543732,
          -0.08958358732129157,
          0.1449872661997821,
          0.032133715387462874,
          0.020039365855437523,
          0.12229726990457342,
          0.006231101195195242,
          -0.014036553643643071,
          -0.24835433556752046,
          0.3113460978530638,
          -0.3092113760234321,
          -0.013008186340338845,
          0.3792509293246821,
          -0.13727084525505004,
          -0.18499328727334233,
          0.1518939372496436,
          0.6488995086091488,
          -0.03510503526460909,
          -0.4629104746058021,
          0.19842157896955737,
          0.14546258557044908,
          -0.040972244129193806,
          -0.3830861475715112,
          -0.02929209622820001,
          0.043950115672136296,
          0.08815100826576018,
          -0.14559215697162145,
          0.13550740447857942,
          0.3947766357279852,
          0.20522948535717891,
          0.11994664504924331,
          -0.019667474237313524,
          0.10217615967068738,
          -0.21285598554674875,
          -0.11360611911145908,
          -0.3090644014635447,
          0.11080859319339428,
          0.41052356417585983,
          -0.17325441641957173,
          0.07048098080106277,
          0.20960890133353832,
          -0.0051312023378735526,
          -0.08506281129296303,
          0.13533335625939677,
          -0.2988101165344412,
          0.01398709321901295,
          -0.03105082640689483,
          0.345929541980805,
          -0.029628687377422996,
          0.20074572532970536,
          0.3159490035638651
        ],
