{
  "version": "v2",
  "type": "neural_network",
  "architecture": {
    "input_size": 29,
    "hidden_size": 16,
    "output_size": 1,
    "activation": "relu",
    "output_activation": "sigmoid_scaled"
  },
  "engineered_feature_names": [
    "cur_temp",
    "max_temp_24h",
    "min_temp_24h",
    "temp_trend_48h",
    "freeze_thaw_days_ago",
    "warmest_thaw",
    "thaw_intensity_recency",
    "snow_since_freeze_cm",
    "snowfall_24h_cm",
    "snowfall_72h_cm",
    "older_snow_accum",
    "elevation_km",
    "snow_depth_m",
    "fresh_to_total_ratio",
    "hours_above_0C_ft",
    "hours_above_3C_ft",
    "hours_above_6C_ft",
    "cur_hours_above_0C",
    "cur_hours_above_3C",
    "cur_hours_above_6C",
    "avg_wind_24h",
    "max_wind_24h",
    "calm_powder_indicator",
    "fresh_powder_indicator",
    "accumulated_powder_indicator",
    "warm_degradation",
    "severe_thaw_damage",
    "temp_adjusted_fresh_snow",
    "summer_flag"
  ],
  "raw_feature_columns": [
    "cur_temp",
    "max_temp_24h",
    "max_temp_48h",
    "min_temp_24h",
    "freeze_thaw_days_ago",
    "warmest_thaw",
    "snow_since_freeze_cm",
    "snowfall_24h_cm",
    "snowfall_72h_cm",
    "elevation_m",
    "total_hours_above_0C_since_ft",
    "total_hours_above_1C_since_ft",
    "total_hours_above_2C_since_ft",
    "total_hours_above_3C_since_ft",
    "total_hours_above_4C_since_ft",
    "total_hours_above_5C_since_ft",
    "total_hours_above_6C_since_ft",
    "cur_hours_above_0C",
    "cur_hours_above_1C",
    "cur_hours_above_2C",
    "cur_hours_above_3C",
    "cur_hours_above_4C",
    "cur_hours_above_5C",
    "cur_hours_above_6C",
    "cur_wind_kmh",
    "max_wind_24h",
    "avg_wind_24h",
    "snow_depth_cm"
  ],
  "weights": {
    "W1": [
      [
        -0.25771520035590656,
        0.1433727896234688,
        -0.348164391834546,
        0.12181550559800346,
        -0.35163344971428667,
        -0.07300285835736335,
        -0.1353126127306295,
        -0.46307272125934473,
        0.054093604922539125,
        -0.1410557691719913,
        -0.017330450981908874,
        0.4188507943253409,
        -0.19376636303088138,
        -0.02716891627818336,
        -0.23840002703123842,
        0.2117105066114099
      ],
      [
        0.018920150981480425,
        -0.11049942973567962,
        0.1767756865431584,
        0.02639145495448214,
        -0.13948304604847156,
        -0.13899844915089885,
        0.052356721114468735,
        0.14638720732671373,
        0.12066493764232962,
        -0.3245033049972918,
        0.14110779318227804,
        0.06320218677091258,
        -0.08480209963581292,
        0.22403616227306106,
        0.11011868452526151,
        0.1067098446111168
      ],
      [
        0.26694001915138127,
        -0.07858252290784457,
        -0.1057987237503365,
        -0.15381115826262565,
        -0.03620541212376085,
        -0.02101371925722787,
        0.3597081186187345,
        -0.12301432026232861,
        -0.001494400072523374,
        0.14038177177838101,
        0.0196618579740173,
        -0.06522350982295289,
        -0.13894069141287432,
        -0.33545453734913655,
        0.40173084929760644,
        -0.08576755220334738
      ],
      [
        0.008438755123287001,
        0.01627713163058956,
        -0.42672898335507453,
        -0.08171797875750272,
        -0.18854163917702918,
        0.17698610358888714,
        0.07995498435076631,
        0.0011949967669059086,
        0.14650894082592367,
        -0.04679820233589318,
        -0.10565674972544913,
        0.24293879170680524,
        -0.34432465716949084,
        0.032318849674669886,
        -0.15703999582795886,
        0.1360578883667258
      ],
      [
        -0.3808163625322615,
        0.32212967636232537,
        0.0552677425217117,
        0.11276895914886828,
        0.4749884716880607,
        -0.056920562232980386,
        0.22005274531413357,
        -0.17667098600940198,
        0.04037894807910729,
        -0.15453344388455278,
        0.0036187219090727083,
        0.3018786333901743,
        -0.12858448854731563,
        -0.20507757845446636,
        0.2332360945988782,
        0.2961191202293314
      ],
      [
        0.16556212825891384,
        0.06440246107931144,
        -0.47156059528068905,
        0.13340512318607253,
        0.09914046229365704,
        0.18667373765364542,
        -0.1461684982945474,
        0.19617701457959527,
        -0.3195764456365714,
        -0.6024478525778517,
        0.042783186435494384,
        -0.05392561772957281,
        0.20637318961107404,
        -0.0019518223903751222,
        -0.3108910259132332,
        0.8086537468956808
      ],
      [
        -0.12849596657045126,
        0.24222546492345542,
        0.054925682583188605,
        0.27899855893730996,
        -0.060981345531418964,
        -0.06507476253393926,
        -0.002536489876615982,
        -0.20171676713555473,
        0.18189840078221936,
        0.021037551675119663,
        -0.3808236570992846,
        -0.29751874480135915,
        -0.037691230081418954,
        -0.4117303869887789,
        0.1406355545005782,
        -0.11582274526998464
      ],
      [
        -0.30651232279962476,
        0.03161015670866222,
        0.24771567014759213,
        -0.23320551033781406,
        0.059024669483268837,
        0.17559989547510815,
        0.0837617990108381,
        0.2319894868949305,
        -0.055013643530796456,
        0.21195678325043626,
        -0.12646513719064384,
        -0.28793779787910156,
        0.4585504526205223,
        -0.1401227223828443,
        -0.3594380620581962,
        -0.24290249126391347
      ],
      [
        -0.16083597479967313,
        0.06813379354060191,
        0.11992215408609955,
        -0.23893347845889765,
        -0.03483814608670411,
        -0.15036001078950662,
        0.6776813846688104,
        0.15329740132536698,
        -0.1490955097990287,
        -0.156918939325256,
        0.3158612072227264,
        -0.19073839547371185,
        -0.44190413444885057,
        0.20481058480691255,
        -0.011332558569952734,
        -0.24655334139479515
      ],
      [
        -0.03229317115520929,
        -0.31851637138328576,
        -0.32898046246977547,
        -0.21970858349564315,
        -0.05364017099380062,
        -0.43633714874104174,
        0.3084977749025166,
        -0.2080964602347088,
        -0.5408731824007061,
        -0.1600694403302498,
        0.1675763394004384,
        -0.13248824215454358,
        -0.004150556992967679,
        -0.06721001245142083,
        0.5536143443249629,
        -0.014366619833036711
      ],
      [
        -0.07560939700780965,
        0.11779359445808453,
        0.25013192839781895,
        -0.01560942814202057,
        -0.04811238813546548,
        -0.08392774154211657,
        -0.040027760661685625,
        0.06295596679711749,
        0.08369913967726848,
        -0.2622687097916863,
        0.2634280237751954,
        -0.14697829943115803,
        0.2933394551351062,
        0.13442320698279617,
        0.07350490955296599,
        0.05686936879780467
      ],
      [
        -0.015568029133424982,
        0.027409288179357158,
        -0.08061484255766337,
        0.027377180753971136,
        -0.019137128391640886,
        0.09258894808259237,
        0.31323913583318147,
        -0.002943846842711192,
        -0.48375344972374135,
        0.08245108809928935,
        0.3137506208435106,
        -0.4053395124641852,
        0.08374119546643978,
        0.025443890944218794,
        0.12761038114746798,
        -0.6403916673262192
      ],
      [
        0.027614818329001565,
        -0.007485361481613127,
        0.2633916565569302,
        -0.3451064122493247,
        0.20370067552689852,
        -0.0905963991098611,
        0.010337026582131755,
        0.47939136707769936,
        -0.04486207151309813,
        -0.5408290557474442,
        -0.16896655775467978,
        -0.0011753890647204987,
        -0.20412602422662926,
        -0.3424736905444823,
        -0.9381018255596519,
        -0.16510182583400404
      ],
      [
        -0.11212654608643399,
        0.06713717282561325,
        -0.0678832860527947,
        0.03303744404429458,
        -0.35108285809782935,
        0.21093777188746624,
        0.028871982400470238,
        -0.16838301737137512,
        -0.2519355794813856,
        0.09469429939832082,
        0.34310722819805023,
        -0.24523995153033937,
        0.3364061725912267,
        -0.6199694079412241,
        0.1239167062894712,
        -0.18692685374035342
      ],
      [
        -0.03931233526061542,
        -0.598861749614216,
        0.35262545585247773,
        -0.2001066063328977,
        -0.1636965841296089,
        -0.11926784569685309,
        0.485433527728708,
        -0.15505757472686352,
        0.09058831213229282,
        -0.1948608370163182,
        -0.0971809889631537,
        0.03301860459611368,
        -0.8350586172230929,
        0.054393264154965794,
        -0.0516761124616034,
        0.27347323916646066
      ],
      [
        0.4256400485057901,
        0.08766151136123741,
        -0.29818833150175356,
        -0.016967540061610182,
        -0.2756902226366831,
        -0.025616334821018154,
        0.6283945045092755,
        0.23701493620409667,
        0.0001118918613593136,
        0.09177848998385672,
        0.11684802776079323,
        0.29518428777614397,
        -0.5729334467807997,
        -0.41963277953335104,
        0.10873484025000577,
        0.4214147554081686
      ],
      [
        0.5555873581499322,
        0.2091567481276846,
        -0.33551641966762297,
        0.31571379354383655,
        -0.08376198914141877,
        0.4402172990874269,
        -0.27234087608512975,
        -0.501516412490556,
        0.03953605862273381,
        0.016554600402405247,
        -0.11238379771676732,
        0.21969098126755573,
        0.035009771851196185,
        0.18373114769318888,
        -0.1288172877080672,
        -0.15672556857860442
      ],
      [
        0.2129190014063386,
        -0.3650494000197251,
        -0.30718229011607195,
        -0.7176026392898454,
        -0.19904979733984432,
        0.21950106650544035,
        -0.23626378930888398,
        -0.12891096241654934,
        -0.17153836755346866,
        -0.07699831404763652,
        -0.11845937810471013,
        -0.2023785852076982,
        0.13432891573149844,
        0.011132157663839327,
        0.40114357046064153,
        -0.12330951447637957
      ],
      [
        -0.19553794174964131,
        0.37685873229688766,
        -0.023124487135519012,
        0.3969001531054851,
        -0.4003611517848447,
        -0.5113678818808128,
        0.30481167578129764,
        -0.14558947462536911,
        -0.30731524048214515,
        0.10840206818811728,
        -0.21852026198366786,
        0.09417015971734223,
        -0.04790643455029319,
        0.2811428808230868,
        0.19016406351433876,
        0.6257956858519093
      ],
      [
        -0.00831277362661359,
        -0.22316018329025025,
        -0.32568527184475426,
        0.3722188648899381,
        0.2424834214522418,
        -0.25360324116108685,
        -0.017252192950122498,
        -0.25413326176215656,
        -0.22924505580316681,
        0.2902455700309136,
        0.21019437182862546,
        -0.20863649758850625,
        -0.26554041183981353,
        -0.5034170130596912,
        -0.2577588418848461,
        0.17043248233747474
      ],
      [
        -0.09044537443621058,
        0.14704013877684988,
        0.1321312895893277,
        0.31240813250081645,
        0.14757315001412583,
        -0.13622124204548713,
        -0.16657295037330458,
        -0.3208014877007393,
        -0.2502758881295604,
        0.1387849380454337,
        -0.5417035152474097,
        0.10316785030362825,
        -0.0952565952656291,
        0.22973988656224476,
        -0.011712544629132286,
        -0.016735422957743176
      ],
      [
        0.13045345219038357,
        -0.23556805880671686,
        0.19661297803474895,
        -0.03468119497481389,
        -0.07901531102157917,
        0.02694188437796868,
        -0.42584224462225456,
        0.2826421495754211,
        -0.2821617779197749,
        0.26786062247075476,
        0.10672527975314723,
        0.0014056369944869165,
        0.07163425956428557,
        -0.13887886175628136,
        -0.29891320094950247,
        -0.06843954187686277
      ],
      [
        -0.36252314656183443,
        0.13040277479289275,
        -0.2891085038334552,
        -0.35463928774703496,
        -0.4845328476641642,
        0.46601612198401293,
        0.07862422142785319,
        0.09218952167212587,
        0.1863951094664224,
        -0.3678875475438129,
        -0.06115632289082092,
        0.10800910891368151,
        -0.09479479051074949,
        -0.1827768972876957,
        -0.3931908965323272,
        -0.24489172061622483
      ],
      [
        -0.516257361140418,
        -0.041812064785893416,
        0.42346682731244706,
        -0.4707960730811297,
        0.32957930447893613,
        -0.1722995195972116,
        -0.22205805093353764,
        0.09452860704601916,
        0.16498882158402037,
        -0.5200057270443793,
        -0.15424175052232486,
        -0.2587625864158788,
        -0.3697830949614508,
        0.16594540804721236,
        0.06027891291862431,
        -0.08685357761818649
      ],
      [
        -0.39557287222691934,
        -0.03664019006150222,
        0.25936562821515796,
        -0.06656199006450897,
        0.06839367898104301,
        -0.05644160278959828,
        -0.48852291608022674,
        0.19295486666383949,
        0.4249655430330167,
        -0.210443159650811,
        0.6073662122287014,
        -0.2924879548513442,
        0.1909289398776997,
        0.3143510128864592,
        0.5061828158983772,
        0.11441857078778224
      ],
      [
        0.02893763227075511,
        -0.4175846213384837,
        -0.20873639961552615,
        0.10354844368861614,
        -0.037122326936265694,
        0.2867178420138048,
        0.4032792644536113,
        -0.10188730686512817,
        0.18668385112011157,
        -0.12288988516004981,
        -0.13640895150274954,
        -0.06853077136809421,
        0.04714415949755053,
        0.06544678532525361,
        -0.20227948399476625,
        0.0063066778093597824
      ],
      [
        0.3028170833385338,
        0.007412849366493721,
        0.2674343398664568,
        -0.1307030200362492,
        0.14504733785595117,
        -0.14916770932926182,
        0.35064586710572393,
        0.023570732796922483,
        0.621237151099089,
        0.0003284715507236736,
        0.002245921072965212,
        0.24162050097302723,
        -0.37206055638991614,
        0.08983139554360993,
        -0.06525888010203013,
        -0.2686898717525191
      ],
      [
        0.13236880504793558,
        0.8346955791647062,
        0.19177939333716784,
        -0.05988792441477404,
        -0.029179211629565896,
        -0.18798974530505905,
        -0.029998329170885917,
        -0.4743079860773072,
        0.46541164146021263,
        -0.07058564538832736,
        0.1662839670751495,
        -0.09709245323036109,
        -0.44507732444343256,
        -0.3785872883054964,
        0.17173154091078938,
        -0.04549256315250316
      ],
      [
        -0.13426187120502459,
        -0.1804407638743737,
        0.32267178512327677,
        0.2970845748673528,
        -0.00044680393605607636,
        -0.07810275740523243,
        0.09750681587970454,
        -0.14259525825248415,
        0.1061597825793289,
        0.3517316517586017,
        -0.286908969032741,
        0.039265076066246796,
        -0.4039656451455214,
        -0.18743862138879122,
        0.39053214499029354,
        -0.1824879410818237
      ]
    ],
    "b1": [
      -0.2870036430733888,
      0.3610852942445813,
      -0.018402757395017864,
      -0.09127089797317837,
      0.025838927671311195,
      -0.03505095046893725,
      -0.04275566401942295,
      0.1267065403151518,
      0.12317886820729461,
      -0.17413081266569644,
      0.10172159873985866,
      -0.0574046968255104,
      -0.1158740550486434,
      -0.036934146899067634,
      0.031979479736494426,
      -0.08443571097742761
    ],
    "W2": [
      [
        -1.2323907160215446
      ],
      [
        0.926123300198622
      ],
      [
        0.2567511605953038
      ],
      [
        -0.881652590092359
      ],
      [
        -0.4069956770046845
      ],
      [
        -0.552043682281531
      ],
      [
        -0.6031333949347063
      ],
      [
        0.10866141777797404
      ],
      [
        -0.21220965246596002
      ],
      [
        0.5567185310662051
      ],
      [
        0.40034880973483444
      ],
      [
        -0.5409225501146478
      ],
      [
        -0.27525437055810936
      ],
      [
        0.4402548388272836
      ],
      [
        -0.12228438579441611
      ],
      [
        0.4427595567580583
      ]
    ],
    "b2": [
      0.5442763223186986
    ]
  },
  "ensemble": [
    {
      "n_hidden": 16,
      "seed": 1114,
      "epoch": 3999,
      "val_mae": 0.1937268054608874,
      "within_1": 1.0,
      "W1": [
        [
          -0.25771520035590656,
          0.1433727896234688,
          -0.348164391834546,
          0.12181550559800346,
          -0.35163344971428667,
          -0.07300285835736335,
          -0.1353126127306295,
          -0.46307272125934473,
          0.054093604922539125,
          -0.1410557691719913,
          -0.017330450981908874,
          0.4188507943253409,
          -0.19376636303088138,
          -0.02716891627818336,
          -0.23840002703123842,
          0.2117105066114099
        ],
        [
          0.018920150981480425,
          -0.11049942973567962,
          0.1767756865431584,
          0.02639145495448214,
          -0.13948304604847156,
          -0.13899844915089885,
          0.052356721114468735,
          0.14638720732671373,
          0.12066493764232962,
          -0.3245033049972918,
          0.14110779318227804,
          0.06320218677091258,
          -0.08480209963581292,
          0.22403616227306106,
          0.11011868452526151,
          0.1067098446111168
        ],
        [
          0.26694001915138127,
          -0.07858252290784457,
          -0.1057987237503365,
          -0.15381115826262565,
          -0.03620541212376085,
          -0.02101371925722787,
          0.3597081186187345,
          -0.12301432026232861,
          -0.001494400072523374,
          0.14038177177838101,
          0.0196618579740173,
          -0.06522350982295289,
          -0.13894069141287432,
          -0.33545453734913655,
          0.40173084929760644,
          -0.08576755220334738
        ],
        [
          0.008438755123287001,
          0.01627713163058956,
          -0.42672898335507453,
          -0.08171797875750272,
          -0.18854163917702918,
          0.17698610358888714,
          0.07995498435076631,
          0.0011949967669059086,
          0.14650894082592367,
          -0.04679820233589318,
          -0.10565674972544913,
          0.24293879170680524,
          -0.34432465716949084,
          0.032318849674669886,
          -0.15703999582795886,
          0.1360578883667258
        ],
        [
          -0.3808163625322615,
          0.32212967636232537,
          0.0552677425217117,
          0.11276895914886828,
          0.4749884716880607,
          -0.056920562232980386,
          0.22005274531413357,
          -0.17667098600940198,
          0.04037894807910729,
          -0.15453344388455278,
          0.0036187219090727083,
          0.3018786333901743,
          -0.12858448854731563,
          -0.20507757845446636,
          0.2332360945988782,
          0.2961191202293314
        ],
        [
          0.16556212825891384,
          0.06440246107931144,
          -0.47156059528068905,
          0.13340512318607253,
          0.09914046229365704,
          0.18667373765364542,
          -0.1461684982945474,
          0.19617701457959527,
          -0.3195764456365714,
          -0.6024478525778517,
          0.042783186435494384,
          -0.05392561772957281,
          0.20637318961107404,
          -0.0019518223903751222,
          -0.3108910259132332,
          0.8086537468956808
        ],
        [
          -0.12849596657045126,
          0.24222546492345542,
          0.054925682583188605,
          0.27899855893730996,
          -0.060981345531418964,
          -0.06507476253393926,
          -0.002536489876615982,
          -0.20171676713555473,
          0.18189840078221936,
          0.021037551675119663,
          -0.3808236570992846,
          -0.29751874480135915,
          -0.037691230081418954,
          -0.4117303869887789,
          0.1406355545005782,
          -0.11582274526998464
        ],
        [
          -0.30651232279962476,
          0.03161015670866222,
          0.24771567014759213,
          -0.23320551033781406,
          0.059024669483268837,
          0.17559989547510815,
          0.0837617990108381,
          0.2319894868949305,
          -0.055013643530796456,
          0.21195678325043626,
          -0.12646513719064384,
          -0.28793779787910156,
          0.4585504526205223,
          -0.1401227223828443,
          -0.3594380620581962,
          -0.24290249126391347
        ],
        [
          -0.16083597479967313,
          0.06813379354060191,
          0.11992215408609955,
          -0.23893347845889765,
          -0.03483814608670411,
          -0.15036001078950662,
          0.6776813846688104,
          0.15329740132536698,
          -0.1490955097990287,
          -0.156918939325256,
          0.3158612072227264,
          -0.19073839547371185,
          -0.44190413444885057,
          0.20481058480691255,
          -0.011332558569952734,
          -0.24655334139479515
        ],
        [
          -0.03229317115520929,
          -0.31851637138328576,
          -0.32898046246977547,
          -0.21970858349564315,
          -0.05364017099380062,
          -0.43633714874104174,
          0.3084977749025166,
          -0.2080964602347088,
          -0.5408731824007061,
          -0.1600694403302498,
          0.1675763394004384,
          -0.13248824215454358,
          -0.004150556992967679,
          -0.06721001245142083,
          0.5536143443249629,
          -0.014366619833036711
        ],
        [
          -0.07560939700780965,
          0.11779359445808453,
          0.25013192839781895,
          -0.01560942814202057,
          -0.04811238813546548,
          -0.08392774154211657,
          -0.040027760661685625,
          0.06295596679711749,
          0.08369913967726848,
          -0.2622687097916863,
          0.2634280237751954,
          -0.14697829943115803,
          0.2933394551351062,
          0.13442320698279617,
          0.07350490955296599,
          0.05686936879780467
        ],
        [
          -0.015568029133424982,
          0.027409288179357158,
          -0.08061484255766337,
          0.027377180753971136,
          -0.019137128391640886,
          0.09258894808259237,
          0.31323913583318147,
          -0.002943846842711192,
          -0.48375344972374135,
          0.08245108809928935,
          0.3137506208435106,
          -0.4053395124641852,
          0.08374119546643978,
          0.025443890944218794,
          0.12761038114746798,
          -0.6403916673262192
        ],
        [
          0.027614818329001565,
          -0.007485361481613127,
          0.2633916565569302,
          -0.3451064122493247,
          0.20370067552689852,
          -0.0905963991098611,
          0.010337026582131755,
          0.47939136707769936,
          -0.04486207151309813,
          -0.5408290557474442,
          -0.16896655775467978,
          -0.0011753890647204987,
          -0.20412602422662926,
          -0.3424736905444823,
          -0.9381018255596519,
          -0.16510182583400404
        ],
        [
          -0.11212654608643399,
          0.06713717282561325,
          -0.0678832860527947,
          0.03303744404429458,
          -0.35108285809782935,
          0.21093777188746624,
          0.028871982400470238,
          -0.16838301737137512,
          -0.2519355794813856,
          0.09469429939832082,
          0.34310722819805023,
          -0.24523995153033937,
          0.3364061725912267,
          -0.6199694079412241,
          0.1239167062894712,
          -0.18692685374035342
        ],
        [
          -0.03931233526061542,
          -0.598861749614216,
          0.35262545585247773,
          -0.2001066063328977,
          -0.1636965841296089,
          -0.11926784569685309,
          0.485433527728708,
          -0.15505757472686352,
          0.09058831213229282,
          -0.1948608370163182,
          -0.0971809889631537,
          0.03301860459611368,
          -0.8350586172230929,
          0.054393264154965794,
          -0.0516761124616034,
          0.27347323916646066
        ],
        [
          0.4256400485057901,
          0.08766151136123741,
          -0.29818833150175356,
          -0.016967540061610182,
          -0.2756902226366831,
          -0.025616334821018154,
          0.6283945045092755,
          0.23701493620409667,
          0.0001118918613593136,
          0.09177848998385672,
          0.11684802776079323,
          0.29518428777614397,
          -0.5729334467807997,
          -0.41963277953335104,
          0.10873484025000577,
          0.4214147554081686
        ],
        [
          0.5555873581499322,
          0.2091567481276846,
          -0.33551641966762297,
          0.31571379354383655,
          -0.08376198914141877,
          0.4402172990874269,
          -0.27234087608512975,
          -0.501516412490556,
          0.03953605862273381,
          0.016554600402405247,
          -0.11238379771676732,
          0.21969098126755573,
          0.035009771851196185,
          0.18373114769318888,
          -0.1288172877080672,
          -0.15672556857860442
        ],
        [
          0.2129190014063386,
          -0.3650494000197251,
          -0.30718229011607195,
          -0.7176026392898454,
          -0.19904979733984432,
          0.21950106650544035,
          -0.23626378930888398,
          -0.12891096241654934,
          -0.17153836755346866,
          -0.07699831404763652,
          -0.11845937810471013,
          -0.2023785852076982,
          0.13432891573149844,
          0.011132157663839327,
          0.40114357046064153,
          -0.12330951447637957
        ],
        [
          -0.19553794174964131,
          0.37685873229688766,
          -0.023124487135519012,
          0.3969001531054851,
          -0.4003611517848447,
          -0.5113678818808128,
          0.30481167578129764,
          -0.14558947462536911,
          -0.30731524048214515,
          0.10840206818811728,
          -0.21852026198366786,
          0.09417015971734223,
          -0.04790643455029319,
          0.2811428808230868,
          0.19016406351433876,
          0.6257956858519093
        ],
        [
          -0.00831277362661359,
          -0.22316018329025025,
          -0.32568527184475426,
          0.3722188648899381,
          0.2424834214522418,
          -0.25360324116108685,
          -0.017252192950122498,
          -0.25413326176215656,
          -0.22924505580316681,
          0.2902455700309136,
          0.21019437182862546,
          -0.20863649758850625,
          -0.26554041183981353,
          -0.5034170130596912,
          -0.2577588418848461,
          0.17043248233747474
        ],
        [
          -0.09044537443621058,
          0.14704013877684988,
          0.1321312895893277,
          0.31240813250081645,
          0.14757315001412583,
          -0.13622124204548713,
          -0.16657295037330458,
          -0.3208014877007393,
          -0.2502758881295604,
          0.1387849380454337,
          -0.5417035152474097,
          0.10316785030362825,
          -0.0952565952656291,
          0.22973988656224476,
          -0.011712544629132286,
          -0.016735422957743176
        ],
        [
          0.13045345219038357,
          -0.23556805880671686,
          0.19661297803474895,
          -0.03468119497481389,
          -0.07901531102157917,
          0.02694188437796868,
          -0.42584224462225456,
          0.2826421495754211,
          -0.2821617779197749,
          0.26786062247075476,
          0.10672527975314723,
          0.0014056369944869165,
          0.07163425956428557,
          -0.13887886175628136,
          -0.29891320094950247,
          -0.06843954187686277
        ],
        [
          -0.36252314656183443,
          0.13040277479289275,
          -0.2891085038334552,
          -0.35463928774703496,
          -0.4845328476641642,
          0.46601612198401293,
          0.07862422142785319,
          0.09218952167212587,
          0.1863951094664224,
          -0.3678875475438129,
          -0.06115632289082092,
          0.10800910891368151,
          -0.09479479051074949,
          -0.1827768972876957,
          -0.3931908965323272,
          -0.24489172061622483
        ],
        [
          -0.516257361140418,
          -0.041812064785893416,
          0.42346682731244706,
          -0.4707960730811297,
          0.32957930447893613,
          -0.1722995195972116,
          -0.22205805093353764,
          0.09452860704601916,
          0.16498882158402037,
          -0.5200057270443793,
          -0.15424175052232486,
          -0.2587625864158788,
          -0.3697830949614508,
          0.16594540804721236,
          0.06027891291862431,
          -0.08685357761818649
        ],
        [
          -0.39557287222691934,
          -0.03664019006150222,
          0.25936562821515796,
          -0.06656199006450897,
          0.06839367898104301,
          -0.05644160278959828,
          -0.48852291608022674,
          0.19295486666383949,
          0.4249655430330167,
          -0.210443159650811,
          0.6073662122287014,
          -0.2924879548513442,
          0.1909289398776997,
          0.3143510128864592,
          0.5061828158983772,
          0.11441857078778224
        ],
        [
          0.02893763227075511,
          -0.4175846213384837,
          -0.20873639961552615,
          0.10354844368861614,
          -0.037122326936265694,
          0.2867178420138048,
          0.4032792644536113,
          -0.10188730686512817,
          0.18668385112011157,
          -0.12288988516004981,
          -0.13640895150274954,
          -0.06853077136809421,
          0.04714415949755053,
          0.06544678532525361,
          -0.20227948399476625,
          0.0063066778093597824
        ],
        [
          0.3028170833385338,
          0.007412849366493721,
          0.2674343398664568,
          -0.1307030200362492,
          0.14504733785595117,
          -0.14916770932926182,
          0.35064586710572393,
          0.023570732796922483,
          0.621237151099089,
          0.0003284715507236736,
          0.002245921072965212,
          0.24162050097302723,
          -0.37206055638991614,
          0.08983139554360993,
          -0.06525888010203013,
          -0.2686898717525191
        ],
        [
          0.13236880504793558,
          0.8346955791647062,
          0.19177939333716784,
          -0.05988792441477404,
          -0.029179211629565896,
          -0.18798974530505905,
          -0.029998329170885917,
          -0.4743079860773072,
          0.46541164146021263,
          -0.07058564538832736,
          0.1662839670751495,
          -0.09709245323036109,
          -0.44507732444343256,
          -0.3785872883054964,
          0.17173154091078938,
          -0.04549256315250316
        ],
        [
          -0.13426187120502459,
          -0.1804407638743737,
          0.32267178512327677,
          0.2970845748673528,
          -0.00044680393605607636,
          -0.07810275740523243,
          0.09750681587970454,
          -0.14259525825248415,
          0.1061597825793289,
          0.3517316517586017,
          -0.286908969032741,
          0.039265076066246796,
          -0.4039656451455214,
          -0.18743862138879122,
          0.39053214499029354,
          -0.1824879410818237
        ]
      ],
      "b1": [
        -0.2870036430733888,
        0.3610852942445813,
        -0.018402757395017864,
        -0.09127089797317837,
        0.025838927671311195,
        -0.03505095046893725,
        -0.04275566401942295,
        0.1267065403151518,
        0.12317886820729461,
        -0.17413081266569644,
        0.10172159873985866,
        -0.0574046968255104,
        -0.1158740550486434,
        -0.036934146899067634,
        0.031979479736494426,
        -0.08443571097742761
      ],
      "W2": [
        [
          -1.2323907160215446
        ],
        [
          0.926123300198622
        ],
        [
          0.2567511605953038
        ],
        [
          -0.881652590092359
        ],
        [
          -0.4069956770046845
        ],
        [
          -0.552043682281531
        ],
        [
          -0.6031333949347063
        ],
        [
          0.10866141777797404
        ],
        [
          -0.21220965246596002
        ],
        [
          0.5567185310662051
        ],
        [
          0.40034880973483444
        ],
        [
          -0.5409225501146478
        ],
        [
          -0.27525437055810936
        ],
        [
          0.4402548388272836
        ],
        [
          -0.12228438579441611
        ],
        [
          0.4427595567580583
        ]
      ],
      "b2": [
        0.5442763223186986
      ]
    },
    {
      "n_hidden": 32,
      "seed": 376,
      "epoch": 3250,
      "val_mae": 0.19548197308365464,
      "within_1": 1.0,
      "W1": [
        [
          0.332151614613013,
          -0.06828330577572374,
          -0.23685026260835712,
          0.5386037492698043,
          0.046242430156344085,
          0.3445861399502457,
          -0.26627094173279064,
          0.45598986970597627,
          0.04312267558726441,
          0.1635634884978893,
          0.06671786959398907,
          0.12443749243394214,
          0.1750773972529202,
          -0.08056559751994813,
          0.008630424938062896,
          -0.3906371555011436,
          0.28115750989858496,
          0.14248368286649532,
          -0.009876753879225661,
          0.1325597466894862,
          -0.027410117456065187,
          0.6023129651300503,
          -0.2479851389275982,
          0.1126525565048892,
          0.3079893741848664,
          0.15710607013561606,
          -0.13862434500288767,
          0.5256290079972793,
          -0.3725607140002929,
          -0.18482212217716457,
          -0.6085216189560426,
          0.18055770500104415
        ],
        [
          0.07172282347177353,
          0.18693264944797996,
          -0.22815712433516058,
          0.13539639596201075,
          -0.3932082126437537,
          -0.14223862595654385,
          0.12290193265616989,
          0.09616997598663754,
          -0.21704239220711496,
          0.0505622781922081,
          0.14764605157612015,
          0.060638367434914846,
          -0.12070153682475761,
          0.4387915878924593,
          -0.07123162477421324,
          -0.1541406219760207,
          0.0704748782734794,
          -0.05727265123883422,
          -0.3949178174936289,
          0.01721483937642634,
          0.03320622131156346,
          -0.11149760786666828,
          -0.017050435965362924,
          0.5264887020579453,
          0.30522577722109995,
          0.2887110109299936,
          0.3660225932602838,
          -0.04993170417678752,
          -0.3395212352983899,
          0.1666592998629412,
          -0.05459292967554541,
          -0.21522009765996414
        ],
        [
          -0.42770719549116104,
          0.09932454116213733,
          0.2249131606127781,
          0.16307149930682557,
          -0.0292671259989068,
          0.27979065109736256,
          -0.09266327031498524,
          -0.16182942232576888,
          -0.025684990781387126,
          -0.026179998176885686,
          0.3915780998280336,
          0.33660867874935735,
          -0.1603612790312862,
          -0.3744873702363761,
          -0.012538293951927708,
          -0.08442710122636984,
          0.11400736873649683,
          -0.05920486172722328,
          0.054677086191926204,
          -0.5310271592423541,
          -0.03716469716408909,
          -0.2798043383912638,
          0.22849628764907878,
          0.2204528653498768,
          0.018811064407648903,
          0.31367170060680805,
          0.1231112284321098,
          0.272049846162535,
          0.2715939707980144,
          -0.05484330470191943,
          -0.15206782167883579,
          0.09697660385287107
        ],
        [
          -0.03676708380287926,
          0.072661120329391,
          0.010834029769484645,
          0.2027217574327757,
          -0.1370105796183526,
          0.12144797096767251,
          0.005330000382200116,
          -0.15794055996656461,
          -0.29098886152648296,
          -0.0016632740352398563,
          0.09196411266577392,
          0.09052016680100453,
          -0.6121880485187294,
          -0.0034315238983306253,
          -0.031851608346159015,
          -0.12469535779765735,
          -0.35539498264749403,
          -0.3662714196415353,
          -0.1816973067692073,
          -0.18956404364393664,
          0.23308431932450327,
          -0.4440620173067007,
          0.2229565337025629,
          -0.3816734066208226,
          0.13023052650868328,
          0.14317570413660646,
          0.563604531698138,
          0.14283858203346836,
          0.12443559217337397,
          -0.07361597366606874,
          0.4764692540532104,
          0.11704687352162077
        ],
        [
          0.20641716361598622,
          0.08593166591139136,
          0.11752589015052974,
          -0.11285757653948422,
          -0.21981305398609927,
          0.47446828230352456,
          -0.3415943204389064,
          -0.28080791489800183,
          0.10290198586498404,
          0.30020496117381995,
          0.2904181515444406,
          -0.07684290689799907,
          -0.12776266781847107,
          -0.03157672840251886,
          -0.4919863586536589,
          0.1436573200619275,
          -0.2650713817270848,
          -0.49420233412788844,
          -0.5892475774083996,
          0.08300647663348112,
          -0.28107319377876977,
          -0.0662784035552406,
          -0.5310221199167614,
          -0.4386130242437382,
          -0.32877027044106616,
          -0.4007954198974121,
          0.23081574065348967,
          -0.1436622497149679,
          -0.06321719358960318,
          0.2433309870608484,
          -0.13451684686367757,
          -0.26623569684015524
        ],
        [
          0.18968691679830932,
          -0.661421304405503,
          0.2069379852936698,
          -0.023715824401583423,
          -0.07092728863919845,
          0.6428160956267405,
          0.07629791024410432,
          -0.14683374074648628,
          0.08566421568580712,
          -0.07661437768724416,
          0.057028226999471236,
          0.06990009133237883,
          0.17189581322518,
          -0.10750351066487554,
          0.061655237775089404,
          0.3640820343754259,
          0.054094534227629554,
          0.4381092606239126,
          0.38925590987938263,
          0.06255282190646157,
          -0.09824392158440431,
          -0.3645203444424924,
          -0.4844896703485918,
          0.029519399255890998,
          0.08197512740307468,
          -0.24243408742942243,
          0.33284599429666323,
          0.08193249833614707,
          -0.2674640544372476,
          0.16735406018798848,
          -0.017439723319210662,
          0.03973138531899574
        ],
        [
          0.03145202080000275,
          0.17229818329298502,
          -0.04352918748169843,
          0.28503940390483473,
          -0.632638267389344,
          0.054454945978902436,
          -0.011827452786061477,
          -0.3712365034755555,
          -0.42545342240170547,
          -0.2433428316045787,
          -0.05741098092828005,
          -0.5241459859379332,
          -0.010374616442481558,
          -0.334550440323711,
          0.007831055852778617,
          0.23701967935574186,
          -0.18037710684697203,
          -0.019410796865336245,
          0.09439882924730494,
          -0.07687493235928847,
          -0.5244940568620795,
          0.09622356948231746,
          0.28802480539875747,
          -0.07093106178661494,
          -0.0759788921369759,
          0.2090242525963062,
          -0.2846933704906599,
          -0.016927963179939172,
          0.1295612756589914,
          -0.02163798982554851,
          0.09189509295021236,
          -0.1004801999050425
        ],
        [
          -0.19242958633464588,
          0.3548441030780922,
          0.4480756770409985,
          0.11001813596046904,
          -0.15362977337701578,
          0.1338483889806866,
          -0.2241190838801627,
          0.03543625538227382,
          0.18397693919778862,
          -0.09695983183502331,
          0.24218302815563802,
          -0.3814181742844717,
          -0.18036138258294465,
          -0.13136771205373388,
          -0.13480897981428183,
          0.09474402648697407,
          -0.12858940772539632,
          -0.12353091579185932,
          0.24888530266290654,
          0.22258293965244066,
          0.20228325215510076,
          -0.08508382261817399,
          0.056417776127952436,
          -0.17705982059584388,
          -0.6085616332745121,
          -0.40604950871289114,
          -0.15352691689425801,
          0.14855781535006332,
          -0.07861455896013016,
          -0.42380303926687185,
          0.5431165518852018,
          -0.30792652062511
        ],
        [
          0.2512913425508659,
          0.3114173432279609,
          0.39135399701024315,
          -0.1475934205953635,
          0.2024824038263315,
          0.21468753106090488,
          -0.1666760173253487,
          0.23053147931849435,
          -0.20705899357423233,
          0.3765374140608667,
          -0.17981647902002443,
          -0.11670899867326345,
          0.07814591819982068,
          -0.44771649250139545,
          0.03875361854705096,
          -0.18774403215938779,
          0.3475839449408801,
          -0.12268912389554358,
          0.19183915859690676,
          -0.04430257214691333,
          0.1387793665038395,
          0.029893016513803997,
          0.1221169884267738,
          -0.39951921445521277,
          0.08115626295640263,
          -0.15616220928892657,
          0.09932638241446781,
          -0.4120892513816971,
          -0.3806245507600787,
          0.11056958641887042,
          0.40898111510513224,
          0.34462326690907474
        ],
        [
          0.20221850355201193,
          0.1128705027094323,
          0.3343263443017568,
          -0.46431652388205596,
          0.08442522409853787,
          0.20767364285165402,
          0.3568610577586661,
          0.18865388554382106,
          -0.040807253064108436,
          0.017152777682091443,
          -0.004084048605807034,
          -0.29336303158704535,
          0.04504570928559085,
          0.15260509872628333,
          -0.25404316259181914,
          -0.25118790146008824,
          -0.20525440842487547,
          0.19363430270731807,
          0.01030706228456409,
          -0.44734739826733577,
          0.016438229230769978,
          -0.36730923950253697,
          0.12861139606313363,
          -0.6104507056353188,
          -0.02987792629506905,
          -0.3547808878895327,
          0.14815265730788027,
          -0.2399552198026136,
          0.3842290811690503,
          0.10708432759713618,
          0.08006065614687718,
          -0.003110932565018749
        ],
        [
          -0.18206857259925438,
          0.22601294160132343,
          0.29142141873520067,
          -0.5992193499286462,
          0.20109249136356022,
          0.0003393830033406142,
          -0.27425280970089017,
          -0.33583448577685054,
          -0.130459469323312,
          -0.37514225758643005,
          0.08655474420609986,
          -0.03153889900919227,
          0.18166084742162683,
          -0.2073324205314115,
          -0.1025169545111226,
          -0.23989640447560243,
          0.5040062962127942,
          -0.11308537290940149,
          -0.056933846324442115,
          0.0592865366483175,
          -0.004293962946270065,
          0.13067580737971038,
          0.0912808175705464,
          0.2597179001617609,
          0.038757678087282976,
          0.11996809765880469,
          0.1646891892869006,
          -0.39997007774510446,
          0.1687735698197519,
          0.08867118323724785,
          0.21372663245296417,
          -0.4226242151837373
        ],
        [
          -0.07252030558513946,
          0.24446518269466594,
          -0.10592758678326214,
          0.09045068972459419,
          0.7738765252660939,
          -0.035388778744111844,
          -0.10159388625656086,
          0.21127802492714537,
          0.09727931864707975,
          -0.00571278482627988,
          -0.08758180581555905,
          -0.27567552989850685,
          0.6243726012747314,
          -0.11669341260850158,
          0.07143118372874921,
          0.1833673008357464,
          -0.4045315557850631,
          0.33415399237335114,
          0.0020048323311989257,
          0.08699093509103824,
          -0.4162215486187976,
          0.17113285450641502,
          -0.04810040489532181,
          -0.11475102472417818,
          -0.2001219267600533,
          -0.11278528877595331,
          0.6736163715305215,
          0.09307460504210828,
          0.23833723685196667,
          -0.0004983946313218805,
          0.02035356919886396,
          0.1275496396714556
        ],
        [
          -0.23759959401377756,
          0.049104704067063215,
          0.20134218729900463,
          0.2327154575964237,
          -0.4897910176837812,
          0.01819404387992624,
          -0.3095733631368448,
          -0.006653335360074223,
          0.41970282249749363,
          0.29793682760816764,
          -0.2788656736019872,
          0.22528175972935627,
          -0.1323266766318796,
          0.06702138864507799,
          0.05077078916639768,
          -0.07592737269498948,
          0.04147685174731501,
          -0.15663274318486492,
          -0.3262761921180798,
          -0.3508894160563019,
          -0.4690069042819547,
          0.538044129716803,
          0.6136538802933882,
          -0.1416002053306456,
          -0.1335711209907007,
          -0.2936434542220668,
          -0.12731783955806608,
          0.22045778568886795,
          -0.05499430390858664,
          0.18618550950899115,
          -0.036485945624246376,
          0.009985779428368013
        ],
        [
          0.04751353932851543,
          0.14435739851752882,
          0.3881064201725665,
          -0.3238222681098418,
          -0.055739462146179426,
          0.22810455863856738,
          0.4800323277731037,
          -0.24223738006245896,
          0.3621430473464789,
          -0.1798377606956909,
          -0.561793769687041,
          -0.14415474205624884,
          0.017888195355815654,
          -0.13074259683906148,
          -0.11201252185522952,
          -0.15561748810833093,
          0.020763490883287838,
          0.09521953370431475,
          -0.179561231302552,
          0.09582086866281607,
          -0.16132183886927634,
          0.20322927565618942,
          -0.08350896356963881,
          0.1281167517178623,
          -0.02027862525176392,
          -0.16445186084837687,
          -0.20584663507727582,
          -0.11874892327002073,
          -0.10141966849193375,
          -0.2491235305148099,
          -0.12285309072158095,
          0.3735362482878278
        ],
        [
          0.07708629679064437,
          0.33373064120540097,
          -0.039376348050718706,
          -0.007752667177248612,
          -0.016224270959105423,
          -0.2215080695034481,
          -0.2755076915193897,
          0.04331176638969283,
          0.12114958350052568,
          0.01063693304130619,
          -0.3204002149542973,
          0.31989608617083665,
          -0.25603525197611476,
          0.1532253036605508,
          0.06248274349298446,
          -0.3461432019861915,
          -0.17944744755037476,
          -0.3933803233166487,
          -0.23680553374203267,
          -0.016594277171134427,
          0.2829557525968464,
          -0.13611698555996726,
          0.3930974769208112,
          -0.17246216666934894,
          -0.05132591584662655,
          0.10293686811862587,
          -0.06666418684164632,
          -0.45071976804332803,
          -0.0151947003982954,
          -0.5057360021498605,
          0.17996791410120694,
          -0.5135491919765399
        ],
        [
          -0.19685960345959846,
          -0.3100167548856102,
          0.6193334297306464,
          0.02847261637765821,
          -0.1930970317663189,
          -0.04419068556967494,
          -0.081646398258899,
          -0.25621411988575776,
          -0.3873328608066252,
          0.49501309019162415,
          0.46856547832901874,
          0.3525608813372871,
          -0.026271761619183636,
          0.2091624125614042,
          -0.26862814312637767,
          0.2783195736820958,
          0.11008617579653136,
          -0.03231110804334797,
          -0.010705025963217962,
          0.08552214762074864,
          -0.23562814446317798,
          0.07500231512345945,
          0.15129539882925036,
          0.05448347355944285,
          0.24850257840394113,
          0.1660798999220897,
          -0.06276669235735823,
          0.28517705360705625,
          0.2723700227192628,
          -0.5271351775464311,
          -0.3635106138910367,
          0.0963793881147513
        ],
        [
          0.03492850959419366,
          0.4284734035437988,
          -0.6124331468736657,
          -0.6701115584446041,
          0.0033401050906013254,
          -0.23291507788688753,
          0.24689937401490614,
          -0.11091903623064116,
          -0.213714731192104,
          0.11988616135538585,
          -0.10349196686849291,
          0.2221747111162627,
          -0.24918359160831657,
          0.052589605646655456,
          0.7085084208733169,
          -0.043960676512517866,
          -0.2578293005737519,
          -0.22285689116677082,
          -0.23329703190309073,
          -0.03015837204455865,
          0.022575900797366526,
          0.06882720872868317,
          0.1970435948586438,
          0.2838734412742384,
          -0.6279902081692339,
          0.20501066993041325,
          -0.22044345621443184,
          0.07817184789542406,
          -0.2574402644988093,
          0.051662301770599384,
          0.26837302517037226,
          0.08501230986698217
        ],
        [
          0.27841497864055,
          -0.21642223425991824,
          -0.2086760937013259,
          0.1342827114674762,
          -0.7802216757620513,
          -0.025992331644456895,
          -0.3446317714975276,
          -0.25724846990361494,
          -0.0007302457407995762,
          0.18413191233924567,
          -0.002921301858899096,
          0.3313445715559899,
          -0.5419462186773722,
          0.061020343365610415,
          -0.5981252094638031,
          -0.06950926099640328,
          0.0830964587207745,
          0.5560880243423848,
          0.16141841573391136,
          -0.28023513703215275,
          -0.11799643519273725,
          -0.23422589753675727,
          -0.059631502844093215,
          -0.16139016909589118,
          0.16296178072418166,
          0.04986794344764635,
          -0.21499522606507984,
          -0.15501400658345513,
          0.3159111385443372,
          -0.06347856313154644,
          -0.5190841098542505,
          0.040603891945913864
        ],
        [
          0.03263417374605229,
          -0.07892556769197889,
          -0.09863412373304235,
          -0.20702677179790274,
          0.05074065441002584,
          -0.20060214885694586,
          0.08167939952998966,
          0.33791256603558567,
          0.24372482752405775,
          -0.6004564357818258,
          -0.2288078315599964,
          -0.02723949780479388,
          -0.2013355261469036,
          0.08760830840152627,
          -0.3478929503140943,
          -0.009036634471839647,
          -0.35837179484573206,
          0.13778686702436907,
          0.2985514403222967,
          0.07130098081963444,
          0.03243732872037115,
          0.03736658949353713,
          0.5269873881425161,
          -0.4633986657587364,
          -0.17514146265784272,
          0.1542571741191769,
          -0.21591738181120657,
          -0.011028805670452153,
          0.2887855450928705,
          -0.2806491640195126,
          0.10938270495588572,
          -0.171001921535388
        ],
        [
          0.36373476266400057,
          0.40550313976104346,
          -0.022576168870305648,
          -0.31519695557204036,
          -0.2917620061972602,
          0.48918784540997273,
          -0.4237487513067788,
          0.011194563990471867,
          0.36213345200758873,
          0.018941609063431012,
          0.15832623444477115,
          0.13543942668192097,
          -0.1977696548342538,
          0.373378097549146,
          0.4136390119023398,
          0.3090112891815999,
          -0.28372376462645416,
          0.14683979391922497,
          0.2079748369472745,
          0.02059311098125426,
          0.44182019176710985,
          -0.26611476451044236,
          -0.45410385342897774,
          0.3486531055489182,
          -0.2687276304783627,
          0.007727816765511596,
          -0.33470299136640486,
          0.005454744100711507,
          0.14339472469007905,
          -0.05463374306541181,
          0.7485552480311694,
          0.05589535113808267
        ],
        [
          0.15901303415897344,
          0.28494829280604256,
          -0.010211156624244776,
          0.020779317399063524,
          0.12063714669325894,
          -0.002291012585466812,
          -0.2769779589330121,
          0.3230699643327686,
          -0.5165720401575405,
          -0.028495564384337903,
          0.11544449908097064,
          -0.1226107443451491,
          -0.015344949595438622,
          -0.46948182484956175,
          -0.10879280571613409,
          -0.022609726047821556,
          -0.04150923972079448,
          -0.1603859370813225,
          0.2528973013974692,
          0.13621266064192764,
          -0.04106003167600805,
          0.017186553123881912,
          0.41225041372430365,
          0.016431814135420202,
          0.1954759066044178,
          0.13807586703618824,
          -0.17568862831351348,
          0.2177222911670166,
          -0.25483488216926165,
          0.027724750066401283,
          -0.29861063328255216,
          -0.011299793315621785
        ],
        [
          0.35269910492597334,
          0.7180559276836994,
          -0.17583184652722247,
          0.018757570388824772,
          -0.038377934540138714,
          -0.040713703723983884,
          -0.1254345142544029,
          -0.5238032336556611,
          0.2828781758922218,
          -0.17758175999717027,
          -0.08219780247995773,
          0.07159648595107405,
          0.1484124780744726,
          -0.47279485461827203,
          0.04660195487579669,
          -0.24531041389705596,
          0.08206064713176886,
          0.16809861040874483,
          0.10150654676872065,
          0.3225738010332851,
          -0.02322872987533015,
          0.11379817250852862,
          -0.1297217595033563,
          0.06716885120006023,
          -0.2605122708128578,
          -0.36008606803157633,
          0.06369882792573499,
          -0.19757484854726146,
          -0.24713876981159463,
          -0.18806026307619236,
          0.20667498151735159,
          0.29759067900048397
        ],
        [
          -0.20356384491139035,
          -0.45602265464189407,
          -0.34044280175893565,
          0.1734841057758343,
          0.07616391282016699,
          -0.17901014782614358,
          0.3576963498104763,
          -0.16101340524913066,
          -0.05982594062438017,
          0.4294028203746096,
          -0.3599845236773613,
          -0.7061661360076478,
          0.04678350672961394,
          0.4400259208269456,
          -0.40060765066533244,
          0.21860902203064322,
          0.43896278298356267,
          0.28458243077293366,
          -0.019568367803535987,
          0.4142439331509691,
          -0.10457878420271807,
          0.3390040235328377,
          0.38061175890852084,
          0.32957611122505037,
          0.546808764729012,
          0.31319229536466564,
          0.03389681437306423,
          -0.2547410856646854,
          -0.475145668472436,
          0.4199384408805048,
          -0.20775884417957846,
          0.6267966170670962
        ],
        [
          -0.6271323886763489,
          0.6183010079194527,
          -0.0685408392405575,
          0.14082872885634254,
          0.0508948895473874,
          -0.16166601177607426,
          0.012188426145520426,
          0.05693018905226121,
          0.16658172770429563,
          0.2159273422860217,
          -0.43216937676370387,
          0.09887175324166693,
          -0.2813890388669146,
          0.14072831268318983,
          -0.37140374159957545,
          0.03525087573863012,
          0.16356408307764692,
          0.25900293846562705,
          0.42475186554301486,
          -0.131266682125299,
          0.19760738695400135,
          -0.19020824466630962,
          0.28648137455947276,
          -0.032559872633757536,
          -0.24502866207214122,
          -0.10532849464904402,
          0.04234322772996746,
          -0.34940137615623285,
          0.16106560922451646,
          0.4204718340828638,
          -0.14755128496886552,
          0.34904472625945276
        ],
        [
          -0.12740501540904395,
          0.06850552059127256,
          0.1080228520820441,
          0.20363067214585487,
          0.16482563907417308,
          0.011399101613556582,
          -0.4141612474713296,
          0.16815079424441007,
          0.00541738574480205,
          -0.05399631898083724,
          -0.129524443011433,
          0.1292252889787068,
          0.11337652219057488,
          -0.08593402573929818,
          -0.49911069753576837,
          -0.33986013216259625,
          -0.08102795543765441,
          0.3824464757805817,
          0.21469376480734176,
          -0.23616253407023463,
          0.11357700148618603,
          -0.21398752338187188,
          0.42763201938643,
          0.26280143405072515,
          -0.19883118298408353,
          0.37820320547225583,
          -0.19464677396213792,
          0.087001528364261,
          0.01288227420106177,
          -0.09078127970752957,
          0.16912510039537343,
          -0.07427519565653129
        ],
        [
          -0.005551293098705471,
          0.1504151327542107,
          0.03509472300993631,
          -0.11286172477938647,
          0.10179018702347262,
          -0.31566040274421586,
          -0.2448274274631919,
          -0.170116409404056,
          -0.26151244437854904,
          0.4848167827378625,
          0.1489154648684716,
          0.2524556799696649,
          -0.22394882941871896,
          -0.14405458603684154,
          0.18200071289297653,
          0.038432011432273344,
          -0.10934997333237195,
          -0.08256819828464591,
          -0.0219405355574752,
          -0.03949073557056088,
          -0.23678280694699816,
          0.10167262104836541,
          0.18762991213998356,
          -0.015235380092662766,
          0.2903544691126726,
          -0.0635350670529465,
          -0.40625358440226067,
          0.38616309152093403,
          -0.15977086209958993,
          0.007015911767867325,
          -0.04767843265201029,
          0.28527388823344857
        ],
        [
          0.29866633299929085,
          0.24312075601787417,
          -0.1798058353354958,
          -0.3243798598865387,
          -0.0939401498442582,
          -0.1502911706334958,
          0.11483898309227075,
          0.01478479838454843,
          0.22256995510279037,
          0.3270627609667212,
          -0.10080635959124844,
          0.39031216140725206,
          0.049065334293056845,
          -0.4137837774301569,
          0.2408856199414685,
          -0.16527963948588775,
          -0.233263067446642,
          -0.2841161066431611,
          -0.21230054232136017,
          0.11721489258105791,
          0.2689778958446296,
          0.22993459361258572,
          -0.411018633087707,
          -0.10622526703094728,
          -0.35255453167374257,
          -0.23304135924118563,
          -0.15811095382714357,
          -0.1415637384473896,
          -0.3526569673890389,
          -0.15353438518747023,
          0.0438790468414208,
          0.1150056311724701
        ],
        [
          -0.2679135100086882,
          0.46292825736810145,
          0.3271125893365299,
          0.21956708526065194,
          0.42541602551971797,
          0.34131670839553185,
          -0.32713947664879334,
          0.0023491287049115864,
          0.3068513977149843,
          -0.15671734830470943,
          0.24740932611699942,
          0.31664077258941353,
          0.32036367388096665,
          -0.10269196910493772,
          0.06549419199357669,
          -0.6385630947355152,
          0.32901438298462976,
          0.08126841890891413,
          -0.3211274611162889,
          0.20783826519021978,
          -0.2149983138006367,
          -0.14650223861358724,
          -0.33069458376423794,
          -0.022987623649835393,
          0.4479072288946211,
          -0.10001322602017851,
          0.2988503868018652,
          -0.13046686013172476,
          0.177925950883197,
          0.21720786621089674,
          0.12918717075393926,
          0.002357933835318233
        ],
        [
          -0.001534437586433154,
          0.04938325845489862,
          0.30654709965046095,
          -0.034592926553946975,
          -0.3264472072807774,
          -0.19719781171061138,
          0.19583029239263838,
          0.06078577319190534,
          -0.021941564271863948,
          -0.21528030369998705,
          0.2679508293140135,
          -0.10500960225777697,
          -0.06814621862781509,
          -0.28431070392943564,
          0.47575305846672045,
          0.24927093884797982,
          0.05350413552532435,
          -0.0053840965164192916,
          0.017294002974398544,
          -0.24128570630354393,
          -0.4832384147974627,
          -0.11461311917955,
          -0.12248568092237477,
          -0.2882968095997581,
          0.09536763378234149,
          0.0991941385630971,
          0.11324621636106941,
          0.4898160728242493,
          -0.38785949019316757,
          0.500730212103106,
          0.006819549018223885,
          -0.2924693872062826
        ]
      ],
      "b1": [
        0.16636211416413493,
        -0.0026215098121739567,
        0.024259881533529166,
        0.15024320251922432,
        0.26381932378809403,
        -0.04502023831051058,
        -0.05270662657905428,
        0.24886042227183136,
        -0.04839618229547328,
        0.1676966796638355,
        -0.03720640939409038,
        -0.030756164891497746,
        -0.039531422259207534,
        0.03418515079258449,
        -0.44296375060060605,
        -0.035609088808732765,
        0.1541900681708279,
        0.13647161754640236,
        -0.12181064948565178,
        -0.024747851559725857,
        0.03845432755714988,
        0.015966267590676368,
        -0.047769197627544044,
        -0.11053718616910262,
        -0.07065002534386462,
        -0.104145142966438,
        -0.042875278166817916,
        -0.0359562739946368,
        0.009689489677006648,
        0.17274256214007158,
        0.04957857055192346,
        0.10527375132728896
      ],
      "W2": [
        [
          -0.46273383532346024
        ],
        [
          0.20962509297859386
        ],
        [
          -0.24102584949751013
        ],
        [
          0.6288724260116122
        ],
        [
          0.5468737958699896
        ],
        [
          0.5008886233527741
        ],
        [
          -0.10524969647320588
        ],
        [
          0.33598933329387776
        ],
        [
          0.37451335411048065
        ],
        [
          -0.6342640188848574
        ],
        [
          -0.24746531314877707
        ],
        [
          -0.48489514357275476
        ],
        [
          -0.4583204357580484
        ],
        [
          -0.08699997703678507
        ],
        [
          -0.6805842237369975
        ],
        [
          -0.4767629760375896
        ],
        [
          0.06644388858422699
        ],
        [
          0.2243376504913496
        ],
        [
          -0.265020588520195
        ],
        [
          0.40573806940888785
        ],
        [
          0.287161787901064
        ],
        [
          -0.019073745792379592
        ],
        [
          -0.03582130990357452
        ],
        [
          0.016245794860889274
        ],
        [
          -0.05345869053271556
        ],
        [
          -0.3327581033891959
        ],
        [
          -0.24851106511726878
        ],
        [
          -0.5030906370931809
        ],
        [
          0.0667446401256529
        ],
        [
          0.7265056913848665
        ],
        [
          0.053620123338992756
        ],
        [
          -0.45948106956353163
        ]
      ],
      "b2": [
        0.2501233928068378
      ]
    },
    {
      "n_hidden": 16,
      "seed": 991,
      "epoch": 1950,
      "val_mae": 0.19565757967463912,
      "within_1": 1.0,
      "W1": [
        [
          -0.1629161804530344,
          -0.07661511853221838,
          0.00853970602389244,
          0.14396595926770944,
          -0.08585739287503544,
          0.22117345408523673,
          -0.07564705698417795,
          0.04185575697236473,
          0.22733520860918838,
          -0.030414023688619996,
          -0.004870327582409415,
          0.309529790203037,
          -0.3091922263919336,
          -0.4046115381975039,
          -0.26885515500996504,
          -0.1925408249723569
        ],
        [
          -0.20075656896802624,
          0.20291659197550305,
          0.2818707486582516,
          -0.33911584900539815,
          0.11195184950542926,
          0.1286763871915771,
          -0.08354080082776821,
          -0.3012087594611039,
          0.15465031873049756,
          -0.2919681066452415,
          -0.22991864458335917,
          -0.040058035889192496,
          0.027461366910311272,
          -0.033812137618068276,
          -0.0664363226027303,
          -0.07195006610683403
        ],
        [
          -0.01684840300062212,
          -0.308580932692714,
          0.10889248419853162,
          -0.20695137641374722,
          -0.03422539883435274,
          -0.04869165159191755,
          -0.1835737708621169,
          -0.18899588882599916,
          0.08135845560801835,
          0.00047397529399724014,
          0.4124500968823149,
          0.06126486472250719,
          0.22780225704967472,
          -0.40294816645285586,
          -0.37785587663636977,
          -0.10295141383278737
        ],
        [
          0.05864451549030393,
          0.19261298573453478,
          -0.0019244300140175317,
          -0.1700541471023371,
          -0.0527216490664426,
          -0.08963426892618036,
          0.12181463629979622,
          0.44385305692355315,
          0.22651758152120954,
          -0.10967045170220312,
          0.027887077667114988,
          0.30490930555352436,
          0.02237517649715107,
          0.217309348559294,
          -0.10653574593821993,
          -0.0040222124570354345
        ],
        [
          0.31840170783908156,
          -0.20664335771391065,
          -0.08036107882597625,
          -0.36622314345118967,
          0.360401091680725,
          0.11769608198189224,
          -0.25689151906237523,
          0.3209584854551847,
          -0.30637218524703463,
          0.3362455885696991,
          0.45284909772918264,
          -0.3056597093723135,
          -0.32471535264845697,
          0.13898638245394077,
          -0.19959210794674753,
          -0.038506282033845624
        ],
        [
          0.013780085888250148,
          0.20135044272015035,
          0.0860867518382085,
          0.060450183919369356,
          -0.35065444042250604,
          0.12752298246622013,
          0.5659220903466213,
          -0.11565887055761073,
          0.12520809309153536,
          0.4421979692922155,
          0.1605114333100727,
          -0.174727425312043,
          0.3873325972669165,
          0.19556908480680668,
          -0.14753188573173112,
          -0.48150428826759184
        ],
        [
          -0.2018495609079656,
          -0.27027102401345693,
          -0.25241763884282514,
          0.24516180594597875,
          0.4629953130613735,
          -0.14183296819611355,
          0.08465762826001727,
          -0.13514177493799984,
          -0.11448538703508221,
          0.16226804129532257,
          0.04827172871114866,
          -0.26059344030473364,
          -0.17894140940016784,
          -0.03862639598652072,
          -0.19446272812202448,
          -0.15157251115830636
        ],
        [
          0.13373322504935364,
          0.288773676649474,
          -0.18310829937547662,
          -0.0315233550677691,
          -0.3484684062689561,
          0.21368530559950769,
          -0.17342820469791295,
          -0.1467998136306685,
          0.2606154498396156,
          -0.18179867367346528,
          0.07349807525375614,
          -0.3886352380395768,
          -0.6562653852340616,
          -0.07568877981849302,
          0.05625920108373053,
          0.04729195785429867
        ],
        [
          0.14663091634432887,
          0.06852495336038926,
          -0.33367650166337437,
          -0.2655131072558514,
          -0.3305175837901374,
          -0.22545190286827663,
          0.30076858908973353,
          0.4579214764513328,
          -0.0773773737166756,
          0.10783918226835541,
          0.3510125348915167,
          0.4211502492593913,
          -0.12336313760110391,
          0.2821339728230613,
          -0.61191918135603,
          -0.08336322500381715
        ],
        [
          0.01709901066779575,
          -0.41796300595504376,
          -0.3261163580166705,
          -0.15723501561349812,
          0.19860317595861676,
          -0.30241965871426607,
          0.11573783763801446,
          0.03405608916050499,
          0.2028822116075818,
          -0.48188191980359874,
          0.057521381053589914,
          0.40401758092535944,
          0.13931763747595244,
          -0.5797714871230194,
          -0.3860778138409815,
          -0.09821945921308992
        ],
        [
          0.11280542860863513,
          -0.019789274975163876,
          -0.33218201343815235,
          0.465941361342845,
          -0.10737914845531513,
          -0.18351169693660654,
          0.3481518471168197,
          0.06633554128223708,
          -0.11890109163368251,
          0.18031703479477698,
          -0.4343871032035931,
          -0.16780842979436705,
          -0.18352480259986093,
          -0.2698753130720792,
          0.45349609949265235,
          0.09544445113572488
        ],
        [
          0.04677283101772374,
          0.041689494810276014,
          0.25979419497386447,
          -0.13119148576266018,
          0.009914524876303694,
          0.0484685593240389,
          -0.45569367299695457,
          0.07249634349815944,
          0.3302810050075447,
          -0.22171764240947495,
          -0.05755588385056339,
          -0.3048455007904216,
          0.08254888201236035,
          -0.10645427279622803,
          0.2588386417101035,
          0.19702800230204667
        ],
        [
          0.038979148301567235,
          -0.04575738792715586,
          0.10194582984206796,
          0.037936935194023906,
          -0.23619784629959087,
          0.14560664301352763,
          0.2936204474557194,
          0.367945037425365,
          0.026888594845616245,
          0.3535336241052054,
          -0.1255342864432746,
          0.0038358911132431736,
          0.0019015015388456106,
          0.3067228600801811,
          0.4120622299653538,
          -0.24628221357846936
        ],
        [
          0.6079687044920918,
          0.1897137003753409,
          0.22650965754233668,
          -0.08633636997259753,
          0.126713994313152,
          0.1293974463357855,
          -0.13022519437703736,
          -0.02470945619880529,
          0.015049620521564628,
          0.3403935246460601,
          0.06494925119856383,
          0.30508629731423265,
          -0.061384951534416476,
          0.0941253630489607,
          0.32942634906954704,
          -0.07442992589029514
        ],
        [
          -0.21832565005328322,
          -0.2853027045474027,
          0.19563806621016452,
          -0.4426814489592585,
          -0.13164418746106676,
          -0.37172733884879605,
          0.24124864600610696,
          -0.1558479988497699,
          0.08336797372153762,
          0.40447114285835534,
          -0.13995687612802846,
          0.20165691653491827,
          0.015613991505963324,
          0.23483621097564109,
          -0.25658102570439967,
          -0.034544147097057325
        ],
        [
          -0.5623883851617771,
          -0.20343356376230065,
          0.2971124760078184,
          0.010704382180310446,
          0.3283508230370819,
          -0.17126969779354,
          0.022209851440857662,
          0.10694964446426786,
          0.3518212196374612,
          0.04068371929159171,
          -0.35542583357792146,
          0.39748233139292066,
          0.6063623311043236,
          -0.07028694120273579,
          -0.186531492002239,
          -0.522623895090173
        ],
        [
          0.28958458826435307,
          0.18072629470623683,
          -0.005548556442733315,
          -0.060066191187634496,
          0.11706131545985034,
          -0.2492844311625771,
          0.11419860134613938,
          -0.025500493330026734,
          -0.0023614167388411045,
          -0.036010259986449335,
          0.08543966455781025,
          -0.14382654285669952,
          0.4939989137469709,
          -0.07362885029719417,
          0.20886594907793482,
          -0.28601943074172576
        ],
        [
          -0.12754694392723878,
          0.002748983839546455,
          0.09712029931746181,
          -0.5338484560958366,
          0.010948189182308454,
          0.3913757781743339,
          0.09374728818540924,
          0.4504185468082099,
          0.2511179382067292,
          -0.330807646553144,
          -0.020706482919216073,
          0.22978175955765776,
          0.14883743374979813,
          -0.30498101012410855,
          0.46663024880667825,
          -0.4951696730253694
        ],
        [
          -0.11914847231142418,
          -0.15416361346616878,
          0.044403897348675565,
          0.17173632369327663,
          0.11656157097719567,
          0.09783971925407971,
          -0.15240941213480202,
          -0.08636808356448447,
          -0.0019418894047240948,
          0.1480648019909985,
          -0.33264884447004034,
          0.35560206566988517,
          0.048889414899358045,
          -0.05250078980294827,
          0.07160362591446919,
          -0.15529386309107732
        ],
        [
          0.057715910240608626,
          -0.0494060231929659,
          0.33094506197443874,
          0.1350227875940027,
          0.21844216571353675,
          -0.01955441322274711,
          -0.12423869993287164,
          -0.7449250175893745,
          -0.2836390592051714,
          -0.25319807237191255,
          0.46380011403834326,
          -0.3121044364897664,
          0.5929032528435312,
          -0.4537570127116553,
          0.1469232676834929,
          0.36384826552478483
        ],
        [
          -0.3259719497995097,
          0.19791415279509394,
          -0.05291038573826396,
          -0.07868313475837954,
          0.4017081175453008,
          -0.2445701408372786,
          -0.20403557162977096,
          -0.4836452165437519,
          -0.271909265315657,
          -0.18548333333563247,
          -0.2750077492260733,
          -0.05225553467378491,
          -0.08017447473030369,
          -0.07476972406107525,
          -0.09845843828872555,
          0.2778650719499887
        ],
        [
          0.10406432509414,
          0.14093606685337134,
          0.27633943699476726,
          -7.734034499928968e-05,
          0.1622347322849704,
          0.34713306433578356,
          -0.24815593130361094,
          -0.2533029115395109,
          -0.13791509783135034,
          0.03667660789232758,
          -0.23505667022251747,
          0.12543994835338065,
          -0.04298709473391435,
          -0.09553237940301304,
          -0.21125181018253894,
          -0.04506087111509104
        ],
        [
          -0.17644597380156968,
          0.22847085973045392,
          -0.2538552928171778,
          -0.11232684486817332,
          -0.25804833002442634,
          0.09274528988505668,
          -0.18429522297785245,
          -0.2623474865358275,
          -0.4454252860928065,
          -0.0830110860408773,
          -0.2624349871185246,
          0.03177340527780879,
          -0.5291025428996954,
          -0.06323481211256177,
          0.23507744144822565,
          -0.13780177945855143
        ],
        [
          -0.6361932634247488,
          -0.3735828840537811,
          -0.5196905593146245,
          -0.437092444258992,
          -0.2924026797428909,
          0.2509117615102298,
          0.0691586820515397,
          0.2893914110394369,
          0.3226130103623326,
          -0.061035530238591915,
          -0.16591118507571906,
          0.47406686853082325,
          -0.7874940753111997,
          -0.27858219100455067,
          0.05578887779924599,
          -0.053118593292817554
        ],
        [
          0.35271123281858713,
          0.3405580145094524,
          0.05938360307214002,
          -0.08621684985442138,
          -0.0803618985146398,
          -0.07931671309317291,
          -0.16840059269020083,
          0.1612179443089677,
          -0.2182126492403705,
          -0.06882983513384251,
          -0.16744092712293407,
          -0.36202135773140004,
          -0.29066224227920057,
          0.3541668307238307,
          -0.22932246498723646,
          0.12426316955991173
        ],
        [
          0.02214439036659997,
          0.3007491006004911,
          -0.0031301742979135657,
          0.22987848367894062,
          -0.26798536337954165,
          -0.43457769763788767,
          0.31800827811770327,
          -0.002646110801420905,
          0.26205612702580994,
          -0.06259255007715449,
          -0.02118365932295607,
          0.12036440778336067,
          0.044435457357874006,
          -0.007064963912001756,
          -0.3760541215805031,
          -0.49443634598780317
        ],
        [
          0.06613884110148927,
          0.3946015025960811,
          0.34921173554749974,
          -0.16760237549621668,
          0.010770062766284465,
          -0.545100701211678,
          -0.10784640801000522,
          0.06532312744957007,
          -0.3394650231436723,
          -0.03882260339751012,
          -0.1251740444521841,
          -0.06928380251271103,
          0.30570141855224575,
          -0.6813271892432483,
          0.28645619513853365,
          0.4261796359046263
        ],
        [
          0.22243452727621785,
          0.035417662341619645,
          0.06261137877034455,
          -0.16831695542628203,
          0.0673932177342529,
          0.8375231335781036,
          -0.16271929327275725,
          0.08196049845672557,
          -0.2388635918741098,
          -0.49266538789832154,
          -0.36404984606897844,
          -0.06379731298574784,
          0.4566914945908737,
          -0.1867195738688466,
          0.03872196129705551,
          0.7136741624450499
        ],
        [
          -0.06069480275349368,
          0.4526291733688685,
          0.1970731702142467,
          -0.3295013336910058,
          -0.31717186017591786,
          0.06824989785961885,
          0.23983407782287794,
          0.15159390121957012,
          0.27205514647595913,
          -0.27360728487288977,
          0.17148563267066846,
          0.08005056958585421,
          0.0774182570919997,
          -0.13907759964976574,
          0.304762350771028,
          -0.005009031994196948
        ]
      ],
      "b1": [
        -0.03330032537863126,
        -0.02366353457956336,
        0.13663724624577564,
        -0.07174433260662398,
        0.38855502526443425,
        0.04759975358755928,
        0.0974211481150864,
        0.004714905439216164,
        -0.04235293358894483,
        0.009777993717942569,
        0.009790632642288128,
        -0.07860744274363209,
        -0.2641989088812248,
        0.1378128805247061,
        -0.06523905222246032,
        0.6481740447940163
      ],
      "W2": [
        [
          0.10455208583231389
        ],
        [
          0.05367170824016581
        ],
        [
          -0.39131062260019006
        ],
        [
          -0.6078672918024243
        ],
        [
          -0.5007561518292936
        ],
        [
          0.46758190983529924
        ],
        [
          0.40584112057017013
        ],
        [
          -0.027983944130855944
        ],
        [
          0.16431718919709862
        ],
        [
          0.4436938883986598
        ],
        [
          -0.3272163856844811
        ],
        [
          -0.39584520612686214
        ],
        [
          -1.0466113552650589
        ],
        [
          -0.3588801109173705
        ],
        [
          0.016479768498711
        ],
        [
          0.8168558158108818
        ]
      ],
      "b2": [
        0.38733697667021755
      ]
    },
    {
      "n_hidden": 64,
      "seed": 1606,
      "epoch": 400,
      "val_mae": 0.19737174730306042,
      "within_1": 1.0,
      "W1": [
        [
          -0.02982428085904672,
          0.09621425490289348,
          0.0980923407891423,
          0.01614631887722707,
          -0.036133247096204725,
          0.06511729945186552,
          -0.2498521820909518,
          0.48232454931273183,
          -0.44932091256487855,
          -0.18157975656586425,
          -0.2654155051043557,
          0.3297511056341643,
          -0.07379793033127066,
          0.34614771596817095,
          -0.23517285825522544,
          -0.046628361086197154,
          -0.1896221355761849,
          0.5097534295932727,
          -0.1334073868487109,
          -0.1722987489304451,
          -0.07887433042185805,
          -0.010376693005032425,
          0.13249169709537456,
          0.15041712154360176,
          0.18355807871195473,
          0.25296642612359327,
          0.1701397349393974,
          -0.5205302791639166,
          -0.19375863087915113,
          -0.1594449112312124,
          0.1876552401166361,
          -0.005667285412883158,
          0.29360240931114484,
          -0.5204937828134774,
          -0.25106100407059845,
          0.06568889564982484,
          0.28114938256168426,
          -0.37698871927850436,
          -0.07504989268142805,
          -0.14935527928842682,
          0.1729178049222234,
          0.793912122474878,
          0.33853783516029906,
          -0.4488498201704571,
          0.40566732047716525,
          0.1484793687026768,
          -0.19711073112328167,
          0.11164415855472855,
          -0.5407179697749067,
          -0.14328053428685805,
          0.02998948271780556,
          0.31127327793451426,
          0.08513795117302043,
          -0.03130498557084103,
          -0.16894459005338794,
          -0.2208730116317331,
          -0.20201978671537732,
          -0.27529506569242956,
          -0.5179512602196511,
          -0.3615206602021769,
          0.14105659330079465,
          -0.15793760669505746,
          -0.011092964452038175,
          0.15600324001214722
        ],
        [
          0.3352872099974221,
          0.74267515730655,
          0.24515936404270786,
          -0.42354551930501094,
          0.13525630624597296,
          0.044508315052403706,
          -0.06659969056648743,
          0.08009729325950021,
          0.1936746185723063,
          -0.5410446460944884,
          0.1553593242644557,
          0.08984277661432748,
          -0.15464726851098634,
          -0.011356176440998135,
          0.07954006831015349,
          -0.0027720827507946547,
          -0.2654409898872086,
          0.21778261497456977,
          -0.029025521010210695,
          0.10805422808538612,
          -0.36613873962946564,
          0.05048635290653388,
          -0.00023496302562084156,
          0.44427164521627677,
          0.0021927855199008433,
          0.4497793623759514,
          0.026725227358257164,
          -0.4582914667410578,
          0.2927272020592625,
          0.2598916545596586,
          -0.35630934074456344,
          0.6104923425297696,
          0.296711166197428,
          0.2525554198499978,
          -0.19625965311835236,
          -0.04193687952069325,
          -0.4064600635230668,
          -0.09291511890018045,
          -0.3034221486930903,
          0.4109450121717721,
          -0.11731507033211157,
          0.46014633694433754,
          -0.03916934918954928,
          -0.2797631010691134,
          0.16648564023714071,
          -0.3773630220636434,
          -0.1935337373879362,
          0.11668139024545177,
          -0.2461386623455717,
          -0.06686156364320375,
          -0.37006047223211,
          0.04941460495262844,
          0.3266410116886894,
          -0.09506171418587041,
          0.07884684566263557,
          0.31153898124671764,
          0.2634719453708881,
          0.1654513391797781,
          0.18571428033341508,
          -0.0026746215969569048,
          -0.3760735983974448,
          0.08252470135499301,
          0.05877547477408913,
          -0.08592581980168854
        ],
        [
          0.22922632233058216,
          0.09752568266641348,
          -0.014051777509183277,
          -0.202925782367579,
          -0.09618878503623338,
          -0.03394271185421963,
          0.2451018649570605,
          0.19171940768738596,
          0.44875006244430865,
          -0.09678360330184622,
          0.3194503854525247,
          -0.2953658688745277,
          0.08065707027732277,
          -0.09127530527915649,
          -0.05239987362860182,
          0.4612684165241968,
          0.08766855386157404,
          -0.5062981082553301,
          0.11945290694666776,
          -0.03276447994294546,
          0.18693243045842922,
          0.0045030909637204354,
          0.04479934852033597,
          0.4088635287921616,
          -0.01256214199327499,
          -0.20855116105820315,
          0.2711590631892917,
          0.4011100848289094,
          -0.24662518239654416,
          0.11247818465796305,
          0.3006521448894404,
          -0.3035054570874204,
          0.19525945726893754,
          0.07946146845939202,
          0.2803059882332065,
          -0.24646472610996745,
          -0.30744151493956723,
          0.08976557454055023,
          0.19904282261621645,
          0.4112327449091115,
          0.2535497497612409,
          0.13228887137012327,
          -0.1044839491196289,
          0.19505642051679548,
          0.00997687364914354,
          -0.004321782652233014,
          0.20213953392754383,
          0.10951004993187113,
          0.21061766934660975,
          -0.29452270327476665,
          0.056850843053371534,
          -0.22991226481186686,
          -0.37515120742097163,
          0.28182852782226386,
          0.3920185352019412,
          0.3991051802771172,
          0.006266784528980701,
          0.05279119792480869,
          -0.28389855923191243,
          0.22874412519546244,
          0.28114992045841175,
          0.22060386400294102,
          0.08293213982133381,
          -0.13071270593856749
        ],
        [
          -0.34138847877853484,
          0.08145761087990078,
          -0.31554852533861166,
          -0.07397053969985631,
          -0.6168683408990402,
          -0.19549357728252545,
          0.3393025046107198,
          -0.11734266776040883,
          0.05079902985748216,
          0.10895170109174308,
          0.09424873412393638,
          -0.06946267085108511,
          0.1197940996525611,
          -0.1560309970582867,
          -0.28886167193855794,
          0.37052168379820355,
          -0.06545112395501183,
          0.021094706049736667,
          0.16001347653334602,
          -0.13070902636190146,
          0.1816119930005725,
          0.021892923247070043,
          0.1543018816201486,
          0.4930615063209435,
          -0.008873609087646365,
          0.5076764560491352,
          -0.7706986784292309,
          -0.07718156442966544,
          -0.09221964654300013,
          0.11680052208155162,
          -0.3356644334618417,
          -0.15111994518551183,
          -0.17475642269452446,
          -0.20748573129221873,
          0.2829293460081059,
          -0.21199652609722378,
          -0.3408583441454219,
          -0.2951570443526691,
          0.11324323400423532,
          0.24897935521621262,
          -0.12322280961588311,
          0.3457379360809814,
          0.4815112560424675,
          0.39861200621292897,
          0.34713012988676184,
          -0.11253837268105951,
          -0.0537555722969419,
          -0.29826363327925015,
          0.027091017701491735,
          0.12591855275321684,
          0.13074432619291199,
          0.46022429846620677,
          -0.01944608026555228,
          -0.2138233504004857,
          -0.3092143826536033,
          0.02828229407908496,
          0.22055786133894095,
          0.3243041227235747,
          0.10150975341241726,
          0.4641911159944079,
          -0.6505773704033991,
          0.19347291279408904,
          -0.3169105978602997,
          0.013988571699594669
        ],
        [
          -0.008655912953665471,
          -0.06623944131352268,
          0.1786876962418452,
          0.314478483615302,
          0.31319555800333465,
          0.28514665380161075,
          0.13246660716279413,
          0.03821253537450745,
          -0.1768785099167546,
          -0.2627185391894971,
          -0.3764794425706346,
          0.0813589585373171,
          0.03938157859523734,
          -0.0965391752453661,
          -0.28783817735543404,
          0.030605422929121315,
          0.050181681277369355,
          0.28054000197783474,
          0.3462423565051867,
          0.2385588886367007,
          -0.030761598524309118,
          -0.21557712377084928,
          -0.14003164638210555,
          -0.07460848949320675,
          -0.20566297089690302,
          -0.11022593616322875,
          -0.09939342520139234,
          -0.44345560972670495,
          0.035594880396664016,
          0.06437716266707456,
          -0.07630721945055881,
          0.33093326241643245,
          -0.046028693582152634,
          -0.10245468957861739,
          0.21051703378617637,
          0.20477983709161832,
          -0.1508405774514763,
          -0.057957095830929874,
          0.2572986621877349,
          0.0020016299894262297,
          -0.37431208263788857,
          -0.3573515340162651,
          -0.19758134629849877,
          -0.0012513647203636028,
          0.10668818549723172,
          0.06725989182485331,
          -0.32255192884386835,
          0.2025510537776273,
          -0.14897786035368052,
          -0.15597021545445733,
          0.13307109684975618,
          0.3496489326676864,
          -0.07380039170353354,
          -0.013159768566111119,
          0.02730280995313793,
          -0.4903844042635954,
          -0.11346670287093621,
          0.02422290041858746,
          -0.6616143449239229,
          0.2983690751404204,
          -0.16561589217003334,
          -0.1374423023663923,
          -0.36138727100209533,
          -0.018750098319199573
        ],
        [
          -0.06469319491101584,
          -0.101193913593773,
          0.056487917842253405,
          0.1630132033259433,
          -0.07042858815463185,
          -0.2758695371314917,
          -0.2075469462380491,
          0.31859958599945554,
          0.1415792677562655,
          0.43740760833579806,
          -0.2853864796003042,
          -0.3192156259970631,
          -0.355981136916247,
          -0.1629811411060143,
          -0.14868970920069674,
          -0.4852793745296051,
          0.1032846154244089,
          -0.20917387482556699,
          -0.029062234605022472,
          0.14127785340247742,
          0.03614753846521092,
          0.1863032964680594,
          0.38320508053763,
          0.009092660459931496,
          -0.23344418669918648,
          -0.4619428362268875,
          0.05794451535345994,
          0.4993029892909969,
          -0.2894646660314689,
          0.12567525868404011,
          0.6200648384983086,
          -0.07154482263700307,
          0.1782849210278367,
          -0.45095245971680037,
          0.10856327804853294,
          0.05233357517006998,
          0.022062264188711784,
          0.12744260704130198,
          0.08315374459799021,
          0.11943724344356357,
          -0.3823427405485838,
          -0.4349611451332476,
          0.08100232904237745,
          0.11924311819884355,
          -0.05944322271639567,
          0.049251024945680136,
          0.14002486188837876,
          0.38511863029140503,
          0.39821020895711934,
          -0.10835132372972134,
          0.22126039053399746,
          -3.5274812627752607e-05,
          0.41096182661025416,
          -0.3755928472475089,
          -0.20121279921177426,
          -0.12126496593554331,
          -0.14915699482209419,
          0.28368378018087603,
          -0.14796067590952186,
          0.21951457014960937,
          -0.3380712345924272,
          0.25451766208887033,
          0.4169960536938786,
          0.34404079472959903
        ],
        [
          -0.42648688231943205,
          -0.1962160358515975,
          -0.10462211277291682,
          0.3301986505691575,
          0.27393496235786413,
          0.2121917811526506,
          -0.1396391188866429,
          -0.30810302170816617,
          0.08478098189528152,
          -0.24878057383416544,
          -0.06815294940812863,
          -0.030531594582717158,
          0.2889513121284228,
          0.1604752887621991,
          0.5232667867863273,
          -0.0033528980562753446,
          -0.4071108474307294,
          -0.07253625202168855,
          -0.22906931559644186,
          0.07142437814666121,
          -0.2514887469910609,
          0.17453252992739224,
          0.016483541493208836,
          0.12156134918656795,
          0.2690167866593288,
          -0.07100322386545295,
          -0.593194296817133,
          -0.5771672438584989,
          -0.14634802488336554,
          0.468361593010448,
          -0.12099597483376204,
          0.17359393235190904,
          0.09215582510564459,
          -0.15962403521006946,
          0.03033825479024166,
          -0.09769895886975292,
          0.2703433726533727,
          0.05100211070662075,
          -0.02052965024510058,
          -0.5385130063044595,
          -0.0654689671323475,
          0.1963092119421404,
          0.40230370682475786,
          -0.07539263293027729,
          0.07969616764637828,
          0.32080171260662,
          0.08770338562046595,
          0.21032854322338196,
          -0.06734657034835706,
          0.10284219071678201,
          0.03489495355695764,
          -0.03713499730517238,
          -0.022585644172021253,
          0.11164875467124473,
          0.125655225094265,
          0.23407149944511596,
          -0.11022816067000453,
          0.05840850301263968,
          0.07012212189288693,
          -0.09521781257409011,
          0.3230292546583305,
          -0.22644794410002972,
          -0.007812029298821438,
          0.18681780152306537
        ],
        [
          -0.547359065979643,
          0.13566723337430106,
          -0.13231027578766646,
          0.2577806760593452,
          -0.3036820049893257,
          0.03039719393110356,
          -0.20211442373066246,
          0.025332224861702973,
          0.034154261024624176,
          -0.48475547139380676,
          -0.3523781766985015,
          0.1904744678318157,
          0.11434321295515508,
          0.20538598909653108,
          -0.04102550004313017,
          0.30586105304515093,
          -0.39076042744078243,
          -0.04339238078916533,
          -0.3538367618188193,
          -0.5123892345261123,
          0.10552506167904216,
          0.1890021858971459,
          -0.21897733452276702,
          0.14201501950856132,
          -0.11184475571902665,
          0.12837377199916003,
          -0.12658987975839192,
          -0.1327997226900353,
          0.21078116544812803,
          -0.05259992723312132,
          -0.11874818108210335,
          0.48069140693129486,
          0.6369142717861946,
          0.1752520705965732,
          0.2725951608506596,
          0.2238963272047728,
          0.2808094539730777,
          0.21264134328712095,
          -0.4929893523878058,
          -0.266371814824362,
          0.3995187716680466,
          -0.2716719820558307,
          0.27672322805620064,
          -0.14280264530710737,
          0.00179700839090792,
          -0.11017174306554309,
          0.3184949082620057,
          0.2610132974665654,
          0.17039113783269166,
          -0.12098651021014334,
          0.07888272742466437,
          0.1027427470356217,
          0.1565126977556418,
          -0.42184541540189374,
          -0.2029490088247336,
          -0.34660866564816634,
          0.5412149867721245,
          -0.049120905630537046,
          -0.03513932818411377,
          -0.1827713285181933,
          -0.2725319603750692,
          0.5044593509508546,
          -0.15044870728155807,
          0.4324868660378587
        ],
        [
          -0.043834724360930694,
          -0.29718193951190064,
          -0.22849231904202516,
          0.24961669013203827,
          0.22147135605092938,
          -0.013204714074980623,
          -0.1282779065365963,
          -0.0859563061643139,
          -0.038945085702633206,
          0.18319187511103083,
          -0.15696579117986822,
          -0.4761280595165194,
          0.5094017000962039,
          -0.05833332476576077,
          0.08999000337935925,
          -0.14324011669383047,
          -0.3918542098410836,
          0.4741996762893511,
          0.47857633052574583,
          0.02509673291557486,
          -0.09763008070909056,
          -0.3748056315782089,
          0.0818027727716618,
          -0.1530865780694915,
          0.20339999798734248,
          -0.038147793729037066,
          0.05946129138727651,
