{
  "version": "v2",
  "type": "neural_network",
  "architecture": {
    "input_size": 24,
    "hidden_size": 24,
    "output_size": 1,
    "activation": "relu",
    "output_activation": "sigmoid_scaled"
  },
  "engineered_feature_names": [
    "cur_temp",
    "max_temp_24h",
    "min_temp_24h",
    "temp_trend_48h",
    "freeze_thaw_days_ago",
    "warmest_thaw",
    "thaw_intensity_recency",
    "snow_since_freeze_cm",
    "snowfall_24h_cm",
    "snowfall_72h_cm",
    "older_snow_accum",
    "elevation_km",
    "hours_above_0C_ft",
    "hours_above_3C_ft",
    "hours_above_6C_ft",
    "cur_hours_above_0C",
    "cur_hours_above_3C",
    "cur_hours_above_6C",
    "fresh_powder_indicator",
    "accumulated_powder_indicator",
    "warm_degradation",
    "severe_thaw_damage",
    "temp_adjusted_fresh_snow",
    "summer_flag"
  ],
  "raw_feature_columns": [
    "cur_temp",
    "max_temp_24h",
    "max_temp_48h",
    "min_temp_24h",
    "freeze_thaw_days_ago",
    "warmest_thaw",
    "snow_since_freeze_cm",
    "snowfall_24h_cm",
    "snowfall_72h_cm",
    "elevation_m",
    "total_hours_above_0C_since_ft",
    "total_hours_above_1C_since_ft",
    "total_hours_above_2C_since_ft",
    "total_hours_above_3C_since_ft",
    "total_hours_above_4C_since_ft",
    "total_hours_above_5C_since_ft",
    "total_hours_above_6C_since_ft",
    "cur_hours_above_0C",
    "cur_hours_above_1C",
    "cur_hours_above_2C",
    "cur_hours_above_3C",
    "cur_hours_above_4C",
    "cur_hours_above_5C",
    "cur_hours_above_6C"
  ],
  "weights": {
    "W1": [
      [
        -0.31839670596690833,
        0.3603413492499599,
        -0.14990768773360316,
        -0.5476240703704465,
        -0.33650328546906233,
        0.2698278238140976,
        -0.6112559063439841,
        -0.15638475540283997,
        0.34924292904221627,
        -0.2751155035641519,
        -0.4228263121751924,
        -0.07542311824890621,
        0.4190169325515436,
        -0.3165220525130428,
        0.07429629733082645,
        -0.2190423602211322,
        0.6806558860088074,
        0.86277373439268,
        0.26151303047394625,
        0.2077036248881049,
        0.165494828683619,
        0.43064345223997935,
        -0.20260702782380857,
        0.3409137451615041
      ],
      [
        -0.3107315671341134,
        -0.19985644250492354,
        0.2911648136061837,
        -0.4267186979181368,
        0.008231897414095952,
        -0.31517945667329994,
        -0.14045972660000638,
        -0.8108799160686606,
        -0.527935768372258,
        -0.021960205956885293,
        0.2724341664487115,
        0.07552333066136538,
        -0.04650170848208187,
        0.045458969356163836,
        -0.16685488511051805,
        0.0686380396000411,
        -0.1592736819822833,
        0.005926780548409356,
        -0.027729870358299394,
        0.21454389594689083,
        0.21354818130234868,
        -0.0715296064980973,
        0.662791830333807,
        0.17839855027748752
      ],
      [
        0.2809475613376378,
        0.7372713134291945,
        -0.3848026916907158,
        -0.1807135815344838,
        0.2731641198255934,
        -0.06921081810072474,
        -0.04023359930043305,
        0.32948653150593155,
        0.21565619002882846,
        0.49450024050932206,
        0.5070106134866958,
        0.08882971885174212,
        -0.2791264996442175,
        0.11837052096604508,
        -0.23698149585327702,
        -0.33757201132586884,
        0.2620100589893792,
        -0.009146364939331204,
        0.07624973325951435,
        -0.0019964349935048995,
        -0.22246532921739198,
        0.28322444197222646,
        0.08410316855004456,
        -0.21338363845587502
      ],
      [
        0.3635350711693562,
        -0.0411958631777335,
        -0.4266943136301039,
        0.18325179987175305,
        -0.1350297368926245,
        0.04750390290924308,
        -0.27894357115707064,
        -0.5081052126368649,
        0.24529237789485456,
        -0.19313982626075157,
        0.7215557466511192,
        0.16619274409087098,
        0.03368669020500481,
        -0.3527769079040213,
        -0.17734490041969983,
        -0.47477899409265256,
        0.5384745069975133,
        -0.12080376722937602,
        0.22287052306155533,
        -0.4383227446055127,
        -0.017924466698200445,
        0.4274713623282505,
        -0.1788917258596805,
        0.24855275305795083
      ],
      [
        -0.22121454569221136,
        -0.35623755741635543,
        0.07466521940331673,
        -0.05893191204230005,
        -0.07820268977765808,
        -0.3860435900882653,
        0.15059009915293484,
        0.6677016791607674,
        0.10438832771673484,
        -0.043451481902700574,
        -0.05358843262230186,
        -0.5203335657583472,
        0.19343523224277795,
        -0.6157047948683942,
        -0.5027303094400466,
        0.3378035467987305,
        -0.21183891451037773,
        0.11947045841526517,
        0.27773334955496504,
        -0.04061542100245839,
        -0.35087385550751965,
        0.04040815169209642,
        0.5997712255733231,
        -0.3454360320092026
      ],
      [
        -0.15889467602032065,
        -0.146259921302819,
        0.046241170709144505,
        0.15369249756777337,
        0.15576352565414325,
        -0.14369668288725101,
        0.18158456080651444,
        0.164010992867425,
        0.04903507641316574,
        -0.27687758684167096,
        -0.03147859003781775,
        -0.1826538618018265,
        -0.09951310298925442,
        -0.08100649311220355,
        -0.014548128924414337,
        0.1276324505268398,
        -0.11291784823126225,
        0.30228895184014387,
        0.43502308448292626,
        0.009780603214794379,
        -0.28372421431795664,
        0.047778099796058876,
        0.39779241698501877,
        0.01896252848147197
      ],
      [
        0.0003213287992266267,
        -0.19132768897915006,
        -0.14525906556579915,
        0.5993623806711893,
        -0.1209630119814971,
        0.02167019705045756,
        0.04963793807354131,
        0.0679332223212945,
        -0.44176636362283156,
        -0.5320138525500054,
        -0.4781415129738286,
        0.10173787695647746,
        0.11575403194629301,
        -0.24830085135106228,
        0.36940303546715164,
        -0.019907613336588994,
        0.08575296521205755,
        0.030523396669622543,
        -0.012967714987745052,
        0.18879956768853,
        0.11290021205937258,
        -0.6176194815269823,
        0.3354182322242254,
        -0.07871330589548736
      ],
      [
        -0.018623172770611988,
        -0.08276693331048564,
        -0.2198247210811042,
        -0.06871524940337055,
        -0.9807134521517145,
        -0.030278863946128172,
        0.24123530094470527,
        0.4880650792358348,
        0.09364340198901483,
        -0.1581805051282898,
        -0.3424625147518933,
        0.05748485124622065,
        0.08277997612341488,
        0.3807270147161356,
        0.31985277610920787,
        -0.03514414300827574,
        -0.280011285465518,
        -0.48497765374798724,
        -0.16840918949245354,
        -0.189922316164604,
        -0.19933182787140233,
        -0.21341996977549213,
        0.015279144037711002,
        -0.10600852311822954
      ],
      [
        -0.03111784382620968,
        -0.05661234174955237,
        0.15868197370894707,
        -0.80254560066797,
        -0.18743899472851389,
        -0.018226536140449435,
        -0.0026843860109841606,
        -0.07128863416496536,
        0.20770708148359573,
        -0.09634750228709507,
        0.4764258599605286,
        0.30587936022833695,
        0.00756663222125297,
        0.05311151723431795,
        -0.01284070434073881,
        -0.29211316143548466,
        -0.16144210183435517,
        0.18623137672304665,
        0.17736545888839428,
        0.18742757165424562,
        -0.16532132972881755,
        -0.5365705628807061,
        -0.05375666445493676,
        0.4847531785004002
      ],
      [
        0.2303915554953058,
        0.09949525009182228,
        -0.17801433410365933,
        0.02466340101924705,
        -0.5467699849846291,
        -0.33476756328926666,
        -0.04376295473093121,
        -0.10181985863398299,
        0.24060058617099497,
        -0.2995369742558673,
        -0.4490424996440521,
        -0.39862157991633723,
        -0.3574029745891065,
        0.15569518474892105,
        -0.32732971263447463,
        0.18441985350309456,
        -0.1221153370317294,
        0.10097957211991161,
        0.0716474746050727,
        -0.13368365398773166,
        0.15647874208363702,
        -0.23663200221262967,
        0.05963400848915921,
        -0.10372475472981513
      ],
      [
        0.11782263107889336,
        0.08849516384376976,
        0.04373126514800133,
        -0.3237611593228801,
        -0.0805117878579492,
        -0.3708463700768138,
        0.14185709797008583,
        -0.5983615858170513,
        -0.4637850943211581,
        0.19637180559864265,
        0.3281916953635225,
        0.12930135980870636,
        -0.21304387458065316,
        -0.38231751391175905,
        0.38642327885737177,
        -0.03768380164918438,
        0.19346507548223388,
        0.07044688379180447,
        -0.03183364365445985,
        0.7969755683069074,
        -0.13498361824153313,
        -0.21051807862233046,
        -0.3033553179114368,
        -0.2605581244537723
      ],
      [
        0.287542471186444,
        -0.11368277983704399,
        0.15746949249764183,
        0.12034976172213392,
        0.46267597341707106,
        0.387206145591264,
        -0.3999401910187888,
        -0.2758320809114036,
        0.26456111336684346,
        -0.07129463165379252,
        0.05756513822629787,
        -0.8222547276304865,
        0.29485821879202523,
        -0.4739594619491002,
        0.24467045773127533,
        0.10379119794903653,
        -0.46238450134584796,
        -0.6553854719103098,
        -0.4873552548905035,
        -0.02644945449359812,
        -0.2689049717605529,
        -0.17231347029552696,
        -0.32899302892651616,
        0.23435465658118304
      ],
      [
        -0.40423034247645334,
        0.0855381413555472,
        -0.45493216534267633,
        0.09121567046077256,
        0.2899261829348696,
        -0.17473718628945561,
        -0.5983262097697029,
        0.1743076560836081,
        0.5427514588804369,
        -0.04093377051198075,
        0.008516479580527602,
        0.12463884971753458,
        0.18649560535562845,
        -0.2920711629193261,
        -0.29401512664116014,
        0.1842636431831971,
        -0.0030163032230375113,
        0.4362575388505023,
        -0.2367325460185483,
        0.27130616029531757,
        0.061715091700901545,
        0.2928409395520837,
        0.23422837752604883,
        0.2839346847450035
      ],
      [
        -0.30440453674605855,
        0.19308117303646005,
        0.293465598135343,
        -0.09620506544279463,
        -0.06460969757557834,
        -0.15354480798666964,
        -0.0475273627913235,
        0.18036537708506895,
        -0.21042982343605257,
        -0.5169541214519915,
        -0.13730532048354724,
        -0.4831549449880019,
        0.11046730711245639,
        -0.16517399755386533,
        -0.5271995482154389,
        -0.07651355739232213,
        -0.01988428820523256,
        0.16435639458773108,
        -0.06442159338523988,
        0.5780112837423071,
        -0.143731031468707,
        0.19432704852183258,
        -0.0841997855133602,
        -0.012505845721969253
      ],
      [
        0.020807635680926095,
        0.1546971665017783,
        0.3375575463118709,
        -0.4557417968455482,
        -0.14168521899632977,
        -0.09424302318175007,
        0.22728066662838586,
        -0.11039000836523924,
        -0.5258151878979879,
        -0.029911719775586994,
        0.030496459639885887,
        -0.07438274904654017,
        -0.34831012101016806,
        0.45350628702239,
        -0.09475357736840895,
        -0.030603909363427398,
        -0.21565452392631154,
        -0.23269602719939958,
        -0.35595264964927836,
        -0.0775781356395663,
        -0.265331605503673,
        0.6550008048853815,
        -0.5621273064796141,
        -0.27161236646744374
      ],
      [
        -0.13728624747427742,
        0.2177689573547666,
        -0.13820995847459216,
        0.20407377317327005,
        -0.17051979609380752,
        0.012198580947754336,
        0.44389592692645424,
        -0.2837838144654599,
        0.15190431521111952,
        0.0019863548637505364,
        -0.6399857688946524,
        -0.23789590409031378,
        0.28990315043123127,
        -0.01985119086631854,
        -0.2574103321794818,
        0.22283997401594804,
        -0.1157537396758289,
        -0.014083506618577378,
        0.098037139548979,
        -0.2831846422107136,
        0.2809601031388109,
        0.11828308210890973,
        -0.352191758447321,
        -0.15976229496733688
      ],
      [
        -0.11369954609934448,
        -0.023593952008326615,
        -0.21806296531649288,
        0.21446996632935722,
        0.016295175182644502,
        -0.21737854674212473,
        0.2082146237478148,
        0.3202128158108658,
        -0.01751941026291819,
        -0.11827243261822323,
        -0.5180157949426532,
        -0.25927558411547236,
        -0.08101820477018161,
        0.0731909648484916,
        0.09888413588815957,
        0.09693920321511511,
        0.4721273642018624,
        -0.08423088770432834,
        -0.15671682576165366,
        -0.3658292966426291,
        -0.023096736561843315,
        0.44090815468886596,
        -0.5314780790187149,
        -0.16854141809468323
      ],
      [
        -0.0033574880765918206,
        0.22538819225577356,
        0.10483200017182928,
        0.10382567278289308,
        -0.04855648925124027,
        0.1796979415842527,
        0.2603053473386928,
        -0.49089028628622816,
        0.21244984071694162,
        -0.04626234356990793,
        -0.18697615270851428,
        -0.7294965010476276,
        -0.41114641028472354,
        0.503190287287229,
        -0.20207115543681256,
        -0.29159992147380126,
        -0.11741756498702777,
        -0.23305482754046059,
        0.030018961227679292,
        0.44079606399515536,
        -0.15633460104617436,
        0.08628866755415128,
        -0.3296612070350951,
        0.4811473507487105
      ],
      [
        0.07219829172785343,
        -0.34353226069434,
        0.5182097396166455,
        0.43484138949615136,
        0.06513742136894572,
        -0.36610338233476375,
        0.6311350105070949,
        0.07355140919042978,
        0.3150889749933588,
        -0.4234111970493189,
        -0.2605444847470662,
        0.00033240995083064245,
        0.3357128263507446,
        -0.12162513330068364,
        -0.29781624132022777,
        0.07806444778875737,
        0.4127249717036672,
        0.2201776852200212,
        0.06887501552377429,
        -0.31216026496398064,
        -0.4103653456050253,
        -0.2371438943220714,
        0.0356527918826975,
        -0.06390155213634291
      ],
      [
        0.02354369228337696,
        0.3591093604128845,
        0.22943045970952755,
        0.32897801697870593,
        -0.46876782473423095,
        0.5376406826422903,
        -0.47116141722132326,
        -0.10665566789018437,
        0.262426379151885,
        -0.23236326521233058,
        0.12028138140763348,
        0.08447997556254232,
        0.30355633438760793,
        0.11976084075375122,
        0.35416979904288615,
        0.48007894906104,
        0.24990260861758012,
        0.5895182119417219,
        0.005332671843341503,
        -0.12499662576917348,
        -0.26543004146847876,
        0.08698999192680028,
        -0.806330482657099,
        -0.44057705105933076
      ],
      [
        -0.28888195642564746,
        -0.03800129385326561,
        -0.7473101837540547,
        0.393962618841278,
        0.3103353126118779,
        0.6396098829037297,
        0.26375027917682464,
        0.2781893590582029,
        0.6563320380403442,
        -0.19588041714394827,
        -0.46156072509541624,
        -0.029473249639767836,
        -0.26527267901285745,
        -0.05867478239538168,
        -0.35043110894146384,
        0.1794348352186193,
        0.13132857937004697,
        -0.14698961841447142,
        0.09032815378003757,
        -0.0031631155899473342,
        0.27960909424588043,
        0.296094134385858,
        -0.0511624361011444,
        0.3661832162448729
      ],
      [
        0.33801683876656535,
        0.4079731137598324,
        -0.315381568418883,
        -0.12102762232127319,
        -0.3546553899075463,
        -0.0006685091215139655,
        0.08209515181207547,
        -0.04763719575178071,
        0.5689094718123576,
        -0.1677601911636291,
        -0.3673087779673109,
        0.1912967817867682,
        -0.00621187680376975,
        0.15215568189174802,
        0.05554718815807598,
        0.08962278948118,
        -0.6043203557244242,
        -0.3148869240403364,
        -0.16438430431553486,
        -0.06284094458152109,
        -0.06943741612376692,
        0.38030969224052635,
        0.1962138480732105,
        -0.22787611320051593
      ],
      [
        0.16152452620725305,
        0.10710602979798672,
        0.42030552887466366,
        -0.2860302832132658,
        0.0005481278660948776,
        0.030751901080694952,
        0.3744134952913785,
        0.4887677951352562,
        0.4452925516991356,
        0.08266285734829161,
        -0.11047016603037414,
        0.2627640800462005,
        -0.30111385692389997,
        -0.44167970481189645,
        0.044964008028831645,
        0.30355293320389237,
        -0.23660668392977807,
        0.6102590446482191,
        -0.7675927977367203,
        -0.4394991957565046,
        -0.17864831012428214,
        0.10102935708058851,
        0.1151245147174833,
        -0.04399081426839896
      ],
      [
        -0.04802577458775534,
        -0.5208061814882015,
        0.3236155566806715,
        -0.18417245498753376,
        0.2974184203480151,
        0.01824192113241411,
        0.2784484622154088,
        0.08307633822882064,
        -0.02749942181520194,
        0.04619795607053703,
        -0.45322151243581915,
        -0.04080508580901318,
        0.45997011053634923,
        0.41156521176029376,
        -0.2857288312567849,
        0.1530020502333189,
        0.08675291361275082,
        0.219307504789857,
        0.017147749841778918,
        -0.05661189946240029,
        0.37678228969864774,
        0.06848638644584543,
        0.3330541206909886,
        0.32446535167058266
      ]
    ],
    "b1": [
      0.08535916137314394,
      0.1286389094032951,
      0.01649541054958512,
      -0.09919227720037148,
      -0.071944883966788,
      -0.23195943689655263,
      0.011787414443610377,
      0.03909872584533867,
      0.06823871087529705,
      0.10874848022732925,
      0.23818593483464923,
      0.2607643168664213,
      0.0830252503131504,
      -0.34483389138966675,
      0.05149353007156238,
      -0.08941220070214144,
      -0.07039431392290968,
      -0.003562223311415405,
      0.022638715505603226,
      -0.11436144645678982,
      0.02062260233953336,
      -0.044321782979749196,
      -0.023150003851992097,
      -0.262405800582515
    ],
    "W2": [
      [
        -0.11238453169974486
      ],
      [
        -0.37149518983128416
      ],
      [
        0.7443516742777115
      ],
      [
        -0.31975170329109776
      ],
      [
        -0.9940783755966974
      ],
      [
        -0.5574081078435374
      ],
      [
        0.37064999113242725
      ],
      [
        -0.0353353289943977
      ],
      [
        -0.17052190176314452
      ],
      [
        0.5682758124941651
      ],
      [
        0.7592006840370369
      ],
      [
        -0.9724262431228923
      ],
      [
        0.22618790398901642
      ],
      [
        0.7503309134550594
      ],
      [
        0.8130700360188156
      ],
      [
        -0.38264784355890263
      ],
      [
        0.34937558435544
      ],
      [
        0.8692028530785367
      ],
      [
        -0.09693091283534666
      ],
      [
        -0.16559590777314995
      ],
      [
        -0.3901980891105369
      ],
      [
        -1.112169315600838
      ],
      [
        -0.41823873010087576
      ],
      [
        -0.18402195431580592
      ]
    ],
    "b2": [
      0.629649991226937
    ]
  },
  "normalization": {
    "mean": [
      -11.697285353535344,
      -6.834469696969694,
      -13.89520202020204,
      1.862247474747476,
      9.51227904040402,
      1.199999999999999,
      1.2257211884242103,
      8.665909090909102,
      2.283459595959592,
      5.2681818181818265,
      2.9847222222222207,
      2.706172214182556,
      13.249368686868687,
      10.69949494949495,
      7.808080808080808,
      7.778409090909091,
      4.0271464646464645,
      2.7342171717171717,
      2.2608743686868684,
      11.0338345959596,
      79.68964646464643,
      125.98377525252528,
      2.125441919191913,
      0.026515151515151516
    ],
    "std": [
      10.491861875305679,
      9.732224081748448,
      10.299697931708497,
      2.5529620347504958,
      5.435440151619104,
      2.743364354182296,
      4.699591256491052,
      15.26698753903299,
      5.057786441494046,
      9.652452204642204,
      6.3931273407907705,
      0.6388088078551689,
      48.099476698736744,
      43.83332584108032,
      36.08647072025706,
      32.62245018472554,
      20.547675418150497,
      16.883122912724392,
      6.090069591249579,
      21.239898166342083,
      387.68265010286484,
      602.7983258202984,
      4.662052622310515,
      0.16066143985188136
    ]
  },
  "quality_thresholds": {
    "excellent": 5.5,
    "good": 4.5,
    "fair": 3.5,
    "poor": 2.5,
    "bad": 1.5,
    "horrible": 0.0
  },
  "metrics": {
    "train": {
      "mae": 0.34658994665169224,
      "rmse": 0.45246565777203424,
      "r2": 0.8587851183035532,
      "accuracy": 0.7417929292929293,
      "within_1": 0.9981060606060606
    },
    "validation": {
      "mae": 0.36674542511932984,
      "rmse": 0.48939370421266004,
      "r2": 0.8497535827887349,
      "accuracy": 0.7355163727959698,
      "within_1": 1.0
    }
  }
}
