{
  "version": "v2",
  "type": "neural_network",
  "architecture": {
    "input_size": 29,
    "hidden_size": 16,
    "output_size": 1,
    "activation": "relu",
    "output_activation": "sigmoid_scaled"
  },
  "engineered_feature_names": [
    "cur_temp",
    "max_temp_24h",
    "min_temp_24h",
    "temp_trend_48h",
    "freeze_thaw_days_ago",
    "warmest_thaw",
    "thaw_intensity_recency",
    "snow_since_freeze_cm",
    "snowfall_24h_cm",
    "snowfall_72h_cm",
    "older_snow_accum",
    "elevation_km",
    "snow_depth_m",
    "fresh_to_total_ratio",
    "hours_above_0C_ft",
    "hours_above_3C_ft",
    "hours_above_6C_ft",
    "cur_hours_above_0C",
    "cur_hours_above_3C",
    "cur_hours_above_6C",
    "avg_wind_24h",
    "max_wind_24h",
    "calm_powder_indicator",
    "fresh_powder_indicator",
    "accumulated_powder_indicator",
    "warm_degradation",
    "severe_thaw_damage",
    "temp_adjusted_fresh_snow",
    "summer_flag"
  ],
  "raw_feature_columns": [
    "cur_temp",
    "max_temp_24h",
    "max_temp_48h",
    "min_temp_24h",
    "freeze_thaw_days_ago",
    "warmest_thaw",
    "snow_since_freeze_cm",
    "snowfall_24h_cm",
    "snowfall_72h_cm",
    "elevation_m",
    "total_hours_above_0C_since_ft",
    "total_hours_above_1C_since_ft",
    "total_hours_above_2C_since_ft",
    "total_hours_above_3C_since_ft",
    "total_hours_above_4C_since_ft",
    "total_hours_above_5C_since_ft",
    "total_hours_above_6C_since_ft",
    "cur_hours_above_0C",
    "cur_hours_above_1C",
    "cur_hours_above_2C",
    "cur_hours_above_3C",
    "cur_hours_above_4C",
    "cur_hours_above_5C",
    "cur_hours_above_6C",
    "cur_wind_kmh",
    "max_wind_24h",
    "avg_wind_24h",
    "snow_depth_cm"
  ],
  "weights": {
    "W1": [
      [
        -0.477191024109652,
        -0.11333435009359191,
        0.1412171883883461,
        -0.05076693291115217,
        -0.171899999150003,
        -0.2494156442155354,
        -0.1385095902179637,
        -0.24893633403923718,
        0.38981756376901217,
        0.2944343336743383,
        -0.21739905286111205,
        -0.31317484583835814,
        -0.12221009401281303,
        -0.20788067165774357,
        -0.17188059763722183,
        -0.10451348192640443
      ],
      [
        -0.29827044980076,
        -0.006433608884722197,
        0.3791690270246556,
        -0.22452487193949325,
        0.005854104560257061,
        0.036896767861661364,
        0.3111415989796991,
        -0.22393081947059496,
        -0.0488315743265684,
        0.14943347849328995,
        -0.3105780618263807,
        0.1650116684509785,
        -0.20440489251905722,
        -0.30720404070349505,
        0.4748985222344108,
        -0.0153521817374858
      ],
      [
        -0.42766765960131536,
        0.11261184571337723,
        -0.0313766771448871,
        -0.12023367223912884,
        0.06521635508256045,
        0.00975054561423192,
        0.09846870829651135,
        0.3210754850640359,
        0.03724234755296122,
        -0.05327133778039634,
        0.3205094528016346,
        0.056471920430476226,
        0.6778300002633316,
        -0.07793128301519844,
        -0.16820762949416293,
        -0.11624918083536127
      ],
      [
        -0.1724897217604851,
        -0.26409913563600923,
        0.09245488062115084,
        -0.07458838068693358,
        -0.027307718638221703,
        -0.3052264181704534,
        0.0648501267634656,
        -0.3562024123446344,
        0.1535579370749204,
        0.023284342815137547,
        0.259843452419589,
        -0.07371244611299087,
        0.2902497476706492,
        -0.3085908586741467,
        0.008855208101143203,
        0.44452368167277034
      ],
      [
        0.5225199626755256,
        0.45088247452854197,
        -0.3492834754601602,
        -0.0812943697967558,
        -0.4481683109545859,
        0.24664192821427638,
        -0.29629257007022924,
        0.0004798548430028805,
        -0.14303613987359087,
        -0.020059184783952248,
        0.14285139503367403,
        0.200948867179919,
        -0.04160904249867094,
        0.41356132488993447,
        -0.15088700709532515,
        -0.022319947103026375
      ],
      [
        -0.2555673549027162,
        0.5495578349784234,
        0.49740267446267095,
        -0.026122655558212717,
        0.1169139238564539,
        -0.030652934432277297,
        0.22027335608909562,
        0.08627199533076883,
        -0.13457412040388747,
        -0.19453127366411943,
        -0.6485891846897844,
        -0.34979430878492007,
        -0.1740495469392191,
        -0.21238545714440538,
        -0.6496146223577738,
        0.2853314671822769
      ],
      [
        -0.02130237457312696,
        0.15744257801667996,
        0.5330979205666577,
        -0.09275002937544513,
        0.2992523015543226,
        0.2440631406393514,
        -0.1097091290352255,
        0.22543511475273298,
        0.5491237386743109,
        0.0020737175534642615,
        0.04415192986760372,
        -0.4711926124759731,
        -0.4141526543454487,
        -0.12634991560290768,
        -0.26703754540482166,
        -0.17303670251485154
      ],
      [
        -0.30113681731920605,
        -0.3505095872425413,
        -0.21938183849422488,
        -0.043206633920671006,
        -0.34581380275866763,
        -0.017714964549292632,
        -0.2815836327837934,
        0.18728060505004074,
        0.38682311231414745,
        -0.21975995434011303,
        0.17641620211721054,
        0.3611623338988049,
        0.3466084772679129,
        0.13925675291162107,
        0.08195313027477517,
        -0.34611530028267073
      ],
      [
        -0.07369255125835433,
        0.23177869450720745,
        -0.12348811757215847,
        -0.028862766299149124,
        -0.305085364390787,
        -0.6500864181311606,
        -0.1239582045274563,
        -0.24363912100755972,
        0.28405424472090407,
        -0.123703792934938,
        0.07699353060014053,
        0.44278588645097083,
        -0.27102161683587783,
        0.08439798033610287,
        -0.05668242776393568,
        -0.16242113678302453
      ],
      [
        -0.2029978184656655,
        -0.10563727373110451,
        -0.0010089970610765277,
        0.007235883869064446,
        -0.05214043413339792,
        0.1712832301731858,
        -0.23635498428250812,
        -0.043106634031343335,
        0.2478715379606063,
        -0.5581657398286816,
        -0.24704906938897622,
        0.19391052317861796,
        0.12706007616449053,
        0.2405921915652579,
        -0.414813222520633,
        -0.06185261609783013
      ],
      [
        -0.26947813185056396,
        -0.21572273411519013,
        -0.15634882788317214,
        0.2664792177770304,
        0.01553165140965373,
        0.1570489223147902,
        -0.35304140760107616,
        -0.06499758406329519,
        -0.4287678056017218,
        0.10562780890117399,
        -0.4339980203911045,
        -0.029999754996671256,
        -0.4775894482267985,
        0.036759324715574956,
        0.07751877458154631,
        -0.2160539307631508
      ],
      [
        -0.028071766753943673,
        0.0692324165612125,
        0.05922674964368029,
        -0.07589217749284413,
        -0.05952917758185232,
        0.12621804942660556,
        0.09462376554060328,
        0.09345305199427802,
        -0.22491951271621963,
        0.19739496958789754,
        0.5741512633407765,
        0.011234636178125527,
        -0.06267346820030127,
        0.034094372159597514,
        0.15478544278295878,
        0.510648505450138
      ],
      [
        0.3616019247226394,
        0.9369985627004045,
        -0.04958033316927406,
        0.28963174224373084,
        0.12264075773397314,
        -0.043353569532978795,
        -0.056478254012691284,
        -0.12538232235355792,
        -0.03460540224791895,
        -0.28755260636488417,
        -0.24225215438014347,
        0.8325163309434174,
        0.16588118183779882,
        -0.15880080980749586,
        -0.18694836655700128,
        -0.07043972225610388
      ],
      [
        0.0683257147443983,
        0.2563045950308558,
        -0.0026541500411781174,
        0.3895802370971415,
        0.07411097830147972,
        0.18704486417563537,
        0.1227031100522715,
        0.3354956955293258,
        -0.19701108610196214,
        -0.17113761172779102,
        -0.027353043179726245,
        0.1902317461021448,
        -0.3185866377881751,
        -0.2573502156798083,
        -0.0034440945582439302,
        0.075656591842827
      ],
      [
        -0.12200183861710678,
        -0.32761872296755157,
        0.07175608564967582,
        -0.17439607019996922,
        -0.551022495414684,
        -0.16284439720026866,
        0.4199249802834321,
        -0.2113989245820529,
        -0.19848520115307036,
        -0.4858155753553555,
        -0.23998294756084584,
        0.2632156896640214,
        0.5380850659989994,
        0.019803653785206123,
        -0.3653878041097563,
        0.4404751532982459
      ],
      [
        -0.2621722404299595,
        -0.37732011292094964,
        0.4081086424474331,
        -0.4200603912227752,
        0.3563878228075682,
        -0.3236565165019031,
        0.3690505159235988,
        -0.25206159053588867,
        -0.31486203249742883,
        0.16767121274223445,
        0.09601481003499214,
        -0.5694148633068478,
        -0.02027438081702019,
        0.06552711145770082,
        -0.12145929314170305,
        0.32242195486181147
      ],
      [
        -0.3154934927961489,
        0.06538532674815134,
        -0.2384938387609147,
        -0.10986257080668596,
        0.030714772943774546,
        0.34076715865397583,
        0.5249366408879272,
        0.14427361230246075,
        0.08902154313752407,
        0.024016277176197677,
        -0.31457597156661476,
        -0.4092187110735499,
        -0.19467939461886166,
        -0.14909007679220418,
        -0.07076880562159082,
        0.03133127726049781
      ],
      [
        -0.15945262441740346,
        0.34854241624773946,
        -0.29185815792059266,
        -0.24667028618879722,
        -0.8363139070640249,
        -0.10349918368937065,
        0.18067425481132388,
        -0.3354871842474882,
        0.28430468264326697,
        -0.08407032597759845,
        -0.20988721264720886,
        0.06596673828828044,
        -0.40036257246483803,
        0.07387217641912316,
        -0.1705402152344191,
        0.32070429681259643
      ],
      [
        0.2938451048537548,
        0.08096608609289227,
        -0.0871445001393037,
        -0.20969334789224794,
        -0.13699023302010094,
        0.08156480852680577,
        0.2763357442908501,
        0.24186561234259632,
        0.13900775526757989,
        -0.19437096548191504,
        -0.2634662969532972,
        -0.3673586307374338,
        -0.24026197784050204,
        0.06672747307006743,
        0.1856657970314996,
        0.4689787247125548
      ],
      [
        0.15978629068475295,
        -0.3965771953820847,
        0.1389428069712346,
        -0.21592566629870472,
        -0.19699017510588107,
        0.10842747457983244,
        -0.10904210821530318,
        -0.07261142341243854,
        0.14586844548399375,
        -0.1880318890890631,
        0.01250363128353012,
        0.37973548154872416,
        -0.06512652598088801,
        -0.006812112947891154,
        -0.19673742518895135,
        0.033425163072674756
      ],
      [
        -0.01218885845592088,
        -0.293516190462562,
        -0.023204645211183195,
        0.14370257234711714,
        -0.011810305819170116,
        -0.006166879186247494,
        -0.040525602340591015,
        0.3568456084038957,
        0.057648463811697886,
        -0.04554655027441053,
        0.4330729921981081,
        0.2837943530700703,
        -0.002490826335126407,
        -0.08222958233130404,
        -0.17147355104810377,
        0.03613415113378499
      ],
      [
        0.017084649604082215,
        0.23956235088054556,
        0.058622260324004256,
        -0.24247190072967428,
        0.07042662662678555,
        -0.18430369592388313,
        0.22697573200001697,
        0.13343634928706222,
        -0.4272829515040197,
        0.12161361798847233,
        -0.09862895474578724,
        0.006898117080712547,
        0.007871001502232784,
        -0.13249390521492257,
        0.32143838455726886,
        -0.17234178147402643
      ],
      [
        -0.08828122141816913,
        -0.19339815023936419,
        -0.3285819359422368,
        -0.16094488520079023,
        0.09648413529228385,
        -0.1904125166518336,
        -0.4418707743199812,
        -0.22147522782223078,
        0.0142699268785904,
        -0.48829644110656745,
        -0.5970809286087003,
        0.24490439099439218,
        -0.469610320856943,
        -0.004780551810994948,
        -0.19608163671755632,
        0.11735653332937693
      ],
      [
        0.41263736098065124,
        0.2865076619547358,
        -0.0960230486600601,
        0.08344945757913559,
        -0.3136927210396275,
        -0.006892324797069906,
        -0.04141902825597516,
        -0.10039909653929302,
        0.047810663433324095,
        -0.15686726559623668,
        0.3843760660685855,
        -0.12260869612318095,
        0.05407593865888962,
        0.2481414553090376,
        0.06919727601374685,
        -0.30351706092966624
      ],
      [
        0.10287731057456899,
        0.16288493518279643,
        0.24246660419928232,
        0.21158486014611308,
        -0.29676762594074235,
        0.08774436499771622,
        -0.14839497781428407,
        0.22899310006653467,
        0.5786319497425774,
        -0.31828387776395806,
        0.22165411039661181,
        0.15582895980229552,
        0.13488167398066325,
        0.017430745439277997,
        -0.2579548558305992,
        0.36799734451812466
      ],
      [
        -0.19331674939069557,
        -0.055313230446491106,
        -0.57085859471174,
        0.4780900346532181,
        -0.08827627377328862,
        0.040836821899401056,
        0.5389151525661436,
        0.09080735627164307,
        0.5750229942488564,
        -0.08038805748637205,
        -0.022141297524390882,
        -0.11901496659581454,
        -0.1801226086031156,
        0.21898891442501636,
        -0.15114832530285302,
        0.4709592119247503
      ],
      [
        0.06908257545242225,
        -0.2086741047241339,
        0.22011684061974693,
        -0.12101222990501609,
        0.3739777392833235,
        0.6208360897143559,
        0.5189724999861837,
        0.030317135202623652,
        -0.3964800983906492,
        0.4338412065982971,
        -0.2932252857255335,
        0.07006544614187933,
        0.1819255145053266,
        -0.15108294760040586,
        -0.2666392341536063,
        0.13051203879052894
      ],
      [
        -0.020598729849306916,
        0.27361318051361305,
        0.07597302505714683,
        0.5086450653900931,
        0.054190952602973165,
        -0.14404233057049276,
        -0.21372112999170037,
        -0.11304819515541566,
        0.4242530558650405,
        -0.13146603081642663,
        0.009365447179477394,
        0.36395095453034754,
        -0.16354447703401628,
        0.016197819915308966,
        0.5039627895052264,
        -0.21694749305022634
      ],
      [
        -0.06164265202130173,
        0.10431230865363478,
        -0.4894917149487012,
        0.2160950084140035,
        0.2804124924633753,
        -0.0036539666006341572,
        0.05211175678518677,
        -0.2597560237417502,
        0.222557125973348,
        -0.21703598537322127,
        -0.2959744416504844,
        -0.30074850608832215,
        -0.20998933033240635,
        -0.052539953014098396,
        2.6278715113141566e-05,
        -0.09651203592361271
      ]
    ],
    "b1": [
      -0.09292957613658512,
      0.1750210342297525,
      0.003302290887563067,
      0.10811025864600367,
      -0.6477821984345158,
      0.08126888509145543,
      0.3008047683690295,
      0.014215008446864562,
      -0.05517809660139339,
      -0.005929649240629418,
      0.1940059145922724,
      0.0917292537686468,
      -0.01614685045759701,
      0.001468856095010963,
      0.1426245583151384,
      -0.04401290630202709
    ],
    "W2": [
      [
        -0.4181164624330921
      ],
      [
        0.25396604954706403
      ],
      [
        0.5061889266708598
      ],
      [
        0.5748108523585099
      ],
      [
        -1.1518973532412164
      ],
      [
        -0.5123153715003708
      ],
      [
        -0.7733430689491324
      ],
      [
        -0.067150457741672
      ],
      [
        0.14558896018868944
      ],
      [
        -0.528035617107166
      ],
      [
        0.3244452853567081
      ],
      [
        -0.11233378371515483
      ],
      [
        -0.20136931289733212
      ],
      [
        0.5234147554476929
      ],
      [
        0.6740771061706297
      ],
      [
        -0.19217362368366775
      ]
    ],
    "b2": [
      0.37409129348426035
    ]
  },
  "ensemble": [
    {
      "n_hidden": 16,
      "seed": 1852,
      "epoch": 2900,
      "val_mae": 0.18782195649362882,
      "within_1": 1.0,
      "W1": [
        [
          -0.477191024109652,
          -0.11333435009359191,
          0.1412171883883461,
          -0.05076693291115217,
          -0.171899999150003,
          -0.2494156442155354,
          -0.1385095902179637,
          -0.24893633403923718,
          0.38981756376901217,
          0.2944343336743383,
          -0.21739905286111205,
          -0.31317484583835814,
          -0.12221009401281303,
          -0.20788067165774357,
          -0.17188059763722183,
          -0.10451348192640443
        ],
        [
          -0.29827044980076,
          -0.006433608884722197,
          0.3791690270246556,
          -0.22452487193949325,
          0.005854104560257061,
          0.036896767861661364,
          0.3111415989796991,
          -0.22393081947059496,
          -0.0488315743265684,
          0.14943347849328995,
          -0.3105780618263807,
          0.1650116684509785,
          -0.20440489251905722,
          -0.30720404070349505,
          0.4748985222344108,
          -0.0153521817374858
        ],
        [
          -0.42766765960131536,
          0.11261184571337723,
          -0.0313766771448871,
          -0.12023367223912884,
          0.06521635508256045,
          0.00975054561423192,
          0.09846870829651135,
          0.3210754850640359,
          0.03724234755296122,
          -0.05327133778039634,
          0.3205094528016346,
          0.056471920430476226,
          0.6778300002633316,
          -0.07793128301519844,
          -0.16820762949416293,
          -0.11624918083536127
        ],
        [
          -0.1724897217604851,
          -0.26409913563600923,
          0.09245488062115084,
          -0.07458838068693358,
          -0.027307718638221703,
          -0.3052264181704534,
          0.0648501267634656,
          -0.3562024123446344,
          0.1535579370749204,
          0.023284342815137547,
          0.259843452419589,
          -0.07371244611299087,
          0.2902497476706492,
          -0.3085908586741467,
          0.008855208101143203,
          0.44452368167277034
        ],
        [
          0.5225199626755256,
          0.45088247452854197,
          -0.3492834754601602,
          -0.0812943697967558,
          -0.4481683109545859,
          0.24664192821427638,
          -0.29629257007022924,
          0.0004798548430028805,
          -0.14303613987359087,
          -0.020059184783952248,
          0.14285139503367403,
          0.200948867179919,
          -0.04160904249867094,
          0.41356132488993447,
          -0.15088700709532515,
          -0.022319947103026375
        ],
        [
          -0.2555673549027162,
          0.5495578349784234,
          0.49740267446267095,
          -0.026122655558212717,
          0.1169139238564539,
          -0.030652934432277297,
          0.22027335608909562,
          0.08627199533076883,
          -0.13457412040388747,
          -0.19453127366411943,
          -0.6485891846897844,
          -0.34979430878492007,
          -0.1740495469392191,
          -0.21238545714440538,
          -0.6496146223577738,
          0.2853314671822769
        ],
        [
          -0.02130237457312696,
          0.15744257801667996,
          0.5330979205666577,
          -0.09275002937544513,
          0.2992523015543226,
          0.2440631406393514,
          -0.1097091290352255,
          0.22543511475273298,
          0.5491237386743109,
          0.0020737175534642615,
          0.04415192986760372,
          -0.4711926124759731,
          -0.4141526543454487,
          -0.12634991560290768,
          -0.26703754540482166,
          -0.17303670251485154
        ],
        [
          -0.30113681731920605,
          -0.3505095872425413,
          -0.21938183849422488,
          -0.043206633920671006,
          -0.34581380275866763,
          -0.017714964549292632,
          -0.2815836327837934,
          0.18728060505004074,
          0.38682311231414745,
          -0.21975995434011303,
          0.17641620211721054,
          0.3611623338988049,
          0.3466084772679129,
          0.13925675291162107,
          0.08195313027477517,
          -0.34611530028267073
        ],
        [
          -0.07369255125835433,
          0.23177869450720745,
          -0.12348811757215847,
          -0.028862766299149124,
          -0.305085364390787,
          -0.6500864181311606,
          -0.1239582045274563,
          -0.24363912100755972,
          0.28405424472090407,
          -0.123703792934938,
          0.07699353060014053,
          0.44278588645097083,
          -0.27102161683587783,
          0.08439798033610287,
          -0.05668242776393568,
          -0.16242113678302453
        ],
        [
          -0.2029978184656655,
          -0.10563727373110451,
          -0.0010089970610765277,
          0.007235883869064446,
          -0.05214043413339792,
          0.1712832301731858,
          -0.23635498428250812,
          -0.043106634031343335,
          0.2478715379606063,
          -0.5581657398286816,
          -0.24704906938897622,
          0.19391052317861796,
          0.12706007616449053,
          0.2405921915652579,
          -0.414813222520633,
          -0.06185261609783013
        ],
        [
          -0.26947813185056396,
          -0.21572273411519013,
          -0.15634882788317214,
          0.2664792177770304,
          0.01553165140965373,
          0.1570489223147902,
          -0.35304140760107616,
          -0.06499758406329519,
          -0.4287678056017218,
          0.10562780890117399,
          -0.4339980203911045,
          -0.029999754996671256,
          -0.4775894482267985,
          0.036759324715574956,
          0.07751877458154631,
          -0.2160539307631508
        ],
        [
          -0.028071766753943673,
          0.0692324165612125,
          0.05922674964368029,
          -0.07589217749284413,
          -0.05952917758185232,
          0.12621804942660556,
          0.09462376554060328,
          0.09345305199427802,
          -0.22491951271621963,
          0.19739496958789754,
          0.5741512633407765,
          0.011234636178125527,
          -0.06267346820030127,
          0.034094372159597514,
          0.15478544278295878,
          0.510648505450138
        ],
        [
          0.3616019247226394,
          0.9369985627004045,
          -0.04958033316927406,
          0.28963174224373084,
          0.12264075773397314,
          -0.043353569532978795,
          -0.056478254012691284,
          -0.12538232235355792,
          -0.03460540224791895,
          -0.28755260636488417,
          -0.24225215438014347,
          0.8325163309434174,
          0.16588118183779882,
          -0.15880080980749586,
          -0.18694836655700128,
          -0.07043972225610388
        ],
        [
          0.0683257147443983,
          0.2563045950308558,
          -0.0026541500411781174,
          0.3895802370971415,
          0.07411097830147972,
          0.18704486417563537,
          0.1227031100522715,
          0.3354956955293258,
          -0.19701108610196214,
          -0.17113761172779102,
          -0.027353043179726245,
          0.1902317461021448,
          -0.3185866377881751,
          -0.2573502156798083,
          -0.0034440945582439302,
          0.075656591842827
        ],
        [
          -0.12200183861710678,
          -0.32761872296755157,
          0.07175608564967582,
          -0.17439607019996922,
          -0.551022495414684,
          -0.16284439720026866,
          0.4199249802834321,
          -0.2113989245820529,
          -0.19848520115307036,
          -0.4858155753553555,
          -0.23998294756084584,
          0.2632156896640214,
          0.5380850659989994,
          0.019803653785206123,
          -0.3653878041097563,
          0.4404751532982459
        ],
        [
          -0.2621722404299595,
          -0.37732011292094964,
          0.4081086424474331,
          -0.4200603912227752,
          0.3563878228075682,
          -0.3236565165019031,
          0.3690505159235988,
          -0.25206159053588867,
          -0.31486203249742883,
          0.16767121274223445,
          0.09601481003499214,
          -0.5694148633068478,
          -0.02027438081702019,
          0.06552711145770082,
          -0.12145929314170305,
          0.32242195486181147
        ],
        [
          -0.3154934927961489,
          0.06538532674815134,
          -0.2384938387609147,
          -0.10986257080668596,
          0.030714772943774546,
          0.34076715865397583,
          0.5249366408879272,
          0.14427361230246075,
          0.08902154313752407,
          0.024016277176197677,
          -0.31457597156661476,
          -0.4092187110735499,
          -0.19467939461886166,
          -0.14909007679220418,
          -0.07076880562159082,
          0.03133127726049781
        ],
        [
          -0.15945262441740346,
          0.34854241624773946,
          -0.29185815792059266,
          -0.24667028618879722,
          -0.8363139070640249,
          -0.10349918368937065,
          0.18067425481132388,
          -0.3354871842474882,
          0.28430468264326697,
          -0.08407032597759845,
          -0.20988721264720886,
          0.06596673828828044,
          -0.40036257246483803,
          0.07387217641912316,
          -0.1705402152344191,
          0.32070429681259643
        ],
        [
          0.2938451048537548,
          0.08096608609289227,
          -0.0871445001393037,
          -0.20969334789224794,
          -0.13699023302010094,
          0.08156480852680577,
          0.2763357442908501,
          0.24186561234259632,
          0.13900775526757989,
          -0.19437096548191504,
          -0.2634662969532972,
          -0.3673586307374338,
          -0.24026197784050204,
          0.06672747307006743,
          0.1856657970314996,
          0.4689787247125548
        ],
        [
          0.15978629068475295,
          -0.3965771953820847,
          0.1389428069712346,
          -0.21592566629870472,
          -0.19699017510588107,
          0.10842747457983244,
          -0.10904210821530318,
          -0.07261142341243854,
          0.14586844548399375,
          -0.1880318890890631,
          0.01250363128353012,
          0.37973548154872416,
          -0.06512652598088801,
          -0.006812112947891154,
          -0.19673742518895135,
          0.033425163072674756
        ],
        [
          -0.01218885845592088,
          -0.293516190462562,
          -0.023204645211183195,
          0.14370257234711714,
          -0.011810305819170116,
          -0.006166879186247494,
          -0.040525602340591015,
          0.3568456084038957,
          0.057648463811697886,
          -0.04554655027441053,
          0.4330729921981081,
          0.2837943530700703,
          -0.002490826335126407,
          -0.08222958233130404,
          -0.17147355104810377,
          0.03613415113378499
        ],
        [
          0.017084649604082215,
          0.23956235088054556,
          0.058622260324004256,
          -0.24247190072967428,
          0.07042662662678555,
          -0.18430369592388313,
          0.22697573200001697,
          0.13343634928706222,
          -0.4272829515040197,
          0.12161361798847233,
          -0.09862895474578724,
          0.006898117080712547,
          0.007871001502232784,
          -0.13249390521492257,
          0.32143838455726886,
          -0.17234178147402643
        ],
        [
          -0.08828122141816913,
          -0.19339815023936419,
          -0.3285819359422368,
          -0.16094488520079023,
          0.09648413529228385,
          -0.1904125166518336,
          -0.4418707743199812,
          -0.22147522782223078,
          0.0142699268785904,
          -0.48829644110656745,
          -0.5970809286087003,
          0.24490439099439218,
          -0.469610320856943,
          -0.004780551810994948,
          -0.19608163671755632,
          0.11735653332937693
        ],
        [
          0.41263736098065124,
          0.2865076619547358,
          -0.0960230486600601,
          0.08344945757913559,
          -0.3136927210396275,
          -0.006892324797069906,
          -0.04141902825597516,
          -0.10039909653929302,
          0.047810663433324095,
          -0.15686726559623668,
          0.3843760660685855,
          -0.12260869612318095,
          0.05407593865888962,
          0.2481414553090376,
          0.06919727601374685,
          -0.30351706092966624
        ],
        [
          0.10287731057456899,
          0.16288493518279643,
          0.24246660419928232,
          0.21158486014611308,
          -0.29676762594074235,
          0.08774436499771622,
          -0.14839497781428407,
          0.22899310006653467,
          0.5786319497425774,
          -0.31828387776395806,
          0.22165411039661181,
          0.15582895980229552,
          0.13488167398066325,
          0.017430745439277997,
          -0.2579548558305992,
          0.36799734451812466
        ],
        [
          -0.19331674939069557,
          -0.055313230446491106,
          -0.57085859471174,
          0.4780900346532181,
          -0.08827627377328862,
          0.040836821899401056,
          0.5389151525661436,
          0.09080735627164307,
          0.5750229942488564,
          -0.08038805748637205,
          -0.022141297524390882,
          -0.11901496659581454,
          -0.1801226086031156,
          0.21898891442501636,
          -0.15114832530285302,
          0.4709592119247503
        ],
        [
          0.06908257545242225,
          -0.2086741047241339,
          0.22011684061974693,
          -0.12101222990501609,
          0.3739777392833235,
          0.6208360897143559,
          0.5189724999861837,
          0.030317135202623652,
          -0.3964800983906492,
          0.4338412065982971,
          -0.2932252857255335,
          0.07006544614187933,
          0.1819255145053266,
          -0.15108294760040586,
          -0.2666392341536063,
          0.13051203879052894
        ],
        [
          -0.020598729849306916,
          0.27361318051361305,
          0.07597302505714683,
          0.5086450653900931,
          0.054190952602973165,
          -0.14404233057049276,
          -0.21372112999170037,
          -0.11304819515541566,
          0.4242530558650405,
          -0.13146603081642663,
          0.009365447179477394,
          0.36395095453034754,
          -0.16354447703401628,
          0.016197819915308966,
          0.5039627895052264,
          -0.21694749305022634
        ],
        [
          -0.06164265202130173,
          0.10431230865363478,
          -0.4894917149487012,
          0.2160950084140035,
          0.2804124924633753,
          -0.0036539666006341572,
          0.05211175678518677,
          -0.2597560237417502,
          0.222557125973348,
          -0.21703598537322127,
          -0.2959744416504844,
          -0.30074850608832215,
          -0.20998933033240635,
          -0.052539953014098396,
          2.6278715113141566e-05,
          -0.09651203592361271
        ]
      ],
      "b1": [
        -0.09292957613658512,
        0.1750210342297525,
        0.003302290887563067,
        0.10811025864600367,
        -0.6477821984345158,
        0.08126888509145543,
        0.3008047683690295,
        0.014215008446864562,
        -0.05517809660139339,
        -0.005929649240629418,
        0.1940059145922724,
        0.0917292537686468,
        -0.01614685045759701,
        0.001468856095010963,
        0.1426245583151384,
        -0.04401290630202709
      ],
      "W2": [
        [
          -0.4181164624330921
        ],
        [
          0.25396604954706403
        ],
        [
          0.5061889266708598
        ],
        [
          0.5748108523585099
        ],
        [
          -1.1518973532412164
        ],
        [
          -0.5123153715003708
        ],
        [
          -0.7733430689491324
        ],
        [
          -0.067150457741672
        ],
        [
          0.14558896018868944
        ],
        [
          -0.528035617107166
        ],
        [
          0.3244452853567081
        ],
        [
          -0.11233378371515483
        ],
        [
          -0.20136931289733212
        ],
        [
          0.5234147554476929
        ],
        [
          0.6740771061706297
        ],
        [
          -0.19217362368366775
        ]
      ],
      "b2": [
        0.37409129348426035
      ]
    },
    {
      "n_hidden": 16,
      "seed": 499,
      "epoch": 3999,
      "val_mae": 0.19287925276371934,
      "within_1": 1.0,
      "W1": [
        [
          0.1962209186436185,
          -0.05511516656156718,
          0.23552171440095018,
          0.13923657222021585,
          -0.0002779079675182107,
          -0.1732523336189046,
          0.4288904601157137,
          -0.04922016322415671,
          0.0021189820972718344,
          -0.16945122060089168,
          -0.3658439491903844,
          0.17712509524206616,
          -0.3150323705640689,
          -0.36213597041096857,
          0.3525265049498449,
          -0.034734221183351954
        ],
        [
          0.19276204286856935,
          0.24963775870757263,
          -0.04070808650666495,
          0.19481057186462822,
          0.18019785227746163,
          0.16741817743818255,
          -0.1928514198573152,
          -0.20504748016844707,
          0.24052923267614046,
          0.27552299380559103,
          0.20520612936161545,
          0.06225871128827611,
          -0.38975080918929994,
          -0.0500339508542877,
          0.09147017581382676,
          0.1753315998990202
        ],
        [
          -0.0035447025688908444,
          -0.05417626555362847,
          -0.2736388859464071,
          0.34992656886442336,
          0.31633399743136975,
          0.11182428428799326,
          0.00661930188825131,
          -0.011658421862984766,
          0.23521752988600111,
          -0.12897836958617964,
          0.35224846730510845,
          0.0709742808051987,
          -0.07999602711553959,
          -0.2601830224862408,
          0.21220192131888832,
          0.11549731239424217
        ],
        [
          0.2569658105610066,
          0.0016321747996746183,
          -0.14137554577351283,
          0.023172427887881823,
          0.13597884783222589,
          0.048690275290134734,
          -0.4219067666049259,
          -0.1168629205572523,
          0.24893650542812928,
          -0.006611207815138655,
          -0.21422979934029737,
          0.30330764831308504,
          0.33969031578124,
          -0.45384696136661845,
          0.008079665005846117,
          0.10643329246288952
        ],
        [
          0.32142984862824175,
          0.08287238251941795,
          -0.5312618714800763,
          0.3914352335716446,
          0.08661314654562324,
          -0.1427114216579074,
          -0.0959973527865109,
          -0.591765464429891,
          0.07639520620494226,
          0.016906032083981067,
          -0.5801322034540267,
          0.12532557075319023,
          -0.33355879322628235,
          0.09516473525378932,
          0.03174809531226651,
          0.08070667214747894
        ],
        [
          -0.19236448080478952,
          -0.07158102116826727,
          0.29571285754606563,
          0.5908093300256703,
          -0.05125734587485898,
          0.42591704172612593,
          0.3472747300760032,
          0.032694572021823354,
          -0.09168987996894858,
          -0.2545700738304888,
          -0.09555430109297511,
          -0.07868211620614729,
          0.21077378523369264,
          -0.04441624175652396,
          -0.05730448164341102,
          0.16769243203694456
        ],
        [
          -0.5140913574376608,
          0.0639563734824072,
          -0.05160186918359835,
          -0.04080890297678214,
          -0.42240613169005514,
          0.13235657984524157,
          -0.2522766724810481,
          -0.016065457110154186,
          0.32327674148587465,
          -0.19153427714301144,
          0.3367354927427891,
          0.5935075141510808,
          -0.031530354136021545,
          0.09739573509612663,
          0.33216541358768714,
          -0.04854854754390135
        ],
        [
          -0.020332116194127593,
          0.16008911838326179,
          0.4767295988264527,
          -0.06453914452516535,
          0.09110474325479453,
          -0.48011440806745936,
          0.0791366178268329,
          -0.17463362287002168,
          -0.028940417749647784,
          0.06301446355016671,
          -0.25069257816253215,
          0.24190857298277288,
          -0.1491129984015218,
          -0.3130338621839538,
          0.19956003599533037,
          -0.05283124600153817
        ],
        [
          0.19289182064807867,
          0.12193685892297011,
          -0.46764086081504036,
          0.008265462249794206,
          -0.1714763935508902,
          0.05097969802289562,
          -0.1364110091746,
          0.4302632116788762,
          0.4932257997597695,
          0.34129304276783295,
          0.59954847098747,
          -0.05199096779619702,
          0.039616002953047104,
          0.21612916360935733,
          -0.12035279466505802,
          -0.021843375539301844
        ],
        [
          -0.04638638482571046,
          0.17721879546786562,
          0.1907010369148208,
          -0.16502742428358988,
          -0.00028842918804652045,
          -0.505612643857902,
          0.18148314727726875,
          -0.042467984748361824,
          0.3341210412207819,
          0.07433742651098886,
          0.17638853327808893,
          0.0643602815997538,
          -0.056221020023093975,
          0.4163128936480455,
          -0.18206273385120617,
          -0.33479099296539894
        ],
        [
          -0.1924501290758253,
          0.17997290031744007,
          0.025307959571655245,
          0.2696669329161598,
          -0.005516893228826333,
          0.14516394061722754,
          0.06057093083043085,
          0.023197750711872304,
          -0.07462264050172548,
          0.2593842877783054,
          0.18025059205767788,
          -0.0969920695782226,
          -0.09131637520787884,
          0.11459523841511654,
          0.38394757069280144,
          -0.04394466420872208
        ],
        [
          -0.14587502222469576,
          -0.06465213080198809,
          -0.21304887143286697,
          -0.11204816946469985,
          -0.09329972702992326,
          0.07289619636150892,
          0.23789226173885197,
          0.057768422722256164,
          -0.32837275149508266,
          0.15178460191788073,
          0.12079583507883151,
          -0.5085502451005027,
          -0.020362865592788354,
          0.16225551523836024,
          -0.013050976946700741,
          -0.4427784387005609
        ],
        [
          0.054623043183005905,
          0.1738926138235805,
          0.289631363041598,
          0.3675576806792724,
          0.15026067254344236,
          0.035195167845753134,
          -0.036913872855625494,
          -0.16072295321942387,
          0.07796665199816237,
          -0.062094631502321675,
          0.3477189099775551,
          0.22498679491322907,
          0.07354862413426443,
          -0.3104878990095804,
          0.3593095918041233,
          -0.1387937631813758
        ],
        [
          -0.4828949649646734,
          -0.23806122612185213,
          -0.4313736481286043,
          0.4588996079758345,
          0.4652080469431054,
          -0.022293259833294454,
          -0.22262858656142157,
          -0.17431490125654883,
          0.25635501462027455,
          -0.05480326997606234,
          -0.21682652544943984,
          -0.06945253886721019,
          -0.11774520701484197,
          -0.23396108378335748,
          0.2138785274362841,
          0.33922331066051975
        ],
        [
          0.25600697705222764,
          0.0854829014839129,
          -0.20621400399625395,
          0.3630835285729931,
          0.5607219321612993,
          -0.21810775116088496,
          -0.28954807272240535,
          0.20354009475723514,
          -0.07290495254223528,
          -0.6859368504110135,
          0.1543054957803031,
          0.1821932746537648,
          0.14708335808131445,
          0.05090648290811154,
          0.011601929216352776,
          0.15519722845228764
        ],
        [
          -0.04266837557691816,
          0.049124850252423365,
          0.04991379026704855,
          -0.2891300846818408,
          0.25205014089749517,
          0.40342741543232874,
          0.20764003813482151,
          0.035830675320965975,
          0.47493479492978924,
          -0.427085762910817,
          0.09589855692162612,
          -0.01009486167545556,
          0.31827760776698566,
          0.0706575586298296,
          0.06297856882719281,
          0.25861390511441257
        ],
        [
          -0.13696513463898988,
          -0.11620921439674411,
          -0.26626860697912463,
          -0.7477493903848845,
          0.16758508864776403,
          0.4669787829303236,
          0.03513531364441491,
          0.2546046145172244,
          -0.04390815452562216,
          -0.27923349189551205,
          0.3562920035646285,
          0.49706232432303715,
          -0.011053871434043691,
          -0.06320863218959251,
          -0.3223476721498083,
          0.29592641238780465
        ],
        [
          -0.061368860700163494,
          0.7587163474966904,
          0.0659052380287305,
          -0.06643442764182125,
          0.05395323865228063,
          -0.007846159318117895,
          0.19974694963344947,
          -0.02935220100780904,
          -0.1972454812383701,
          0.06308944899477717,
          -0.050614224353836515,
          -0.30536179234093785,
          0.7276303771141783,
          -0.06710404017619333,
          -0.4596058566368213,
          0.18762696702770437
        ],
        [
          -0.02669417023404473,
          -0.08826202412407856,
          0.7037897105356533,
          0.7001236389911439,
          -0.10406040427383724,
          -0.05807191690234873,
          -0.2924948430425372,
          -0.18364301907337255,
          0.16473790532609148,
          0.3131885461646085,
          -0.13838820646105124,
          0.15486960525422983,
          -0.03612313254008243,
          0.31671235054085656,
          -0.2653415217468021,
          -0.07241229191576773
        ],
        [
          -0.0020677310897627837,
          0.23429743699565184,
          -0.41894963097880145,
          0.07228158054484429,
          0.05729558129538414,
          0.4464051350982317,
          -0.5503181231753007,
          0.39603491649712397,
          0.3454809924649919,
          -0.3277685728179441,
          -0.34033923417909645,
          0.038846254121599144,
          -0.03320398029917518,
          -0.2292854672247804,
          0.005509248912062533,
          0.30849976871549445
        ],
        [
          -0.24340810601068236,
          -0.021044247855373097,
          -0.1795126187164551,
          -0.1531305741494424,
          0.04163838729782291,
          -0.019668001386464726,
          -0.09702075192240446,
          -0.20494035119901918,
          0.0780352412456453,
          -0.04313783964019164,
          0.2615510097461928,
          0.09826824279249594,
          0.1133317892047767,
          -0.026958633028270316,
          -0.012448553528030606,
          0.5889520265807299
        ],
        [
          -0.13810644778301914,
          -0.1295903285662408,
          0.3230532483301888,
          0.01663684671385924,
          -0.009216947398967128,
          0.04872533896907098,
          0.13207454903289167,
          0.046683471463396485,
          -0.11602874993647315,
          0.07365226342246736,
          -0.3979871436635432,
          -0.3769490002116162,
          0.10200645828106286,
          0.12488282449523617,
          0.01030752580059562,
          0.3640923381226747
        ],
        [
          -0.2042294443778864,
          0.3624190140281776,
          0.06581250826199037,
          -0.28396228166579185,
          -1.1260873872672084,
          -0.008169260926730417,
          0.42646491915169304,
          0.4070599458694738,
          0.16417847890297857,
          0.15358133457952716,
          0.04340129876203689,
          0.30386423389108985,
          0.17232811958603067,
          -0.3384549702590106,
          0.09168395955045752,
          0.2529885612946494
        ],
        [
          0.4380865089259814,
          0.2822674145256605,
          0.26884284506075806,
          0.19200713880471412,
          -0.48900289035968897,
          -0.19152145869364406,
          -0.18740568873013064,
          -0.006270408082033196,
          -0.3494734747985793,
          0.3586922591288545,
          0.4719014840610184,
          -0.06696531124925098,
          0.22590966122687253,
          -0.3712441993219079,
          -0.28891389605835976,
          -0.16603510287293105
        ],
        [
          0.04387771098791185,
          0.34537722918573954,
          -0.01863799843144374,
          0.17207632492647662,
          -0.004375022205786956,
          -0.40624914157671627,
          0.9782340866209855,
          -0.08370240491113201,
          -0.48505738089472744,
          0.04391994830890575,
          -0.016417303428186893,
          0.07749750216430598,
          0.3251698490553698,
          -0.23656921724121951,
          -0.11184075801120269,
          0.18116581020196063
        ],
        [
          -0.43596699143542056,
          0.21501259341699008,
          -0.39470278694853717,
          -0.017481927377521998,
          0.004994406130912105,
          0.3992933420292371,
          0.1646648455416959,
          0.16593971466512536,
          0.006185806248902148,
          -0.21591346184083235,
          0.1958817816532504,
          -0.1102072534274044,
          0.18244798283101826,
          -0.4117828030351942,
          0.19153728741162773,
          -0.47871833324909263
        ],
        [
          0.3720958878778953,
          0.10230836022392871,
          0.1209857946520781,
          -0.20453547943846082,
          -0.03188319578060395,
          -0.030509189113708896,
          0.040247909327363544,
          0.21511771308128047,
          0.10690018254464968,
          -0.4965282986524486,
          -0.1130229074670962,
          -0.0753492130388801,
          0.34215902895204475,
          -0.3572148344458441,
          -0.03267258745484948,
          -0.1655184253231054
        ],
        [
          -0.03325245201022877,
          -0.15830581307330022,
          -0.0705815734931621,
          0.052861645464245086,
          0.06796818639166817,
          -0.4238137296009146,
          0.09013181293221674,
          -0.22348814696726174,
          -0.23045626020535084,
          0.33291441154533136,
          0.2953628338482661,
          0.1224071171965798,
          -0.20912193542008248,
          -0.2101864068510108,
          0.23131673781650466,
          -0.2494432693281696
        ],
        [
          -0.2031344928120121,
          -0.22794103568365606,
          -0.4917360540178874,
          -0.06905365008547687,
          0.014848584368265956,
          0.29710552690932207,
          0.008599695759929535,
          0.5735586079665804,
          -0.12982183257781627,
          -0.17990453629826036,
          0.03555829862651388,
          0.32983400093676685,
          0.02635796575636933,
          0.046919680163766096,
          0.43537422163641776,
          0.3300551307257284
        ]
      ],
      "b1": [
        -0.18704968758259127,
        0.1998033998969183,
        -0.13491415675513543,
        -0.11814941965063633,
        0.3661407284689783,
        -0.16362135136829364,
        0.06710469308274986,
        0.015718158059725876,
        0.012534557419845048,
        0.37263676593919726,
        -0.04959335054156908,
        -0.2561195159707478,
        -0.08245040675590459,
        0.1489578202677943,
        -0.08495177434268984,
        0.002043512496783942
      ],
      "W2": [
        [
          -0.39923895317282243
        ],
        [
          -0.7315180129116394
        ],
        [
          -0.11051570438381274
        ],
        [
          0.7574490932209975
        ],
        [
          -0.40572790424250993
        ],
        [
          -0.993267199115863
        ],
        [
          0.300308793573268
        ],
        [
          -0.4624304949141142
        ],
        [
          -0.40960819366000273
        ],
        [
          0.7914062450580777
        ],
        [
          0.18571693535694406
        ],
        [
          0.6134547504002696
        ],
        [
          -0.06224892682172837
        ],
        [
          -0.3355797966302159
        ],
        [
          -0.32472118856892745
        ],
        [
          0.01483071047898965
        ]
      ],
      "b2": [
        0.5415098586182067
      ]
    },
    {
      "n_hidden": 16,
      "seed": 991,
      "epoch": 850,
      "val_mae": 0.19357360493017747,
      "within_1": 1.0,
      "W1": [
        [
          -0.1837082689679693,
          -0.11981339083242636,
          -0.16866351227021367,
          0.16640163117617587,
          -0.07007676495685776,
          0.2011085909362619,
          -0.10124606414116963,
          0.08103493997282839,
          0.26538385736622355,
          -0.02083609195572521,
          -0.08473246048187306,
          0.30148446901885306,
          -0.12947131056606562,
          -0.35912143809607916,
          -0.2577596155580302,
          -0.12187518443513931
        ],
        [
          -0.2443430619216182,
          0.23319543021163255,
          0.2546923559639373,
          -0.36375346006832293,
          0.10833639292054986,
          0.05275408539794952,
          -0.08447013127149595,
          -0.25685871078919104,
          0.13619034968437013,
          -0.17725448546365108,
          -0.22424539550204095,
          -0.03819787242174746,
          0.1126484702620406,
          -0.03913812192813182,
          -0.0485324624023205,
          -0.08560447633922062
        ],
        [
          -0.0347920835853679,
          -0.3445651588007783,
          0.05540885181225859,
          -0.1938609297090793,
          0.04275682934844623,
          -0.11123575473742409,
          -0.19568046107195328,
          -0.18136089585250986,
          0.048280991399977664,
          0.020142174959509842,
          0.3901848530821069,
          0.033112157554807654,
          0.06290081473023798,
          -0.38824597075928224,
          -0.37284676123596555,
          -0.10406526652836794
        ],
        [
          0.28302340908934315,
          0.1466319276298987,
          0.0691066472960398,
          -0.14187639258736348,
          -0.13915437490282423,
          0.09516402750157349,
          0.09794523901959364,
          0.3976113851204333,
          0.20636753098313082,
          -0.1796089140832856,
          -0.018707209256403803,
          0.3053311330431532,
          -0.005977957595229797,
          0.28381881528514225,
          -0.1628981080309735,
          -0.05804159820220391
        ],
        [
          0.31607946928984926,
          -0.19718500904267752,
          -0.24969200715232834,
          -0.2850719952393677,
          0.3415021239175717,
          0.1577032778914975,
          -0.18390281092348043,
          0.39175031151748496,
          -0.2596753323117936,
          0.27700335607298826,
          0.35868080012034687,
          -0.3372843925596546,
          -0.30123525193719675,
          0.12434737490526729,
          -0.18485072065229877,
          -0.16459488070439252
        ],
        [
          0.06425778148585033,
          0.08911284584727319,
          0.0212750333841351,
          0.20329279566183828,
          -0.4405281127262117,
          -0.034480343486857336,
          0.5882104023642033,
          -0.15187154100992806,
          0.14708738334931584,
          0.5293666257027694,
          0.21244639380020308,
          -0.22645705351170356,
          0.26481216261049423,
          0.0952962170272161,
          -0.17101330559038083,
          -0.5367191316675036
        ],
        [
          -0.23133124665185018,
          -0.29703967473797016,
          -0.12852099033504424,
          0.18143975285277816,
          0.3421521852560893,
          -0.19519875279840454,
          0.07292624614167191,
          -0.14551721035787243,
          -0.03887411257936084,
          0.0905455532370602,
          0.047613314983164214,
          -0.19813131343012694,
          -0.11584980168059548,
          -0.06895278858442305,
          -0.1912032591725283,
          -0.1412878920127328
        ],
        [
          0.08246012870252237,
          0.2725310300947844,
          -0.22150030226060363,
          -0.01137952599812545,
          -0.3642514150199951,
          0.24939042242629,
          -0.254204886941025,
          -0.15051593933286123,
          0.30594868450888124,
          -0.1766436589806573,
          0.12476512389526197,
          -0.4019979989449607,
          -0.5824736000097108,
          -0.08118063959857734,
          0.04510317112969481,
          0.012954926886758922
        ],
        [
          0.1279358991690845,
          0.06295922929086047,
          -0.28492226618917604,
          -0.28410912042704917,
          -0.33317163843420544,
          -0.2380158332124675,
          0.34838564407768907,
          0.41072281988850295,
          0.010235652290253784,
          0.14685771394279554,
          0.34047682135440477,
          0.4383047146463919,
          -0.12241417392165264,
          0.3130915377331771,
          -0.6055795212907965,
          0.01763502036039938
        ],
        [
          -0.0047792825723438626,
          -0.4543691336059111,
          -0.2790565029700072,
          -0.16653061082591236,
          0.21479403855074433,
          -0.30282331356683995,
          0.10568677700101375,
          0.004720817573503532,
          0.3123666301129288,
          -0.372077957570004,
          0.04934471037986057,
          0.43785146724190854,
          0.11101302052164291,
          -0.5735839575120828,
          -0.3861833157633485,
          -0.0646513873810665
        ],
        [
          0.09481668258072629,
          -0.06523377828105481,
          -0.301905352659937,
          0.4673171933612657,
          -0.08521008519784411,
          -0.17188529392890364,
          0.29908448013776795,
          0.06351783069871124,
          -0.02908266744951124,
          0.32199819424277776,
          -0.4399996970405495,
          -0.1331433721224999,
          -0.23341280267608094,
          -0.279552601793582,
          0.4519857168640669,
          0.06592703305675518
        ],
        [
          0.046846151430593376,
          -0.050228680895278245,
          0.437713087730959,
          -0.1293702057513869,
          0.03579970676843267,
          0.08553181453947284,
          -0.47755392835161153,
          -0.016726853619056514,
          0.2908369693910608,
          -0.21874528630633683,
          -0.044633297466726396,
          -0.3107004945352732,
          -0.1209617319821497,
          -0.038139315230887316,
          0.2510332646803707,
          0.1828015285675636
        ],
        [
          0.09238494442355046,
          -0.09861815852297277,
          0.03804617007679695,
          0.04660915685299625,
          -0.18637367860392687,
          0.14819163871595298,
          0.24266006915106336,
          0.32907992744593884,
          0.17626711656517816,
          0.37318644215146063,
          -0.17455727649990743,
          0.08015849180246959,
          -0.07835545996438803,
          0.34035279797846096,
          0.4263456274859338,
          -0.19079738010376687
        ],
        [
          0.557924726907418,
          0.188231332670048,
          0.2756069561224297,
          -0.07835355684998332,
          0.12454609063024517,
          0.14693875639849133,
          -0.12452576431432918,
          -0.01971059823574103,
          -0.014571387166089841,
          0.349588628839232,
          0.10733997680401224,
          0.22968795712416828,
          -0.10769843973351748,
          0.21347056168193657,
          0.31626409471446126,
          -0.07037522818361466
        ],
        [
          -0.1981489391550694,
          -0.31636908169723477,
          0.2042109193769693,
          -0.3406840823604271,
          -0.16283129586081918,
          -0.31107261342857107,
          0.22952851052503198,
          -0.1412301646141821,
          0.02642213640982731,
          0.36787511914056253,
          -0.11265616771000872,
          0.261880799701564,
          0.039654047704943664,
          0.22143300601234928,
          -0.26945706995581925,
          0.08596710272592459
        ],
        [
          -0.5606302763606493,
          -0.22761690293857917,
          0.3230286178362333,
          0.04667641463012701,
          0.2846110375931782,
          -0.09645689257133909,
          0.021921520943271506,
          0.12576814047069346,
          0.2711252976559324,
          0.07964705391136158,
          -0.38876486128823257,
          0.4446357092470415,
          0.5033308949752242,
          -0.08702385654489145,
          -0.19858348924738636,
          -0.46140029812267225
        ],
        [
          0.28752874489454755,
          0.1707083647709674,
          0.04154480973581467,
          -0.03731579051744641,
          0.11164133605746547,
          -0.20724005972221216,
          0.10962121400751969,
          -0.005155172464867587,
          -0.090999705264741,
          0.0016412483086054267,
          0.05853142940377331,
          -0.10175997447702184,
          0.420162572742495,
          -0.07187001271201901,
          0.2015556328111146,
          -0.29866418398160594
        ],
        [
          -0.14796599181254239,
          -0.019353269368971176,
          0.11941379066535746,
          -0.5282380255196544,
          0.03237928822489181,
          0.3746995419857875,
          0.1104756263393829,
          0.4737081384097621,
          0.2267955881299944,
          -0.3495125666584184,
          -0.030186531169591666,
          0.24257017449215812,
          0.13651139583526364,
          -0.29728560937890713,
          0.46776587161966054,
          -0.49981800259753506
        ],
        [
          -0.13540454424928924,
          -0.17039391331454803,
          0.09899082471075066,
          0.19854322986288517,
          0.14549334026697835,
          0.07929785298745803,
          -0.16219933537059697,
          -0.08651001232790775,
          -0.0002950545728897475,
          0.14325249899710882,
          -0.30435372390878745,
          0.37667584640186275,
          0.09245887036759416,
          -0.03848157178607403,
          0.07453288340502358,
          -0.17398690151777407
        ],
        [
          0.04597443994302138,
          -0.0574705275906296,
          0.35690458628610194,
          0.13349637097236688,
          0.2292237794170986,
          -0.013608024591545021,
          -0.1162035393087115,
          -0.7424547712957441,
          -0.28815803985112615,
          -0.23421215810908813,
          0.4631111490551281,
          -0.31993193740924514,
          0.5501378514079368,
          -0.4607491786978416,
          0.1510123998460259,
          0.3502217302481317
        ],
        [
          -0.3292178754758907,
          0.18339128558583623,
          -0.10181105095315113,
          -0.07006267181175405,
          0.40577012471428375,
          -0.16761365627971092,
          -0.22038581729142978,
          -0.5335423891942208,
          -0.30436182019381847,
          -0.1281513982329457,
          -0.21771774577013697,
          -0.04892342386234664,
          -0.020230416355463687,
          -0.009127891166125661,
          -0.10935978502721096,
          0.2693677272908894
        ],
        [
          0.09373234475749369,
          0.1230900912641769,
          0.2121627754226307,
          0.02662070533534934,
          0.26679079937912853,
          0.3440417528363674,
          -0.25350039534891,
          -0.3013230614393098,
          -0.22466861363337723,
          0.14774957370244518,
          -0.243232905488305,
          0.10535514493339976,
          -0.1036983636445797,
          -0.026611533470028724,
          -0.24688166221695004,
          -0.00160701738121295
        ],
        [
          -0.20468092537515187,
          0.20341574123319264,
          -0.19145358051827843,
          -0.09383436907425018,
          -0.21267209020294967,
          0.015980766219869883,
          -0.18248601887928434,
          -0.30765461938501165,
          -0.35255884940332305,
          -0.07729506783747321,
          -0.26477307887624885,
          0.042326366522945545,
          -0.7038097313802445,
          -0.06062893513504791,
          0.2470998533232751,
          -0.08969189964073844
        ],
        [
          -0.6730919270473303,
          -0.3953784119892225,
          -0.4895595925610668,
          -0.4914585155361814,
          -0.363220616982432,
          0.29802617083930555,
          0.014505123944922725,
          0.2624451764775136,
          0.4591898791555603,
          -0.03401837304773029,
          -0.193432033109533,
          0.42678574268241615,
          -0.7343461679218115,
          -0.3175944569531837,
          0.05528711651423515,
          0.028920287895177962
        ],
        [
          0.3052776767996321,
          0.3443600151991134,
          0.069058129840917,
          -0.10803008377432519,
          -0.09924733968898646,
          -0.14005713699774566,
          -0.2693679725890401,
          0.15905399666183684,
          -0.1670410632820579,
          -0.026768044150866595,
          -0.14476276728083057,
          -0.3822159761511688,
          -0.24453444677074368,
          0.3282517993935416,
          -0.2375409767155613,
          0.07610054583280178
        ],
        [
          0.005884902598174324,
          0.28540115632295765,
          0.019753631157457336,
          0.23271058930714272,
          -0.2517133116179078,
          -0.44148088612925845,
          0.33877871813378424,
          0.006432201938887408,
          0.24625031323077096,
          -0.037945910936806694,
          -0.029945648290172044,
          0.11517478184015227,
          -0.017828091127071673,
          -0.006639472074305903,
          -0.3822550758876143,
          -0.5054874905190038
        ],
        [
          0.05020774958494139,
          0.3874495601869876,
          0.37610661649130467,
          -0.16431316511779412,
          0.026215000587734606,
          -0.5385775772645257,
          -0.0929013356683461,
          0.08650317390057796,
          -0.3924889109512466,
          -0.013029785630789536,
          -0.12210726270655803,
          -0.05665808729283242,
          0.24893277305127937,
          -0.6881803874844641,
          0.27920545235644406,
          0.398086400281584
        ],
        [
          0.20493739759489937,
          0.04680627438870468,
          0.11420772450280295,
          -0.19479026837362493,
          0.06964746940668025,
          0.8476537294027687,
          -0.1543802002275927,
          0.023987160964703404,
          -0.09096189070607774,
          -0.457863743193292,
          -0.37354451410928347,
          -0.08248399607487299,
          0.4611318104609031,
          -0.15624023657724753,
          0.05018721306177779,
          0.7130288787933673
        ],
        [
          -0.07516439748230637,
          0.42303569449788114,
          0.3047579452065493,
          -0.3350410474490431,
          -0.2972945955713313,
          0.08353020642865473,
          0.20247178614635264,
          0.16766178103568333,
          0.24805806063550487,
          -0.28510844321197704,
          0.15276696666570616,
          0.12864426293867254,
          0.11826798650230223,
          -0.1416704412793831,
          0.3014794353044925,
          -0.0041007302875353925
        ]
      ],
      "b1": [
        0.04606151677168234,
        0.023376945295228376,
        -0.0470420877683251,
        -0.05043552045208487,
        0.26302246055784795,
        -0.009510487031046145,
        0.056260856491651176,
        -0.005682149394931474,
        -0.060752145259476385,
        -0.08307967851553212,
        -0.052472466915661604,
        -0.06898225759956458,
        -0.07022266002519795,
        0.15217881291713875,
        -0.0764210089451949,
        0.6707215110827279
      ],
      "W2": [
        [
          0.22432234239777332
        ],
        [
          0.10514607518000332
        ],
        [
          -0.5029921547137245
        ],
        [
          -0.5627597816937937
        ],
        [
          -0.417688499555115
        ],
        [
          0.37148320200623475
        ],
        [
          0.4360459215731146
        ],
        [
          -0.08677486150615821
        ],
        [
          0.1512333156302333
        ],
        [
          0.3545641042862068
        ],
        [
          -0.1511783973611954
        ],
        [
          -0.45325452153707524
        ],
        [
          -0.769889126817771
        ],
        [
          -0.3385825951579213
        ],
        [
          0.03878652261609452
        ],
        [
          0.774070842779813
        ]
      ],
      "b2": [
        0.33134548184484097
      ]
    },
    {
      "n_hidden": 64,
      "seed": 1606,
      "epoch": 400,
      "val_mae": 0.1935830222232742,
      "within_1": 1.0,
      "W1": [
        [
          -0.030455093370710687,
          0.09295339149419402,
          0.10688948357903791,
          -0.0034273408463882963,
          -0.021623114407279893,
          0.060823447584731294,
          -0.21392458233027056,
          0.48093842892120936,
          -0.42994116312850816,
          -0.16919163876624826,
          -0.26762084576223555,
          0.38791543786208177,
          -0.09512683343725843,
          0.34732895488447685,
          -0.2533368363882727,
          -0.050038026949272764,
          -0.15765061035480316,
          0.521071135480897,
          -0.09814436453310643,
          -0.1756279625295298,
          -0.10322321991539969,
          -0.035812659056623626,
          0.1314920588966073,
          0.1533533529777417,
          0.17632628636877098,
          0.2563266999894101,
          0.1796891549554077,
          -0.5108006727786703,
          -0.17494174310945862,
          -0.16833900369649415,
          0.1918761416865888,
          0.005661382535070322,
          0.2887889692217238,
          -0.5300309450655701,
          -0.24631534159007834,
          0.07771891127650019,
          0.2856180739472492,
          -0.3868475130710268,
          -0.0707960694726561,
          -0.12359778559100416,
          0.1644893002907968,
          0.7907445841899375,
          0.3312776258227319,
          -0.44021913063874535,
          0.41261098463044693,
          0.15434197574784916,
          -0.1932393387319447,
          0.13248178168176195,
          -0.552058729357959,
          -0.1261673259621169,
          0.02912518737941106,
          0.26467427667531357,
          0.08181006922301855,
          -0.020899490550775498,
          -0.1759687643075735,
          -0.24135310624750836,
          -0.24303386575732455,
          -0.26763406438825826,
          -0.5141084764047843,
          -0.34327032611820457,
          0.12765720941523015,
          -0.15712328170167827,
          0.04427663555450614,
          0.136339587791022
        ],
        [
          0.33695188547187666,
          0.7427948420085319,
          0.2534129021593418,
          -0.42772703214183594,
          0.14973451853560493,
          0.04970661528655753,
          -0.05962079589610738,
          0.07519320792266378,
          0.20166267122000808,
          -0.5289167708354688,
          0.15624662359176522,
          0.12756038174374026,
          -0.16427269613089326,
          -0.011348140908422554,
          0.09212955614592269,
          -0.0021854520750820973,
          -0.23240655330659743,
          0.21508564517487688,
          -0.05694567344594811,
          0.11428421625272475,
          -0.37095514941946534,
          0.03857305863469614,
          0.0010462851501367736,
          0.4413360579179375,
          -0.0015076666977053394,
          0.449167432776504,
          0.023611293413506693,
          -0.43397607424865375,
          0.29855777467868433,
          0.2531788485076913,
          -0.3573986113937046,
          0.6172418407720007,
          0.2948324638045546,
          0.24710689424521162,
          -0.19904846165086929,
          -0.036718713615527025,
          -0.39978380267569114,
          -0.102554293582415,
          -0.29717008816053253,
          0.43666981468170707,
          -0.11480328615723788,
          0.4540788290423251,
          -0.05205089581558383,
          -0.2818155634308712,
          0.16272073497870787,
          -0.3831136825537396,
          -0.19617140779306746,
          0.13800769329360402,
          -0.24445245139596036,
          -0.05810466720467375,
          -0.3697912256565612,
          0.018395882783648204,
          0.34072442943919423,
          -0.0807271604273343,
          0.07466426627747974,
          0.29646369267560324,
          0.21978901554743263,
          0.16736250800868316,
          0.19378974388843043,
          -0.005940195605564934,
          -0.4158192378599684,
          0.09047831585844705,
          0.09566561164932628,
          -0.10738421906858862
        ],
        [
          0.19104634460058842,
          0.10777600193085254,
          -0.016413015292652166,
          -0.20751989497528903,
          -0.08335033955175919,
          -0.03755189379241217,
          0.27252029150902723,
          0.18758871040331496,
          0.46839248226531066,
          -0.07711993511616239,
          0.31662471513556645,
          -0.2375243141584503,
          0.06697915678377458,
          -0.08795214590823389,
          -0.07542386706996387,
          0.45348822215807605,
          0.12097963235957165,
          -0.49382177814335815,
          0.09562376491358195,
          -0.012648431964827662,
          0.1636117711040903,
          -0.018707117384724293,
          0.043019466912875295,
          0.41052715196222966,
          0.00083690742274136,
          -0.20277039533511074,
          0.2771361306345581,
          0.4138698623177606,
          -0.22884790136581798,
          0.10108724519228188,
          0.30094589008173855,
          -0.306151641713756,
          0.19289892475392173,
          0.0546727899962675,
          0.28689517648265167,
          -0.24462803041703052,
          -0.29343017914798103,
          0.0860983078002878,
          0.21437229604726296,
          0.4324895826020605,
          0.2469611637483078,
          0.121738915513854,
          -0.11884462288474376,
          0.19857562354873587,
          0.020387307335493304,
          -0.006490794606517312,
          0.20556853281619908,
          0.14423126364068709,
          0.19509711832408994,
          -0.2861984367305662,
          0.057035139622917216,
          -0.2408162730028602,
          -0.3630443575180285,
          0.2520886856790294,
          0.39198325834331654,
          0.38143153641705857,
          -0.023791322371257813,
          0.05155210999459689,
          -0.27747296969167273,
          0.2507411736121471,
          0.239275213893625,
          0.21024493382898443,
          0.11942250395426639,
          -0.15875587098755645
        ],
        [
          -0.3887401226696237,
          0.07040152064252485,
          -0.32500473344663866,
          -0.06555614219435556,
          -0.6203983491451266,
          -0.19533225241868485,
          0.35754074724138923,
          -0.123470158819897,
          0.04983389346439839,
          0.08378019227391795,
          0.08970115390663927,
          -0.045477704186082324,
          0.14910432048578304,
          -0.09594645336137009,
          -0.289561624928846,
          0.4496604652033452,
          -0.09333693020097655,
          0.033904983894476784,
          0.15450909852877914,
          -0.14208888100318137,
          0.19664883854166199,
          0.02087474344814596,
          0.15348785689150243,
          0.4968119973417213,
          -0.03494831029827198,
          0.5102178490919183,
          -0.764911825816472,
          -0.07954118951617768,
          -0.12142685013467643,
          0.11236710175818648,
          -0.32255003793603965,
          -0.11475099715121222,
          -0.17118806664052083,
          -0.13883842368630764,
          0.25718928515927486,
          -0.2059482462133181,
          -0.3402821898769166,
          -0.2878642603488783,
          0.11056336226676483,
          0.23650402998368814,
          -0.13587870713153913,
          0.34884160462670444,
          0.49605022144474864,
          0.40314106988908033,
          0.34611099630994163,
          -0.10759406213315813,
          -0.06858948677992606,
          -0.20663967132514305,
          0.06065029127987636,
          0.09204070562621547,
          0.13162193317426377,
          0.385354759499122,
          -0.03424479798525125,
          -0.16568057182868004,
          -0.2960443040653669,
          0.013609624039450454,
          0.236335015137667,
          0.32166408330207386,
          0.09453284536347197,
          0.4956859818461878,
          -0.6080637036629535,
          0.20373082229918915,
          -0.3959879255281793,
          -0.006010781522082457
        ],
        [
          0.027728097561928972,
          -0.053435039497215335,
          0.17597560095804554,
          0.31550184914867907,
          0.29745248082323206,
          0.2741127335536791,
          0.09143297308428397,
          0.03240845519357596,
          -0.18309726384952485,
          -0.27214059901724075,
          -0.37326400619089106,
          0.065813702897113,
          0.04572054241218942,
          -0.09097068988762227,
          -0.27094288743864015,
          -0.0017675763176446444,
          0.03238722507276681,
          0.2900230726655106,
          0.38939136313550854,
          0.24023907564485728,
          0.005423560637826122,
          -0.19723719097292683,
          -0.13780408736593305,
          -0.06831986360138627,
          -0.23476604875479137,
          -0.1062744413056372,
          -0.10522083240400346,
          -0.47297572369508956,
          0.01860265769585559,
          0.06783559672468646,
          -0.06150002200688937,
          0.33595394745064866,
          -0.05837774758690342,
          -0.13013085123092935,
          0.21057364545160334,
          0.19877950659077037,
          -0.13449810969716464,
          -0.07319110188373419,
          0.23602047712057794,
          0.01105418354008622,
          -0.36298369671776165,
          -0.36598629205920236,
          -0.17443759894582567,
          0.00223487031605401,
          0.13677801963419864,
          0.08398772675124902,
          -0.3217105316335511,
          0.1190048760212161,
          -0.1466636555758698,
          -0.144932999164905,
          0.12364075951857416,
          0.4152757613851757,
          -0.10962810421707395,
          -0.010159641629182892,
          0.023329358533363178,
          -0.49676101630651653,
          -0.0429553663689942,
          0.03508318722025524,
          -0.6721827732199651,
          0.1721638640232995,
          -0.14014400078464156,
          -0.13000754482930993,
          -0.4168978715371072,
          -0.01439471940206112
        ],
        [
          -0.08205833535401463,
          -0.1204920398319396,
          0.05863991998953811,
          0.13122665916675197,
          -0.06190001541663828,
          -0.2494971307370682,
          -0.1668447300347459,
          0.30193492274304967,
          0.1390878513357566,
          0.444451607174604,
          -0.2860164703769546,
          -0.27995743035806,
          -0.3601079421931918,
          -0.15474280501459833,
          -0.12946113602986853,
          -0.4526784654992944,
          0.14647819475541837,
          -0.20348159863611384,
          -0.06818811782265374,
          0.12498166343368473,
          0.0601122530292254,
          0.14947230115068022,
          0.3843127551262341,
          0.016043531075575452,
          -0.2461334776315157,
          -0.46237541950305816,
          0.08144051833522895,
          0.5183057748670018,
          -0.27888974011275053,
          0.11597657407782198,
          0.6211632855970491,
          -0.052910435146605865,
          0.20656262156381489,
          -0.4623852957407423,
          0.10443853745024369,
          0.05384885745582891,
          -0.0179932743868374,
          0.1124499505151837,
          0.08626053642935139,
          0.0884382550046401,
          -0.38612648008417944,
          -0.4439108766222508,
          0.07114653395904366,
          0.12145332755710146,
          -0.04470024199524034,
          0.04218821782479123,
          0.13261077724695192,
          0.378074006845256,
          0.41497336231652315,
          -0.1379523916783203,
          0.22506889438468525,
          -0.06433342882108893,
          0.40793355706487383,
          -0.2893592813993784,
          -0.20274784160476142,
          -0.13664330401967612,
          -0.169865460751245,
          0.2935487093092354,
          -0.14173787770391486,
          0.23200153988528352,
          -0.3046680186403788,
          0.2560442205541751,
          0.35071796875832323,
          0.31796656246659594
        ],
        [
          -0.4508079670769557,
          -0.14815398135927604,
          -0.08233447025754469,
          0.31008631586636165,
          0.28774822133073913,
          0.21347854654799192,
          -0.14555238060358713,
          -0.3014992892528152,
          0.07531458040634186,
          -0.24890064950773458,
          -0.05828522366655795,
          -0.008815365133573361,
          0.24993394565106125,
          0.14280247569814786,
          0.5224792393455364,
          0.05537471051686331,
          -0.365478009850197,
          -0.07677126307931804,
          -0.26678804205544526,
          0.06209752912163415,
          -0.2353435630940871,
          0.18706624543663383,
          0.01945649622554579,
          0.126259134190562,
          0.2588128245674322,
          -0.08176944158135607,
          -0.5938643600523754,
          -0.5492228711041446,
          -0.12129144135138953,
          0.46877430347560206,
          -0.12477545732371534,
          0.1596016553758966,
          0.10429014300801696,
          -0.10986928620439364,
          0.008887076008892035,
          -0.09668797229396434,
          0.29321429383682873,
          0.09850856356415592,
          -0.026237391565975467,
          -0.47543487316411626,
          -0.042466957338391044,
          0.20113456213616457,
          0.40959609585070256,
          -0.07299147089955908,
          0.06836370589670866,
          0.3102436307204909,
          0.08087276542007786,
          0.23462644684870834,
          -0.06105134589832853,
          0.1356884005654143,
          0.03868242282830407,
          -0.09828361343257784,
          -0.009261419580162002,
          0.24172422278015687,
          0.14574424376783987,
          0.23427706331358572,
          -0.1576054180804967,
          0.06392983752345967,
          0.0676899862208965,
          -0.09430272221313729,
          0.3305631087718157,
          -0.20896812459643999,
          -0.051592739041689366,
          0.09706457177444613
        ],
        [
          -0.5373447026842088,
          0.11133183406147662,
          -0.12503817158638994,
          0.2604915650591011,
          -0.30201561122515713,
          0.014949811908506454,
          -0.23083995238789665,
          0.03692661600494753,
          0.030983735460580177,
          -0.49968387008406107,
          -0.36297152333240523,
          0.18882024412962448,
          0.10985530146023004,
          0.1970030326205863,
          -0.019175694290762525,
          0.27959128288436313,
          -0.40799113066549425,
          -0.03162802059460841,
          -0.3413282093212356,
          -0.5143897756392025,
          0.11219581861256717,
          0.17115893664643633,
          -0.22030376805774382,
          0.14795904466258222,
          -0.11165642271588459,
          0.13108865086284674,
          -0.11385923147716388,
          -0.1392339791745596,
          0.22988747800226,
          -0.05843457514104061,
          -0.11028129159611542,
          0.48479473931264144,
          0.6504137606984298,
          0.17301358305879178,
          0.26930560455487695,
          0.22460072494555383,
          0.29489993119125607,
          0.18937079086906158,
          -0.499975480698992,
          -0.2417592291104633,
          0.40748478408751393,
          -0.26493494644428917,
          0.279773458750463,
          -0.1421613349333539,
          0.009592070285158138,
          -0.1049693221971534,
          0.3077977504557052,
          0.1447982266959488,
          0.15092978472263177,
          -0.11001993586269108,
          0.07631485523372974,
          0.08207517383774748,
          0.17912937580132912,
          -0.4889658041781085,
          -0.2393958310482836,
          -0.36624506715105437,
          0.5545115005479154,
          -0.051087623325871134,
          -0.03164726638666813,
          -0.18653136394677156,
          -0.29289470864887474,
          0.4954010691283539,
          -0.171027481410563,
          0.45267613445160937
        ],
        [
          -0.0441870775865136,
          -0.3202314028840716,
          -0.2425855359956541,
          0.2373347465068416,
          0.2186844996752447,
          -0.014637509124004543,
          -0.12298308489245759,
          -0.08534699673860492,
          -0.055565622117852355,
          0.17111371723392882,
          -0.1598215480196769,
          -0.4950160399775492,
          0.5079879190236614,
          -0.06712620286923408,
          0.08927544503816923,
          -0.16053188144932792,
          -0.39999228616366594,
          0.4755222865501515,
          0.45928132133921734,
          0.03729594639205891,
          -0.09521509839916541,
          -0.3706706943775499,
          0.08134450422364217,
          -0.15174955053555678,
          0.20303939185333233,
          -0.03402808985978601,
          0.06600541482187122,
          0.07060764489368264,
          -0.3531085329313518,
          -0.29977097739655006,
          0.38299268908941575,
          -0.4983022619501763,
          -0.4476029118837061,
          0.05460165741164752,
          -0.25741998058550997,
          -0.24411800778781226,
          0.2187295337165724,
          0.1554592798333693,
          0.42103834517802424,
          0.029668149320346213,
          0.038657597574874095,
          -0.017916530809422446,
          -0.18609059737166916,
          0.1454362791265526,
          -0.42879200111910404,
          0.23011782667094058,
          0.046476761559315155,
          0.1385108436465172,
          -0.22367676145605803,
          -0.13835578533524395,
          0.19866653043673907,
          -0.14293169434582262,
          -0.30853268197842765,
          -0.11016568772351783,
          0.27511522577840763,
          -0.545252348874539,
          0.12100812928162753,
          -0.13214391287222804,
          0.06207269202027231,
          -0.10206126217035127,
          0.118424967991496,
          0.18197359699659116,
          0.3069400045300432,
          -0.06996170587210149
        ],
        [
          -0.13812888893308237,
          0.23869572216269339,
          -0.26874020768483475,
          0.4860640864344939,
          0.29442596431713774,
          -0.5444875863000149,
          -0.3142927348645009,
          -0.603470217199571,
          -0.13961881119273734,
          0.061847209880215,
          -0.10516064094587155,
          -0.17429962408349187,
          0.08053730640755666,
          -0.1859204374124018,
          0.22587328677234483,
          -0.056553464239658346,
          -0.4057355710064868,
          -0.7001489097112404,
          -0.024502067075605063,
          0.16045748576851565,
          -0.16532441482372276,
          -0.27969317397735793,
          0.028343808262733493,
          -0.2870822764988345,
          0.1565330776961366,
          -0.019138556733369113,
          -0.04033852857834504,
          -0.36325841215126875,
          0.05921376700715785,
          -0.41721121777049924,
          -0.026605257053247938,
          -0.029977053908717386,
          0.4905032560813257,
          -0.03826849569319354,
          -0.42992803570148574,
          0.11531254221168807,
          0.0519406933343648,
          0.23318738409962358,
          -0.005079538108336231,
          -0.13290870724069204,
          0.165236075410611,
          -0.0236034413005502,
          0.2807636503643539,
          -0.17300530234099418,
          0.2316059914420936,
          -0.052461390726656454,
          0.06900959580070426,
          0.34217784670269324,
          -0.333391600653961,
          0.15250758786800725,
          -0.013263825994428305,
          -0.22773265859180955,
          0.441028532125801,
          0.3099556493696481,
          0.045399595283481996,
          -0.15862037822342565,
          -0.40511714700905693,
          0.11334260947891395,
          -0.08012695535386914,
          0.08303883564817098,
          0.6137447363751206,
          0.22846516087633917,
          0.03343540148156972,
          -0.27046327692116173
        ],
        [
          0.15284538248753535,
          0.29732567201809124,
          -0.0022304708344645617,
          -0.025163669248370987,
          0.05137007851227404,
          0.3664223485190344,
          0.15290043515101895,
          0.07989519541801265,
          -0.5344215002563202,
          -0.1330352479106485,
          -0.5196049880177418,
          0.262969820461214,
          0.40883347171206086,
          -0.23760731005366295,
          -0.09937264870333617,
          0.03038710762073377,
          -0.5370789168832679,
          0.10960972388947769,
          0.1396555453511805,
          -0.0805877992383505,
          0.002140913337793812,
          0.1461465733623348,
          0.1943880148536262,
          0.004809291025240604,
          0.26892658300540495,
          0.174953925431713,
          -0.2158928312228734,
          0.11523918964027043,
          0.3564079753929354,
          -0.45723211866009766,
          -0.370054157034408,
          -0.06998930184880851,
          0.05341524910756963,
          -0.578378974117393,
          0.11487772897271419,
          -0.07497020585996807,
          -0.0624017095367632,
          -0.15233019539180467,
          -0.694857335963895,
          -0.05354277525893892,
          -0.42972336352536755,
          0.056992278096799444,
          -0.261891550626337,
          0.28711774396168077,
          -0.01952988156900984,
          0.27566543892692197,
          0.1381512081933655,
          0.06338947748004829,
          -0.4927812570156819,
          -0.25371818353608944,
          -0.0008200721665652576,
          0.17237793523096767,
          0.04492333129026618,
          0.04223115508752028,
          0.04223490614343286,
          -0.4076505611818322,
          -0.6939685262660948,
          0.043885158862947624,
          -0.5516466910516753,
          0.09348984511116634,
          0.15593147791225823,
          0.09732265840318109,
          0.09479360721755163,
          -0.0011220759465986122
        ],
        [
          -0.10381409031400887,
          -0.029939273913701225,
          -0.03040953533385478,
          -0.062267004665604885,
          0.45838747341313496,
          0.14941684059529675,
          -0.20474027431483446,
          -0.12302184965543822,
          0.15256518835145666,
          -0.17991814635769593,
          -0.07425097255790959,
          0.6553490424720738,
          -0.14535066894594306,
          -0.16226249080198724,
          -0.1374583550679456,
          0.06598608977271009,
          -0.1587193274983604,
          -0.23071984831570555,
          0.019065281392348303,
          0.011487419072322081,
          -0.18118409630395022,
          -0.05981694081735228,
          -0.02099835289261499,
          -0.6403033722744805,
          0.029489273782897094,
          0.02092831681400813,
          -0.12012708960495727,
          -0.23135202707881647,
          0.13270873321762366,
          0.3101735705725891,
          -0.09342183821518232,
          0.22680385097252212,
          -0.24147373096402078,
          -0.11780946992584455,
          -0.2891662687734118,
          -0.42295882738358903,
          -0.057895364306933476,
          0.20773576574741864,
          -0.20790053386646834,
          -0.4456612743899133,
          0.4403899426696283,
          -0.36781168333508396,
          0.0916686730589476,
          0.12275096375991099,
          0.11216144608331359,
          -0.12432785314921228,
          0.0920564645959199,
          -0.3905586922247717,
          -0.33826962194411253,
          -0.22898401816559552,
          -0.147133247205102,
          -0.3025601113874379,
          -0.8188032730460433,
          0.11651661253134978,
          -0.2690673958211879,
          0.10292923451927584,
          -0.15572606581277842,
          -0.7865562586531485,
          -0.05985027116815554,
          0.3595476073918253,
          -0.2840438277829295,
          0.0194596949992754,
          -0.055083962578268586,
          0.2439264154741476
        ],
        [
          -0.13309522195742574,
          0.22955702530754502,
          0.07233489202562499,
          -0.2577702040016423,
          0.4177775592327596,
          -0.38676890329994773,
          -0.6440588636387922,
          0.21200544142184483,
          -0.40528639055797816,
          0.02504370986140215,
          0.28528697921712937,
          0.2759584421321517,
          0.019870366385358256,
          0.14649865309382837,
          0.08073714935420521,
          0.29098909463819833,
          0.25245716025424997,
          -0.08701368104231681,
          -0.29632966807711564,
          -0.3750042452524302,
          -0.07763408786388465,
          0.2705215455933822,
          0.03528924205752425,
          0.3865341150322052,
          0.01999131444640626,
          -0.1386218197281219,
          -0.0332738252430461,
          -0.09984239463272288,
          0.2400170153482326,
          -0.0021428047294766244,
          -0.04948428496631026,
          0.1747711076193762,
          0.18643338543489757,
          -0.2488954403544808,
          -0.09649465208794415,
          0.5078100547708689,
          0.3855441006133127,
          0.2803997976276888,
          0.09224676181158385,
          0.08598875579379987,
          -0.04866138938031674,
          0.10254234801559284,
          0.13934821732646974,
          0.12048632973907354,
          0.03773005820356235,
          0.04132282117382702,
          -0.07648891138404182,
          -0.06109164343999435,
          -0.15159240388490675,
          -0.039904721005516605,
          -0.13825869237013805,
          0.1860440976767687,
          -0.16528449210126905,
          -0.04921227911957267,
          -0.16763516622186667,
          -0.06328035303948937,
          0.12699361489195413,
          0.47221454462938106,
          -0.18435771832578207,
          0.3829095697820948,
          0.14333437648626082,
          -0.3456529357261333,
          0.11819888797666721,
          0.42111760987378416
        ],
        [
          -0.2642550651273434,
          -0.8023023954980488,
          0.4556560424350741,
          0.35995108035563506,
          0.03141388798669746,
          -0.1257210113059383,
          -0.04590907249517943,
          -0.054049288730052485,
          -0.09746543925974567,
          -0.6197810675808298,
          -0.027835874362351496,
          0.04634535829143778,
          0.07266126132979157,
          -0.07668657204519935,
          0.05720621095377815,
          -0.31976264759822004,
          0.13444736723469863,
          0.06257641977091585,
          0.38475245957851506,
          0.26545379596670243,
          0.15676102750972523,
          -0.06633545940638996,
          -0.15654233787098656,
          0.06482691312440235,
          -0.3629147049227714,
          -0.15165556368655062,
          0.5524777970163112,
          -0.23959662169531035,
          0.07506764550766656,
          0.03411907397914747,
          0.15348035469376306,
          -0.0020958434967856504,
          -0.4906081753234534,
          0.09233587761918575,
          0.027114353783538013,
          -0.3273237263372298,
          0.2129788029419263,
          -0.11191966177169398,
          0.3702188083383396,
          0.19834476975429904,
          0.07111541322546673,
          -0.007978599045203396,
          0.08350834209908885,
          0.11835979639546239,
          0.1934182749261041,
          -0.13194007785924833,
          0.41508158191537775,
          -0.6155683746318091,
          0.12442410398738678,
          0.16972988063696842,
          -0.08925735879227382,
          -0.14695137332529642,
          -0.021981408357444304,
          -0.05640714286847554,
          -0.3866681843891187,
          -0.09240119151164199,
          -0.02146903408783655,
          0.08164749871213306,
          -0.2147022746629681,
          0.19473810198304953,
          -0.4350106907321975,
          -0.28828613466001957,
          -0.34662228511244336,
          -0.17064346595021565
        ],
        [
          0.07085287949587019,
          -0.05299571800765383,
          0.22936441635028956,
          0.22009831082906248,
          -0.6588722000204188,
          0.013416792907764038,
          -0.21149594669699323,
          -0.29247485720988387,
          0.3240245130429152,
          -0.08686260908424885,
          -0.12210482903648497,
          -0.26475734715531957,
          0.1653943732799041,
          0.31789833336938306,
          -0.33380750228460465,
          -0.19562369788221587,
          -0.34572850234211605,
          -0.5891941459749864,
          0.06523801111649975,
          -0.13086645322627527,
          0.23533492660862212,
          -0.2903078374942981,
          0.020932674063485264,
          0.027798929749190522,
          0.18076599099485716,
          -0.09331602375535428,
          -0.014713638076257265,
          -0.07030341897998793,
          -0.06511261254806776,
          -0.13409450245498436,
          0.019265955598963696,
          0.10604027809961876,
          -0.22424902876429845,
          -0.490712044474257,
          -0.36995641484203745,
          0.003341780116448817,
          -0.2664891178994406,
          0.3968967699964566,
          -0.3616998340259937,
          0.08501191230146314,
          0.1217884587549931,
          0.42464936292330535,
          -0.11572315067392867,
          -0.16218171691598324,
          0.22501014270056155,
          0.30203291093328793,
          -0.3427439181286504,
          0.30276432051684826,
          -0.2250107687849288,
          -0.5798605680040678,
          0.2897028833974288,
          -0.13549972404464028,
          -0.15781020051744826,
          -0.024590599074363777,
          0.17048330137674012,
          0.16623526183774312,
          0.1479616003105625,
          -0.008778614970735352,
          0.03559323329886978,
          0.328407136776873,
          -0.11189345286261451,
          -0.21992179294184577,
          -0.040178836693843485,
          -0.09985057988486641
        ],
        [
          -0.02821053728434951,
          0.05752226928144304,
          0.06772405765648594,
          -0.040561230751822525,
          0.12968031862591564,
          0.047169933366560675,
          -0.482245576389241,
          -0.5758554762717432,
          0.10957079213986635,
          0.18205078577816747,
          -0.2128195803602838,
          -0.02754100118656978,
          -0.11781342674867686,
          0.16385652712881854,
          0.2728368427646603,
          0.06415766803999719,
          -0.10634328838980227,
          0.10486901273212106,
          0.09277260050670004,
          0.01233086261047005,
          0.10198193666862851,
          -0.13521608104428623,
          0.08026331410944407,
          0.534749764032627,
          0.030324038736048824,
          0.22303292304146632,
          0.45361911780389513,
          0.12889682561899768,
          -0.3549302529620129,
          0.3326797541856656,
          -0.2979414497550307,
          0.06876119582515804,
          -0.36335506133341505,
          -0.479815323305266,
          0.08025383450991684,
          -0.06981318087605752,
          0.20004283888818178,
          -0.06423965986862402,
          0.37803838718764954,
          0.3376961995295769,
          0.22779576955759367,
          0.34339950585484674,
          -0.4875820413138473,
          0.07901224657222393,
          -0.49345793266123567,
          0.17630189350874484,
          -0.47517484852949265,
          -0.08552399135300696,
          -0.181670139105619,
          -0.7951460123879073,
          0.12326630534889986,
          0.05441677924425517,
          0.04939317886782119,
          0.01130559193692631,
          0.07613419371036964,
          0.34672901973599896,
          -0.5319430740606548,
          0.27756392395972806,
          -0.06977958712333379,
          0.49322479531856167,
          0.05158081248980388,
          0.49719592348746194,
          -0.1968110292064511,
          -0.16360219434634724
        ],
        [
          0.4717324214219907,
          0.13727521402272322,
          -0.1804259271705573,
          0.009988529051637704,
          -0.06708226612075556,
          0.181972783965858,
          -0.14513487897356972,
          -0.14473795094114678,
          0.14093736876624918,
          0.10938708410852054,
          -0.05711649174513739,
          -0.28961436352723013,
          0.16269444179915138,
          0.0013183981436256048,
          0.12086598974190052,
          0.345117490618576,
